,0
0,-0.027622007
1,-0.011865079
2,-0.03468114
3,-0.02024664
4,0.010143571
5,-0.062469132
6,-0.04997053
7,0.044822566
8,0.016542561
9,0.03867194
10,-0.0052443445
11,-0.01543726
12,-0.038940288
13,-0.0143368095
14,0.0058989823
15,0.020188786
16,-0.056652844
17,0.026416004
18,0.012847133
19,0.046587147
20,0.010387115
21,-0.038114563
22,-0.025687434
23,-0.013031334
24,-0.021088868
25,-0.014806412
26,0.025298879
27,-0.022501096
28,-0.05561588
29,0.024642766
30,0.012318522
31,-0.01601132
32,0.041133285
33,-0.0021815598
34,-0.008826852
35,-0.028489932
36,-0.04974182
37,0.03376075
38,-0.031303994
39,0.042437136
40,-0.038405992
41,0.060566507
42,-0.04366573
43,-0.05549053
44,0.030289114
45,-0.016209863
46,-0.03266628
47,0.03984382
48,-0.024861164
49,-0.030159652
50,0.051283725
51,0.04212126
52,-0.03394281
53,-0.03479644
54,-0.03743173
55,-0.019822106
56,0.049068913
57,-0.04644894
58,-0.03779932
59,-0.030304201
60,-0.0138791725
61,-0.01111196
62,-0.01868236
63,-0.02218192
64,0.03405422
65,0.058741264
66,0.028715074
67,-0.009067297
68,0.057499826
69,-0.008646868
70,-0.02040954
71,-0.0182852
72,0.014996752
73,0.0071776435
74,-0.029402055
75,-0.01847718
76,0.025299467
77,-0.009231798
78,-0.024129093
79,-0.0130834505
80,-0.0604996
81,0.05929794
82,-0.023659326
83,-0.04565297
84,-0.053111434
85,0.043289162
86,0.047441296
87,-0.0019016191
88,-0.023424096
89,-0.022162355
90,-0.062268764
91,-0.056175932
92,0.03301455
93,0.016418546
94,-0.061673246
95,0.0033219606
96,-0.062273942
97,0.056690983
98,-0.045108333
99,-0.051494025
100,0.030855715
101,0.056141585
102,-0.025028698
103,0.032636292
104,0.0070900917
105,-0.0045942366
106,0.0015304685
107,0.042547986
108,-0.038379535
109,0.008882254
110,-0.01537738
111,0.0395414
112,-0.051491924
113,0.05291581
114,-0.0027077943
115,-0.007264942
116,-0.049332455
117,0.058088608
118,-0.022234559
119,0.037285946
120,-0.05536697
121,-0.026848584
122,-0.03397441
123,-0.050483733
124,-0.05943626
125,-0.04376757
126,-0.004670121
127,0.012794785
128,-0.022707604
129,0.053572573
130,-0.033955336
131,-0.014688201
132,0.0027335808
133,-0.03570503
134,0.0071989223
135,0.011594988
136,-0.049750023
137,0.04062114
138,0.029175967
139,-0.0120764375
140,0.0371311
141,0.02202887
142,0.048954204
143,-0.033472925
144,0.03202866
145,-0.03823667
146,0.02555491
147,-0.0023242757
148,0.053005606
149,-0.0150029585
150,-0.036345154
151,-0.027174197
152,-0.008279078
153,0.02215498
154,0.001966752
155,-0.05270105
156,-0.041411385
157,0.012099043
158,-0.0183426
159,-0.022647083
160,-0.022524334
161,0.030283704
162,0.027157396
163,-0.05441127
164,-0.020877473
165,0.053753853
166,0.05336204
167,0.024687685
168,-0.038584657
169,0.057069898
170,0.04231503
171,0.003648162
172,0.009045392
173,0.030133367
174,0.042013958
175,0.04191917
176,0.048935056
177,0.020710893
178,0.024969041
179,0.045168005
180,-0.004768528
181,-0.03430251
182,-0.007924482
183,-0.03900025
184,0.028452896
185,-0.014858745
186,-0.030152515
187,0.012930952
188,-0.026522696
189,0.040393963
190,0.042791285
191,-0.055040024
192,0.04331653
193,0.040680043
194,0.018902056
195,-0.019501612
196,-0.05226133
197,0.012753516
198,0.010538906
199,0.012087785
200,0.036473326
201,-0.05113568
202,0.040021576
203,0.024920918
204,0.022848286
205,-0.017599046
206,-0.038015008
207,0.04272841
208,-0.03553784
209,0.05053565
210,0.05353932
211,0.028865002
212,0.05518063
213,-0.024626136
214,-0.036103323
215,-0.04392925
216,0.040465407
217,0.03429891
218,-0.060879856
219,0.055646062
220,-0.016409762
221,-0.015983596
222,0.0023017079
223,-0.021356776
224,-0.0005707666
225,-0.06071061
226,-0.0010309443
227,-0.046491593
228,-0.010162003
229,0.025174938
230,-0.06064439
231,0.01024434
232,-0.02887012
233,0.020051546
234,0.016501762
235,0.0048400015
236,-0.047615685
237,0.022206202
238,0.016997822
239,0.0063359216
240,-0.03473521
241,0.003273502
242,0.027182318
243,0.062150754
244,-0.040903814
245,-0.0486347
246,0.013707578
247,-0.055947937
248,-0.015791394
249,-0.059571072
250,-0.041659802
251,-0.058005065
252,0.049429804
253,-0.019697309
254,-0.020052217
255,0.03217013
256,-0.018807404
257,-0.008692846
258,0.045647293
259,-0.043967612
260,-0.04083956
261,0.037773088
262,0.049307585
263,0.023519523
264,0.05948355
265,-0.009465419
266,-0.0019910336
267,0.060459353
268,-0.0055975914
269,-0.05491919
270,0.057568036
271,0.0024377927
272,0.05498699
273,0.008479804
274,0.023340613
275,0.011560962
276,0.032738768
277,-0.015419312
278,0.0395305
279,-0.061040133
280,0.01589644
281,0.0028511733
282,0.029564545
283,-0.053317003
284,0.0009847358
285,0.022238016
286,-0.007810667
287,-0.049831755
288,-0.0008427128
289,0.047677442
290,0.039837107
291,-0.03814978
292,-0.027214818
293,0.03777662
294,-0.04003635
295,0.028749049
296,-0.03142006
297,0.06172134
298,0.027638972
299,0.032195188
300,-0.047840714
301,-0.043362543
302,0.059754096
303,-0.043275066
304,-0.033404887
305,-0.029687166
306,-0.039861307
307,-0.05102525
308,0.03806886
309,-0.061662875
310,0.01990176
311,-0.0266978
312,-0.0025635362
313,-0.029421918
314,-0.03144841
315,0.058573544
316,-0.059693754
317,0.010573775
318,-0.014531627
319,0.035466924
320,0.004667431
321,0.023027793
322,0.019304179
323,0.0013783127
324,-0.026480839
325,0.052698724
326,0.051267736
327,0.056063384
328,0.048571654
329,0.05821573
330,-0.037038103
331,0.036644965
332,-0.04576765
333,0.05130931
334,0.027329832
335,-0.031133339
336,0.05589412
337,-0.011341952
338,0.053146437
339,-0.025257044
340,-0.0035648644
341,-0.03771434
342,-0.023960464
343,-0.001444526
344,-0.055601247
345,-0.027652577
346,0.042029187
347,-0.030818388
348,0.014834106
349,0.04500646
350,-0.040127687
351,-1.718849e-05
352,0.027946338
353,0.010946922
354,0.020312518
355,-0.039869033
356,0.031257413
357,-0.0077954084
358,-0.022306025
359,0.024769582
360,0.05133407
361,0.028011516
362,-0.009505972
363,0.04310949
364,0.02683004
365,0.0460291
366,0.033840686
367,-0.036993347
368,0.027125247
369,0.024692513
370,0.039773747
371,0.009393342
372,-0.05100753
373,-0.009967305
374,0.023687169
375,0.062202968
376,0.053986184
377,-0.0231485
378,0.023490906
379,0.05054812
380,0.037950873
381,-0.034088843
382,0.005966909
383,-0.05590465
384,-0.0122796595
385,-0.039950497
386,0.00803823
387,-0.040721774
388,-0.06136082
389,-0.009703048
390,-0.010770775
391,-0.0035768226
392,0.022666
393,-0.011632524
394,-0.002222836
395,0.052458502
396,0.0036962181
397,-0.030257888
398,0.011166826
399,0.057636052
400,0.058386914
401,-0.04009483
402,-0.032142453
403,-0.05066458
404,0.002951555
405,-0.021771625
406,0.028300837
407,-0.037978843
408,-0.051469333
409,0.061093763
410,0.014841214
411,0.047103114
412,0.05855809
413,-0.028744973
414,0.03746576
415,-0.03421215
416,0.061409168
417,-0.0598258
418,0.047272064
419,0.0026834682
420,0.032719336
421,-0.021373764
422,-0.056156598
423,0.0046270713
424,0.041666858
425,0.012883104
426,0.049660765
427,-0.015984386
428,-0.03132785
429,-0.053696126
430,0.0023705512
431,-0.037879296
432,-0.004225455
433,0.035016723
434,-0.053529486
435,0.025347263
436,-0.032195233
437,-0.015211798
438,-0.037022226
439,-0.06143023
440,0.04743486
441,-0.060429215
442,0.015289009
443,-0.04496766
444,0.032148555
445,0.03274612
446,0.05087462
447,-0.048743546
448,-0.013710551
449,0.06150786
450,-0.04176931
451,0.05776555
452,0.031265207
453,-0.01905062
454,-0.047186434
455,0.024793744
456,0.058521345
457,0.011389814
458,0.019822769
459,-0.034053743
460,-0.0038678646
461,0.019888036
462,0.024460457
463,-0.049792744
464,-0.011991806
465,-0.043008544
466,0.01624278
467,0.0520083
468,0.024593696
469,-0.040680833
470,0.023764968
471,0.055514283
472,-0.055985913
473,-0.037018128
474,-0.040083326
475,-0.047681257
476,0.02558615
477,-0.047400676
478,-0.025472462
479,0.039659694
480,-0.0003857389
481,0.021266907
482,-0.06030141
483,0.06235878
484,0.026770063
485,0.0036368072
486,-0.01910904
487,-0.025537096
488,-0.054496147
489,0.0046880767
490,-0.0034559444
491,-0.014515325
492,0.0012506172
493,-0.027422726
494,0.024741724
495,0.02937802
496,0.049240477
497,-0.01999154
498,0.059464455
499,0.049333476
500,0.027507044
501,0.014784925
502,-0.033745654
503,-0.04913997
504,-0.008834608
505,-0.0021405816
506,-0.024514884
507,-0.023573548
508,0.05867616
509,0.04965646
510,0.033223934
511,0.03126111
512,-0.052583575
513,0.01802285
514,0.04940381
515,-0.00014748424
516,0.052959144
517,0.018906094
518,0.0010868385
519,0.001244247
520,0.0073819757
521,0.025877036
522,-0.045257084
523,0.060290642
524,-0.053027138
525,0.0014926791
526,-0.0076403394
527,-0.016789667
528,-0.05269856
529,-0.059663527
530,0.022346497
531,0.04566285
532,-0.00783477
533,-0.018950671
534,-0.002328977
535,0.05699195
536,-0.05309213
537,-0.054509595
538,-0.02309636
539,0.0024985448
540,-0.020398706
541,0.006673813
542,-0.029718794
543,0.024378851
544,0.025577396
545,0.013369083
546,0.055544257
547,-0.05355809
548,-0.03969036
549,0.0026049316
550,-0.0074546635
551,0.028374188
552,-0.0258272
553,0.043856762
554,-0.030087456
555,0.05409544
556,-0.027867183
557,0.05716403
558,-0.0070424974
559,-0.026070632
560,-0.033498675
561,0.02579461
562,0.034252726
563,-0.045650683
564,0.023002326
565,0.032692
566,0.0074808225
567,-0.03639335
568,-0.006705314
569,-0.03722065
570,0.051004417
571,-0.04181864
572,0.024965748
573,0.01563847
574,0.0069899336
575,0.03727527
576,0.02737175
577,-0.042134285
578,0.027798317
579,0.04036837
580,0.019203216
581,0.035032004
582,0.0029451624
583,0.043010145
584,0.020861566
585,0.020500228
586,-0.052747585
587,0.012916282
588,0.04300879
589,-0.02971065
590,0.005728528
591,-0.004438244
592,-0.00023760647
593,-0.005524814
594,-0.05271647
595,0.021427996
596,0.015594281
597,-0.017472498
598,0.021145813
599,0.00857313
600,0.057697028
601,0.031509005
602,0.051555797
603,-0.0104243755
604,-0.051851615
605,-0.026484825
606,0.04278987
607,0.059450075
608,-0.0047927573
609,0.06067226
610,-0.024782054
611,0.038221426
612,-0.030564569
613,-0.032952495
614,-0.0023521408
615,0.029152438
616,-0.026737206
617,0.057612643
618,-0.00758297
619,0.018796705
620,0.042221226
621,-0.037579387
622,0.042304114
623,-0.059853047
624,0.039184585
625,-0.01060272
626,0.025693417
627,0.0340686
628,0.048526153
629,-0.02090276
630,-0.010004558
631,-0.019897774
632,-0.015681729
633,0.005609885
634,-0.012069643
635,-0.030334674
636,0.0027986765
637,-0.06083937
638,-0.0173994
639,-0.032965295
640,-0.03758481
641,-0.0054442286
642,-0.036046915
643,0.043657117
644,0.047826625
645,-0.026617058
646,-0.050249808
647,-0.021049358
648,-0.025304712
649,0.027782232
650,0.044264406
651,-0.011706591
652,-0.015392475
653,-0.016034275
654,0.02468513
655,0.03969931
656,0.058579296
657,-0.027345255
658,-0.015333638
659,-0.025310136
660,0.060031965
661,0.032501288
662,-0.023636304
663,0.04471477
664,0.030294232
665,-0.050871864
666,0.0022700578
667,0.03465852
668,-0.022885561
669,0.01552847
670,-0.041208513
671,-0.013666503
672,0.046097495
673,0.03959076
674,0.05414439
675,0.014880538
676,-0.05283574
677,-0.016737238
678,-0.05605968
679,-0.030671641
680,0.05829557
681,0.02933684
682,-0.030659355
683,-0.00093737245
684,0.0009946451
685,-0.017005377
686,0.025330879
687,0.016998187
688,-0.008450672
689,-0.05474998
690,-0.022107512
691,0.016314127
692,0.06151794
693,-0.007071607
694,0.034750402
695,0.05530645
696,0.053269595
697,0.04917199
698,0.035949327
699,-0.016875602
700,-0.022817895
701,0.037486658
702,-0.03556367
703,-0.05642765
704,0.043675795
705,-0.028186955
706,0.005799949
707,-0.017494857
708,0.007918343
709,-0.03671366
710,0.013265677
711,0.05335819
712,0.05142218
713,-0.010563083
714,0.041856542
715,0.0011312291
716,0.053685702
717,0.047312275
718,0.042336546
719,0.018765546
720,0.049808174
721,-0.021697521
722,0.027653508
723,-0.018346451
724,0.018625505
725,0.024211846
726,-0.04098045
727,-0.031691454
728,-0.05411145
729,0.060141288
730,0.018028311
731,-0.04282426
732,0.026738577
733,0.02728676
734,-0.042765528
735,0.016189948
736,0.032412797
737,-0.014159411
738,0.031546764
739,-0.044257253
740,-0.01830984
741,0.049364336
742,-0.05152072
743,0.042422287
744,-0.021108039
745,0.044773765
746,0.06218972
747,-0.042013794
748,0.006906256
749,-0.0013442561
750,0.028235793
751,0.027327232
752,0.0055300295
753,0.029342465
754,-0.062441044
755,-0.054488838
756,-0.05867169
757,-0.009721883
758,-0.034064583
759,0.014876492
760,-0.038553275
761,0.057213552
762,-0.018242836
763,0.012828872
764,0.02780608
765,0.037686616
766,0.05605466
767,0.041798018
768,-0.05068446
769,0.038905904
770,-0.00071970373
771,-0.061802104
772,-0.03807641
773,-0.010180667
774,0.054005012
775,0.03252075
776,-0.018047601
777,-0.03326264
778,0.026065841
779,0.059090354
780,-0.0384693
781,-0.0017089918
782,0.03450735
783,0.021927431
784,-0.044444434
785,0.0027719736
786,0.0076508597
787,0.016052902
788,0.015597291
789,-0.025441416
790,0.043182597
791,0.035559513
792,-0.041105196
793,0.017841123
794,0.05884239
795,-0.046213806
796,-0.0546993
797,-0.016415097
798,-0.010745205
799,-0.014011875
800,-0.0395628
801,-0.011422768
802,0.0026039332
803,-0.009880006
804,0.022248521
805,-0.0453017
806,0.008649111
807,0.0366667
808,-0.028181449
809,-0.011658929
810,-0.04095102
811,0.04895757
812,-0.045108862
813,-0.0011374876
814,-0.0100544095
815,0.010870196
816,0.045177296
817,-0.03627287
818,-0.020647384
819,0.026711434
820,-0.020373404
821,0.036787458
822,0.035538726
823,0.057420768
824,0.0351006
825,0.052520506
826,0.055499695
827,0.060384817
828,0.030179158
829,0.04405985
830,0.04633666
831,-0.056162573
832,-0.057965033
833,0.0007683411
834,0.022863299
835,-0.014747791
836,-0.056072883
837,0.014583953
838,-0.010883845
839,0.04388102
840,0.02168741
841,0.057773955
842,-0.0076474994
843,0.042747997
844,-0.0010912344
845,-0.007923067
846,0.05579721
847,-0.06074591
848,-0.036432207
849,0.0077400506
850,-0.056692302
851,-0.016088352
852,-0.008114427
853,-0.055956617
854,-0.033120923
855,-0.05472795
856,0.06065271
857,-0.045676865
858,-0.045594476
859,0.060467698
860,-0.028211325
861,0.0046714395
862,-0.021347135
863,-0.05957836
864,0.014470287
865,0.012455441
866,-0.037942246
867,-0.05488527
868,0.00601846
869,0.010402784
870,0.05753559
871,-0.021971859
872,-0.061419897
873,-0.029972844
874,0.030598067
875,0.010728322
876,0.007969826
877,0.055504814
878,-0.010037631
879,0.0007829219
880,-0.012819059
881,0.0008879453
882,-0.03777668
883,0.03649188
884,0.025791459
885,0.00835868
886,-0.049458794
887,-0.060270056
888,-0.055471808
889,-0.03541538
890,0.05672992
891,-0.057126492
892,-0.034466095
893,-0.035561763
894,-0.019804984
895,0.024783231
896,0.05525019
897,0.0032745749
898,0.04566203
899,-0.018639795
900,0.015827276
901,0.040628567
902,0.02254425
903,0.059605747
904,-0.019537821
905,0.032571457
906,0.043689445
907,-0.06074802
908,0.0025545806
909,0.004478544
910,0.039338373
911,0.039688274
912,0.0568929
913,0.011185348
914,0.06234748
915,-0.044255584
916,-0.04296729
917,0.027906269
918,-0.045421667
919,-0.001835689
920,0.024254315
921,-0.020689681
922,0.0033321455
923,0.025887854
924,0.018154085
925,-0.05472602
926,0.0010242015
927,0.01639364
928,-0.022731178
929,0.02534283
930,0.058324732
931,0.040459506
932,-0.0010736659
933,-0.049584866
934,-0.017175287
935,-0.014770329
936,-0.051159143
937,0.02909299
938,0.009926692
939,-0.022647604
940,-0.060848504
941,-0.034164168
942,0.031284682
943,0.061747745
944,0.009399787
945,-0.017907105
946,-0.06127301
947,0.03853251
948,-0.034597874
949,0.051669426
950,-0.031763934
951,0.04084304
952,-0.03592608
953,0.047111593
954,0.0001450777
955,0.045008138
956,0.023626447
957,0.039780542
958,0.051517762
959,-0.037900105
960,0.060159072
961,0.041885152
962,-0.014141686
963,-0.05265999
964,0.00035734475
965,-0.043207057
966,-0.04315442
967,-0.02112858
968,-0.053702906
969,-0.03681107
970,-0.0622477
971,-0.021194816
972,-0.014000826
973,-0.04110808
974,-0.0068688244
975,-0.0012668744
976,-0.0039514676
977,-0.03929705
978,-0.016446926
979,0.008112088
980,0.051592693
981,0.02454438
982,0.041430622
983,-0.00899525
984,0.027486391
985,-0.038939424
986,-0.025920726
987,-0.0422609
988,0.043386877
989,0.029908441
990,0.017474271
991,-0.014716953
992,-0.035210885
993,-0.00089047104
994,0.005525574
995,-0.05058317
996,-0.021610707
997,-0.005457312
998,0.026095621
999,0.06248354
1000,0.039373465
1001,0.03103432
1002,-0.00089182705
1003,0.038056076
1004,0.044087484
1005,0.010209098
1006,0.015986234
1007,-0.033739187
1008,-0.00019833446
1009,-0.03719061
1010,0.0334842
1011,0.040224344
1012,-0.04625587
1013,-0.0347554
1014,-0.047443844
1015,0.062117547
1016,0.000585936
1017,0.012221843
1018,0.034213997
1019,-0.032353587
1020,-0.028659515
1021,0.03369493
1022,0.038192265
1023,0.0036792904
1024,-0.0034824759
1025,0.02247566
1026,-0.0057956204
1027,0.01994986
1028,-0.04428646
1029,0.05730427
1030,0.014274664
1031,0.049440175
1032,0.048414037
1033,0.043895304
1034,0.02507954
1035,-0.0048109144
1036,0.024852619
1037,-0.05476562
1038,0.053684995
1039,-0.030876502
1040,-0.005871676
1041,0.0020485595
1042,-0.0045936033
1043,0.042509533
1044,0.04418198
1045,0.01206138
1046,-0.003789343
1047,0.05200787
1048,-0.027148843
1049,-0.012497745
1050,0.015715964
1051,0.040244862
1052,-0.0248499
1053,0.041817956
1054,-0.040575378
1055,0.002863951
1056,-0.05936975
1057,0.003198415
1058,-0.0034918562
1059,0.045929708
1060,0.050566323
1061,-0.0515789
1062,0.015507169
1063,0.007534258
1064,-0.05263327
1065,-0.011178225
1066,0.022958852
1067,0.026659727
1068,-0.014332302
1069,-0.022044629
1070,0.029667303
1071,-0.029464312
1072,-0.018950582
1073,-0.0211441
1074,-0.0066389367
1075,0.062121853
1076,0.03315045
1077,-0.013204776
1078,-0.048472248
1079,0.048828393
1080,0.015506603
1081,0.059045546
1082,-0.025563292
1083,-0.049380645
1084,0.052180782
1085,0.005589254
1086,0.05477205
1087,0.000501357
1088,0.034114607
1089,-0.058758214
1090,-0.036966845
1091,-0.0524116
1092,0.004608318
1093,0.06123074
1094,-0.005836636
1095,0.024665408
1096,-0.029603079
1097,-0.018021442
1098,0.05335261
1099,-0.037467346
1100,-0.05491332
1101,-0.021947287
1102,0.021331862
1103,-0.04272273
1104,0.056296416
1105,-0.05725804
1106,-0.0018441603
1107,-0.05669035
1108,-0.019279756
1109,-0.0033774823
1110,0.010747232
1111,-0.00860367
1112,0.050069124
1113,-0.042361796
1114,0.0439367
1115,0.002944298
1116,0.020161018
1117,0.03721723
1118,-0.008679278
1119,-0.0032701269
1120,-0.059038192
1121,-0.026778124
1122,-0.034964725
1123,0.033618435
1124,-0.0137186125
1125,0.05815182
1126,-0.03480635
1127,-0.057533413
1128,0.007897556
1129,0.046658345
1130,-0.03642451
1131,0.050013885
1132,0.021705031
1133,-0.04659032
1134,-0.04870829
1135,-0.058426626
1136,0.023938678
1137,0.06149426
1138,0.028652586
1139,0.036452726
1140,0.047294013
1141,-0.054994315
1142,0.035396717
1143,-0.049709886
1144,-0.018036127
1145,0.015002884
1146,0.03972646
1147,-0.0054609478
1148,-0.031297855
1149,0.05385325
1150,0.040554002
1151,-0.020993195
1152,-0.05342686
1153,0.008521095
1154,0.030987017
1155,0.03577371
1156,-0.0102074295
1157,0.053939432
1158,-0.02538295
1159,0.008604407
1160,0.054837666
1161,0.011744343
1162,-0.04003214
1163,0.024279475
1164,-0.05332487
1165,0.03820944
1166,-0.012851082
1167,-0.024078801
1168,0.018977575
1169,0.021513663
1170,-0.048981003
1171,-0.062314555
1172,0.017896801
1173,-0.04544255
1174,0.020593598
1175,0.054735392
1176,0.028245017
1177,-0.0020886287
1178,-0.0388541
1179,-0.005319461
1180,-0.018525071
1181,0.025995493
1182,-0.030582123
1183,0.061338678
1184,-0.02412384
1185,0.033557795
1186,-0.054575086
1187,0.041599907
1188,0.052943215
1189,0.0013404712
1190,-0.029583864
1191,-0.049869925
1192,-0.048331358
1193,0.0051004216
1194,0.02009707
1195,-0.05347593
1196,-0.027728446
1197,0.0035362244
1198,0.024855472
1199,0.030926451
1200,-0.0035953596
1201,-0.040351376
1202,0.035152473
1203,-0.058345713
1204,0.044236936
1205,-0.0352204
1206,-0.06028779
1207,-0.02471871
1208,-0.019767553
1209,-0.043201372
1210,0.030032009
1211,0.032984927
1212,0.020374544
1213,0.0007675439
1214,-0.036135048
1215,0.019042663
1216,0.00021617115
1217,-0.018259764
1218,0.050829135
1219,-0.03929194
1220,0.02370049
1221,0.05774595
1222,-0.03429433
1223,-0.05109802
1224,-0.0013883561
1225,0.043305054
1226,-0.03851396
1227,-0.053283013
1228,0.0006566271
1229,-0.019426972
1230,0.024136327
1231,0.0306307
1232,-0.04035589
1233,-0.0098064095
1234,0.02159001
1235,0.04597886
1236,-0.059651732
1237,0.015234962
1238,-0.04320731
1239,-0.0047003105
1240,-0.059812322
1241,-0.017093256
1242,-0.02823741
1243,-0.008929841
1244,0.008405231
1245,0.043110408
1246,0.029322185
1247,0.035271056
1248,-0.016324371
1249,-0.05818712
1250,0.02501528
1251,0.03709531
1252,0.055070534
1253,0.037095204
1254,0.040716454
1255,0.024538055
1256,0.021754853
1257,0.0026317686
1258,0.040324353
1259,-0.046922676
1260,0.022942178
1261,-0.020898469
1262,-0.05493889
1263,-0.052143343
1264,-0.041715443
1265,0.03925301
1266,-0.0362543
1267,-0.043701753
1268,0.0069791377
1269,-0.055357896
1270,0.0029414445
1271,-0.0067409053
1272,0.025770284
1273,0.045249388
1274,-0.035528474
1275,-0.014755882
1276,-0.04789193
1277,0.01906354
1278,0.055962764
1279,-0.054990187
1280,0.022032335
1281,0.031610303
1282,0.0069493204
1283,0.05259835
1284,0.060749404
1285,-0.040139765
1286,0.01612208
1287,-0.047271952
1288,0.060495935
1289,0.02328813
1290,-0.017111093
1291,-0.043916963
1292,0.03367649
1293,0.0067411587
1294,-0.036743134
1295,0.03234919
1296,-0.008913495
1297,0.012743078
1298,-0.002974853
1299,-0.05575244
1300,0.05353859
1301,-0.05154954
1302,0.010531791
1303,-0.006512314
1304,0.03669341
1305,0.061302133
1306,0.009190507
1307,-0.05205909
1308,0.026683405
1309,-0.0349712
1310,-0.045707762
1311,0.044754192
1312,-0.056500025
1313,0.043380223
1314,0.061084025
1315,0.007190302
1316,-0.046034694
1317,-0.001008898
1318,0.010009855
1319,-0.04839039
1320,-0.032718584
1321,-0.03007228
1322,-0.036506385
1323,0.011464931
1324,0.011890866
1325,-0.0188974
1326,0.046452254
1327,-0.026328504
1328,-0.039802916
1329,-0.049803533
1330,0.05153408
1331,0.06213074
1332,-0.055741377
1333,-0.028714769
1334,0.0624547
1335,0.059645727
1336,0.050253943
1337,0.025244765
1338,0.04006248
1339,-0.020826645
1340,-0.06213589
1341,-0.002900824
1342,0.0578342
1343,-0.013241276
1344,-0.007346086
1345,-0.0431422
1346,-0.03144498
1347,-0.008584008
1348,-0.021191351
1349,0.058475353
1350,0.009503439
1351,-0.025010847
1352,0.02030617
1353,-0.055514812
1354,-0.0265342
1355,-0.059859872
1356,-0.030191727
1357,-0.026181124
1358,0.05429989
1359,-0.023593582
1360,-0.056794196
1361,0.030796163
1362,-0.043049976
1363,0.024278507
1364,-0.06186027
1365,-0.021253094
1366,-0.024277039
1367,-0.055341534
1368,-0.03308709
1369,0.021795005
1370,-0.028514504
1371,0.015061423
1372,-0.022722088
1373,-0.025922164
1374,0.0383365
1375,0.014210179
1376,0.01836349
1377,-0.008517921
1378,-0.004655637
1379,-0.011042364
1380,-0.036156
1381,-0.023828924
1382,0.04057794
1383,-0.034663975
1384,-0.059386127
1385,-0.045955904
1386,0.039615102
1387,0.034210823
1388,-0.036056504
1389,-0.0066639483
1390,0.018495314
1391,-0.037774585
1392,0.028846726
1393,0.034995846
1394,0.011300348
1395,-0.014781006
1396,0.024066292
1397,0.037216775
1398,-0.003952205
1399,0.059144065
1400,0.044375315
1401,0.029089756
1402,-0.030524671
1403,0.040171824
1404,-0.012718663
1405,-0.037608214
1406,0.028930075
1407,-0.0057342052
1408,-0.01250907
1409,0.050248988
1410,-0.053794853
1411,0.051531836
1412,0.03125277
1413,0.036112033
1414,-0.0021665692
1415,-0.030424438
1416,0.011299625
1417,-0.008207895
1418,0.0024084002
1419,-0.017890915
1420,0.014590628
1421,-0.044884764
1422,0.03656163
1423,0.059543766
1424,-0.037114635
1425,0.0025852546
1426,-0.01796002
1427,-0.03982939
1428,-0.06032578
1429,-0.037110426
1430,-0.0345587
1431,-0.05916264
1432,-0.023758814
1433,0.023587406
1434,-0.018728554
1435,0.00164859
1436,0.033273317
1437,-0.0274878
1438,-0.05238495
1439,0.05049268
1440,-0.029341012
1441,0.038101025
1442,0.059427798
1443,-0.04175751
1444,0.052234888
1445,0.020207532
1446,-0.02110745
1447,0.029617496
1448,-0.04820273
1449,0.0010983646
1450,-0.05084402
1451,0.012329012
1452,0.05671177
1453,-0.046272703
1454,0.017992541
1455,0.050979383
1456,-0.062440567
1457,0.014123067
1458,0.031131491
1459,-0.0046881586
1460,0.034177713
1461,0.0131068155
1462,0.023451611
1463,0.061397806
1464,0.037652373
1465,0.031553708
1466,0.056110777
1467,0.033214934
1468,-0.053340636
1469,-0.012346633
1470,-0.050513342
1471,-0.04330846
1472,-0.0053992495
1473,-0.017455332
1474,-0.02883184
1475,-0.03615892
1476,-0.043576024
1477,-0.015464954
1478,0.034264855
1479,-0.0006195307
1480,0.02702967
1481,-0.018190809
1482,0.02456744
1483,-0.055156082
1484,0.051215313
1485,0.059031315
1486,-0.045565106
1487,0.020989358
1488,-0.011795178
1489,0.053476445
1490,-0.013218805
1491,0.010197535
1492,-0.004352398
1493,0.049852073
1494,0.03472826
1495,0.02479212
1496,-0.05088348
1497,0.044800714
1498,0.06235289
1499,0.044281438
1500,0.046308994
1501,-0.007891536
1502,-0.028641112
1503,-0.00079431385
1504,0.0050935596
1505,-0.013517357
1506,0.024205096
1507,-0.059029065
1508,0.053241394
1509,-0.005739905
1510,-0.059475332
1511,-0.06138093
1512,0.006880343
1513,-0.0041020587
1514,0.038253516
1515,-0.027956955
1516,-0.03708051
1517,-0.019128084
1518,-0.012121223
1519,0.04075232
1520,0.0014487877
1521,0.04514791
1522,0.01774931
1523,0.03075651
1524,0.0052408874
1525,0.012894638
1526,0.01920697
1527,-0.05071482
1528,-0.03656403
1529,0.058590814
1530,0.00070587546
1531,-0.029774234
1532,-0.026167132
1533,-0.036317386
1534,0.019356415
1535,-0.019926496
1536,0.053899392
1537,-0.039318256
1538,0.03422498
1539,0.048350893
1540,0.05256795
1541,0.0016100332
1542,0.016529612
1543,0.019821063
1544,-0.031799465
1545,-0.007937655
1546,0.046252184
1547,-0.019737594
1548,-0.008390948
1549,0.027388886
1550,-0.01297532
1551,-0.040824927
1552,0.0001290068
1553,-0.041282803
1554,0.057357863
1555,0.008164912
1556,0.047628276
1557,0.01929129
1558,0.050791822
1559,-0.03778837
1560,0.024639599
1561,0.05612594
1562,-0.046716824
1563,0.035338037
1564,0.008841634
1565,-0.030971251
1566,0.0023037791
1567,-0.03733796
1568,-0.05943253
1569,-0.007004909
1570,-0.051928118
1571,-0.044241466
1572,0.0026794747
1573,0.048279166
1574,0.00953082
1575,0.02403216
1576,0.032976575
1577,0.057230555
1578,0.0252662
1579,-0.0161976
1580,0.0072715357
1581,-0.0029150024
1582,0.048802026
1583,-0.047672264
1584,0.047918357
1585,-0.034338668
1586,-0.0071705654
1587,-0.047893018
1588,-0.004126087
1589,0.003028527
1590,0.05624169
1591,0.04377819
1592,0.025481097
1593,0.003558442
1594,-0.043088548
1595,0.0048426613
1596,0.012850694
1597,0.011571661
1598,-0.03163168
1599,7.1786344e-05
1600,-0.02809579
1601,-0.006374456
1602,-0.044156983
1603,0.052533284
1604,0.058984652
1605,0.006940998
1606,0.048265718
1607,0.017051086
1608,0.028630681
1609,0.052735627
1610,-0.04730521
1611,-0.041314386
1612,0.049964964
1613,-0.05000954
1614,0.039162584
1615,-0.010422483
1616,-0.030249849
1617,-0.02217742
1618,-0.035961665
1619,0.013251476
1620,-0.029175475
1621,-0.053944148
1622,0.001717791
1623,-0.029495716
1624,0.060755573
1625,0.020229451
1626,0.058430552
1627,0.019979596
1628,0.009131312
1629,-0.040115148
1630,0.047065802
1631,0.013856776
1632,-0.039092936
1633,0.05980652
1634,-0.057099648
1635,-0.05422174
1636,0.017493628
1637,0.004101604
1638,0.03441915
1639,-0.013318628
1640,0.039545573
1641,0.016468585
1642,0.052168384
1643,-0.032199405
1644,-0.054740675
1645,-0.023867734
1646,0.039406188
1647,-0.047026806
1648,0.011230588
1649,0.061801717
1650,-0.013559684
1651,0.008028746
1652,0.04622098
1653,-0.02668669
1654,-0.004730709
1655,-0.033822693
1656,-0.04969926
1657,-0.05987709
1658,0.04234098
1659,0.053714298
1660,-0.04672467
1661,-0.04688634
1662,-0.025053404
1663,-0.009835854
1664,0.0067691505
1665,0.019155324
1666,0.020169578
1667,-0.0061721206
1668,0.014895126
1669,-0.004306257
1670,-0.0053616986
1671,0.022932291
1672,-0.05233466
1673,0.013071068
1674,0.028099664
1675,0.023797259
1676,0.016176134
1677,-0.011658102
1678,0.033404097
1679,-0.061658308
1680,-0.018863954
1681,0.019597545
1682,-0.006114617
1683,-0.013898574
1684,-0.03242205
1685,-0.045444258
1686,-0.06102702
1687,-0.06189528
1688,-0.005400285
1689,-0.03743413
1690,0.0105814785
1691,-0.03162027
1692,0.046795756
1693,0.015296064
1694,-0.033547014
1695,-0.023879044
1696,-0.041718684
1697,-0.034509443
1698,-0.01695405
1699,-0.0004923418
1700,-0.018997446
1701,-0.048464663
1702,0.038621254
1703,-0.06006532
1704,-0.04888691
1705,-0.033082448
1706,0.03844969
1707,0.04479786
1708,-0.030970745
1709,0.035387516
1710,0.0060715675
1711,0.016514301
1712,-0.043000072
1713,-0.028353684
1714,0.036205932
1715,0.012579933
1716,-0.05653038
1717,0.05886308
1718,0.031087734
1719,0.011785433
1720,0.04429523
1721,0.0038557053
1722,-0.022687852
1723,0.029479988
1724,-0.021406732
1725,0.0116584
1726,-0.0360919
1727,0.002823867
1728,-0.038276672
1729,0.0029587746
1730,-0.007330239
1731,-0.061167337
1732,0.038312808
1733,-0.020891897
1734,-0.04175906
1735,0.030754566
1736,0.024058357
1737,-0.05032839
1738,-0.026712887
1739,0.05953043
1740,0.057907164
1741,0.05765003
1742,-0.014182217
1743,0.0075218305
1744,-0.049296387
1745,0.048020944
1746,0.037921645
1747,0.035140976
1748,-0.048874296
1749,0.0074552596
1750,0.04554107
1751,-0.018414266
1752,-0.04647255
1753,0.02990029
1754,0.013714775
1755,0.011403903
1756,0.041988567
1757,-0.024975732
1758,0.050647408
1759,0.056618884
1760,-0.041281275
1761,-0.035809524
1762,-0.055847913
1763,-0.0063299984
1764,-0.013684206
1765,0.0028354377
1766,-0.055671215
1767,0.004497975
1768,-0.046651736
1769,-0.03921084
1770,0.030673586
1771,-0.02835983
1772,-0.02047117
1773,0.034312174
1774,-0.012250453
1775,-0.0075337365
1776,-0.03701148
1777,0.0139838755
1778,0.034825414
1779,0.008343786
1780,0.02669496
1781,-0.0017104
1782,0.057212524
1783,0.03382358
1784,0.053323597
1785,0.0025971308
1786,-0.023788556
1787,0.006676309
1788,-0.029222809
1789,0.014890537
1790,0.047006242
1791,-0.05544716
1792,-0.032685913
1793,-0.009786807
1794,-0.011867762
1795,-0.019039243
1796,-0.009900503
1797,-0.0006377399
1798,0.04657928
1799,0.03830479
1800,0.00038924813
1801,0.041741803
1802,-0.018176831
1803,0.045518868
1804,0.025650717
1805,0.011367448
1806,-0.03762538
1807,-0.015387669
1808,-0.01188758
1809,-0.026725233
1810,0.043639727
1811,0.010266736
1812,-0.04422023
1813,-0.030544713
1814,0.051504105
1815,-0.005716771
1816,0.052561
1817,0.0258547
1818,-0.03570459
1819,0.04823772
1820,0.04913722
1821,-0.02102723
1822,-0.028333537
1823,-0.06076449
1824,0.011007182
1825,0.03331215
1826,-0.03607671
1827,-0.013068274
1828,0.0160852
1829,0.05823481
1830,0.044148833
1831,0.05229391
1832,0.04187037
1833,0.040959172
1834,0.016286574
1835,-0.052694388
1836,0.033618502
1837,-0.056477644
1838,-0.06004899
1839,0.03175731
1840,-0.014731437
1841,-0.055430427
1842,-0.035331495
1843,0.05412551
1844,0.05525347
1845,-0.016883396
1846,-0.036545508
1847,0.052656524
1848,-0.02970323
1849,0.028154753
1850,-0.057507604
1851,-0.014057249
1852,-0.020161837
1853,0.036954768
1854,0.049780987
1855,0.038671613
1856,0.012397669
1857,0.0057895035
1858,-0.026529528
1859,-0.056974575
1860,-0.061941013
1861,-0.0409567
1862,0.040222533
1863,0.05556155
1864,0.0030984804
1865,0.0007551238
1866,-0.039048284
1867,0.05917546
1868,-0.061629824
1869,-0.0053845644
1870,0.0010460839
1871,-0.014213048
1872,-0.04435745
1873,-0.0041750297
1874,-0.053922817
1875,0.022662468
1876,0.016335018
1877,0.044701964
1878,0.016744338
1879,-0.03308755
1880,-0.020940512
1881,-0.030400455
1882,-0.029053994
1883,0.03430607
1884,0.03427229
1885,0.062054485
1886,-0.05344402
1887,0.06197934
1888,0.009096906
1889,-0.05558017
1890,0.017196476
1891,0.007923432
1892,0.054061294
1893,-0.05744596
1894,-0.046302594
1895,0.047544837
1896,0.02022957
1897,0.052517653
1898,0.059727997
1899,0.0029353872
1900,-0.017242126
1901,-0.047754273
1902,-0.05278688
1903,0.046865188
1904,-0.023808137
1905,0.02879119
1906,-0.030734181
1907,0.0054073855
1908,-0.009945773
1909,0.009326018
1910,-0.004217729
1911,0.03268753
1912,-0.047406524
1913,-0.014232516
1914,-0.03486275
1915,-0.030489564
1916,-0.019014888
1917,0.0012079924
1918,-0.05483932
1919,0.061063886
1920,0.03190215
1921,-0.055339105
1922,0.048823103
1923,-0.046144664
1924,-0.0053015575
1925,-0.05822768
1926,-0.024201378
1927,0.0143907815
1928,-0.039652757
1929,-0.05916384
1930,0.046527684
1931,0.022507854
1932,0.039182387
1933,0.055588014
1934,-0.037200034
1935,0.03822107
1936,-0.0316327
1937,0.036413677
1938,-0.0024396554
1939,-0.03275592
1940,0.027671799
1941,-0.038042337
1942,0.057066157
1943,0.018007606
1944,-0.041672334
1945,-0.03151136
1946,-0.02046007
1947,-0.02477631
1948,0.022346027
1949,0.045120463
1950,0.03247209
1951,0.050927103
1952,-0.055743307
1953,0.03552991
1954,0.038245402
1955,0.023530439
1956,0.010233074
1957,0.05176831
1958,-0.026113786
1959,-0.02505754
1960,-0.024993286
1961,0.0113218725
1962,0.05666723
1963,0.062404715
1964,0.030783534
1965,-0.02036456
1966,0.019448616
1967,-0.02520486
1968,0.03423632
1969,-0.0012675822
1970,0.025525518
1971,-0.044916317
1972,-0.0392197
1973,0.05044675
1974,-0.046394587
1975,0.004291706
1976,0.036248
1977,-0.033094145
1978,0.053102568
1979,-0.014318801
1980,0.05986841
1981,-0.03539052
1982,-0.040599138
1983,0.0035582855
1984,0.007173173
1985,-0.034418143
1986,0.053142704
1987,0.047266185
1988,-0.022561453
1989,0.028166436
1990,-0.035385914
1991,0.05264931
1992,0.018054284
1993,-0.04045087
1994,0.059417196
1995,-0.062241986
1996,0.0052808747
1997,-0.0052096397
1998,0.00078485906
1999,-0.004474081
2000,0.0024611875
2001,-0.04239198
2002,0.04338555
2003,-0.037202418
2004,0.041732393
2005,-0.0025210828
2006,0.05443848
2007,0.020310327
2008,0.021671921
2009,-0.031899907
2010,0.04218311
2011,0.023856081
2012,0.0067228526
2013,-0.005347386
2014,0.01204814
2015,0.019453563
2016,-0.0590028
2017,0.062070385
2018,0.05099436
2019,-0.048537016
2020,-0.051079415
2021,0.059318997
2022,-0.032209218
2023,0.019675627
2024,0.039298385
2025,0.044816196
2026,-0.012664296
2027,-0.01643242
2028,0.007870123
2029,-0.014413878
2030,0.043064356
2031,-0.035547182
2032,-0.02553574
2033,-0.03576543
2034,-0.033274367
2035,0.017101094
2036,0.027243637
2037,0.008794911
2038,-0.05403006
2039,0.026316717
2040,0.040543787
2041,0.048310503
2042,0.038545847
2043,0.04313109
2044,0.026451766
2045,0.060382843
2046,-0.0008527711
2047,0.0006841272
2048,-0.010950223
2049,0.04762692
2050,-0.057406776
2051,0.06198454
2052,0.00034265965
2053,0.012458824
2054,0.047504015
2055,0.02187062
2056,-0.06227047
2057,0.02844645
2058,-0.024612904
2059,0.0113008395
2060,0.014449179
2061,-0.024191655
2062,-0.023930497
2063,-0.025610603
2064,-0.03859073
2065,-0.06087427
2066,-0.0048692897
2067,-0.010273315
2068,-0.0397679
2069,0.046901032
2070,-0.0027514994
2071,-0.012302309
2072,0.026846528
2073,0.04932729
2074,0.052284762
2075,-0.041608818
2076,0.035163462
2077,0.018997915
2078,-0.023996867
2079,0.033513457
2080,-0.037996158
2081,0.01375214
2082,-0.035006255
2083,-0.05216174
2084,-0.022034377
2085,0.052575693
2086,-0.002464354
2087,-0.05979906
2088,-0.05295749
2089,-0.044578783
2090,0.0304484
2091,-0.051069178
2092,-0.011832319
2093,0.031144425
2094,-0.0213961
2095,-0.04877848
2096,-0.05574449
2097,0.024507277
2098,0.042644307
2099,-0.03839109
2100,-0.013315678
2101,-0.032228395
2102,0.03890931
2103,0.050158113
2104,-0.0074787885
2105,-0.045706093
2106,-0.029568397
2107,0.019012488
2108,-0.023158975
2109,-0.058262527
2110,0.056029186
2111,0.0065411106
2112,-0.0396149
2113,0.033448555
2114,-0.0057067424
2115,0.052331187
2116,0.036462456
2117,0.052664846
2118,0.0036583021
2119,0.028737284
2120,-0.021050759
2121,-0.017997295
2122,-0.048159055
2123,0.021215469
2124,-0.0370792
2125,0.0127967745
2126,0.04554607
2127,-0.05005098
2128,-0.007925078
2129,0.044798702
2130,0.055929624
2131,-0.03323836
2132,0.05750498
2133,-0.004409179
2134,0.03385722
2135,-0.01409588
2136,0.03650157
2137,0.05248238
2138,-0.011503898
2139,0.032250382
2140,0.017605446
2141,0.00013778359
2142,-0.033966675
2143,-0.045505613
2144,-0.015124172
2145,-0.0036689714
2146,-0.023469687
2147,0.038546912
2148,-0.05224035
2149,-0.041689046
2150,0.047398694
2151,-0.04850939
2152,0.020149946
2153,0.0009127483
2154,0.04347592
2155,0.026238136
2156,0.053053766
2157,-0.0058956444
2158,0.04219132
2159,-0.045803808
2160,0.017505743
2161,0.020263858
2162,0.061594762
2163,-0.0059396476
2164,-0.01860509
2165,0.04543063
2166,-0.019027866
2167,-0.019359842
2168,-0.051535845
2169,0.017816834
2170,0.028101444
2171,0.02621416
2172,-0.024625197
2173,-0.04443883
2174,-0.015169516
2175,-0.043080315
2176,0.017075673
2177,0.04052314
2178,-0.034119874
2179,-0.051829457
2180,-0.05605682
2181,0.0048827752
2182,-0.0012194589
2183,0.0107833445
2184,-0.04783781
2185,0.024245188
2186,0.018425032
2187,0.004365392
2188,-0.05084873
2189,0.023431659
2190,0.05117575
2191,0.009307899
2192,-0.028090864
2193,0.034530677
2194,-0.057307385
2195,-0.04166256
2196,-0.03212291
2197,-0.018373884
2198,-0.05311636
2199,0.05779963
2200,-0.018259853
2201,0.03347352
2202,0.008203737
2203,0.044368327
2204,-0.045805797
2205,-0.059071034
2206,0.0033481792
2207,0.01796367
2208,0.02798362
2209,0.0479794
2210,-0.00084824115
2211,-0.028639466
2212,0.015092216
2213,0.010815807
2214,-0.020099469
2215,0.055654317
2216,-0.040637285
2217,0.016698703
2218,-0.03975875
2219,-0.0028770939
2220,0.010546841
2221,-0.049052976
2222,-0.05516114
2223,-0.0026676953
2224,0.005191855
2225,-0.022232674
2226,0.016288117
2227,-0.03006047
2228,-0.0601826
2229,0.062325254
2230,0.0135904625
2231,-0.023091733
2232,-0.010373659
2233,0.051934265
2234,-0.008433782
2235,0.04747247
2236,-0.01912406
2237,0.014310695
2238,-0.033468276
2239,-0.0028724298
2240,0.05102504
2241,-0.013265923
2242,0.03829556
2243,-0.0036777407
2244,0.02468215
2245,-0.01411546
2246,0.00940641
2247,0.061576106
2248,-0.04353386
2249,0.047370672
2250,0.0040529296
2251,0.029539563
2252,0.00790406
2253,0.019578516
2254,-0.019191407
2255,-0.05058434
2256,0.018268578
2257,-0.015879616
2258,0.0068058297
2259,-0.010923572
2260,0.0021383688
2261,-0.020578362
2262,-0.046744943
2263,-0.026474684
2264,-0.0043648407
2265,0.06146787
2266,-0.017265968
2267,-0.0017498508
2268,0.053515747
2269,0.022300199
2270,-0.045172237
2271,0.037748016
2272,0.015335053
2273,0.013905242
2274,-0.028530687
2275,-0.040218286
2276,0.026496612
2277,0.039672777
2278,0.048191465
2279,-0.05959387
2280,0.014995091
2281,0.031436116
2282,-0.02712693
2283,-0.0448557
2284,-0.047069438
2285,-0.04531362
2286,-0.04305587
2287,0.0030748919
2288,-0.04963369
2289,-0.05586435
2290,-0.003448695
2291,0.04106462
2292,-0.06138759
2293,0.05505787
2294,-0.007785611
2295,0.008678779
2296,-0.02167952
2297,-0.01869277
2298,0.057240903
2299,0.061975993
2300,0.02430512
2301,0.055780344
2302,-0.015721932
2303,0.032275714
2304,0.03172025
2305,0.007185422
2306,0.054583378
2307,-0.035129078
2308,-0.023373745
2309,0.018305838
2310,-0.037588865
2311,0.02920992
2312,0.053871565
2313,0.038151205
2314,-0.040868163
2315,0.022686541
2316,0.04568839
2317,0.043128893
2318,0.04350871
2319,-0.0437539
2320,0.036599837
2321,-0.0020955727
2322,-0.041395113
2323,-0.04527144
2324,0.009975567
2325,0.05241666
2326,0.0075029135
2327,-0.0141125545
2328,-0.02527456
2329,0.0020407885
2330,0.0040737465
2331,-0.020028092
2332,0.002741821
2333,0.044361077
2334,-0.010952868
2335,0.046086624
2336,-0.03729243
2337,-0.052393638
2338,0.04658176
2339,-0.0109060705
2340,-0.002548404
2341,-0.02950184
2342,0.026719652
2343,-0.012820497
2344,0.0049546063
2345,0.014243364
2346,0.01568345
2347,-0.0241599
2348,0.021176495
2349,0.03294898
2350,0.062208965
2351,0.027159363
2352,-0.029707044
2353,0.033009157
2354,0.035968505
2355,0.023045085
2356,-0.0008864477
2357,-0.008595131
2358,0.02634015
2359,-0.001751475
2360,0.046529807
2361,0.022247046
2362,-0.059608474
2363,0.017294161
2364,-0.048361868
2365,-0.048901476
2366,-0.060306124
2367,-0.03125661
2368,-0.05249522
2369,-0.0457464
2370,-0.04974129
2371,-0.027371205
2372,0.049526945
2373,0.021240905
2374,-0.025231108
2375,0.02597963
2376,-0.034992084
2377,-0.060814105
2378,-0.03382259
2379,0.01702062
2380,-0.05722759
2381,0.0029369518
2382,-0.041675016
2383,0.006487526
2384,0.0024389625
2385,0.023397848
2386,-0.012250401
2387,0.008559704
2388,-0.0361323
2389,-0.03655625
2390,0.03139765
2391,0.01210022
2392,-0.024105072
2393,0.030777693
2394,0.055292733
2395,0.042537697
2396,0.006986961
2397,-0.045087904
2398,-0.007035665
2399,-0.03266701
2400,-0.03752193
2401,0.013599925
2402,-0.0025698543
2403,-0.017333813
2404,-0.024391562
2405,0.005228795
2406,-0.02070243
2407,-0.037473023
2408,0.050900705
2409,-0.0011346489
2410,-0.029465742
2411,0.026892409
2412,0.03851495
2413,0.0269562
2414,-0.012671068
2415,-0.03409572
2416,-0.019059457
2417,0.05038221
2418,0.035131223
2419,-0.042871542
2420,-0.055768654
2421,-0.03558228
2422,0.0617745
2423,0.05318784
2424,-0.029424593
2425,-0.04441583
2426,-0.032499373
2427,-0.044627286
2428,0.026123367
2429,0.05582895
2430,-0.046694726
2431,0.0260261
2432,-0.0049858913
2433,0.028796554
2434,0.0053713843
2435,-0.060258634
2436,-0.062490255
2437,0.037184246
2438,-0.01712621
2439,0.045346037
2440,0.006950721
2441,-0.053071916
2442,-0.052900836
2443,0.012666777
2444,-0.032159887
2445,0.026606448
2446,-0.01470422
2447,-0.05625613
2448,-0.028421357
2449,-0.0012280792
2450,0.021019928
2451,-0.04079187
2452,-0.04952734
2453,0.0282152
2454,0.015865661
2455,0.011155799
2456,0.05058673
2457,0.012146957
2458,0.021771774
2459,-0.010573588
2460,0.04272578
2461,-0.016435526
2462,0.05276048
2463,0.051408306
2464,-0.048335172
2465,0.052422345
2466,0.030826598
2467,0.03219384
2468,0.0067323446
2469,0.045845427
2470,0.0035091788
2471,-0.041788384
2472,-0.048206158
2473,0.047485203
2474,0.06195458
2475,-0.060785465
2476,-0.0016014129
2477,0.023025647
2478,0.028255083
2479,-0.028148957
2480,0.043451384
2481,-0.031239368
2482,0.0118255615
2483,0.04086908
2484,-0.058380365
2485,-0.0128129795
2486,-0.059388146
2487,-0.054724254
2488,0.036104307
2489,-0.036876135
2490,-0.023013279
2491,0.03331071
2492,0.060101032
2493,0.032969765
2494,0.047101215
2495,-0.020301178
2496,0.026441753
2497,0.05327022
2498,-0.019668855
2499,0.062282205
2500,0.029493526
2501,-0.0112540275
2502,-0.013240695
2503,-0.058125883
2504,0.049799018
2505,0.009577826
2506,-0.03470099
2507,0.03540674
2508,0.037150316
2509,-0.018771932
2510,-0.00028449297
2511,0.02684024
2512,-0.030564114
2513,0.05269081
2514,0.031712286
2515,-0.043390654
2516,0.017442636
2517,0.017542496
2518,-0.056193575
2519,-0.009935431
2520,0.043662854
2521,0.057032287
2522,-0.015759565
2523,-0.049525283
2524,-0.010552198
2525,-0.010961287
2526,-0.059725493
2527,-0.038453847
2528,0.04591652
2529,0.044410154
2530,0.010226026
2531,0.028388925
2532,-0.012133472
2533,-0.058170453
2534,0.022676148
2535,-0.03463985
2536,-0.037291527
2537,-0.021324739
2538,-0.034586005
2539,-0.033197187
2540,0.050817326
2541,-0.0348
2542,0.025182426
2543,-0.022837058
2544,0.04184927
2545,0.04778198
2546,0.022933312
2547,-0.027238972
2548,-0.06008344
2549,0.024437219
2550,-0.012402914
2551,-0.006126091
2552,-0.0113713
2553,-0.057579346
2554,-0.026204064
2555,0.061153658
2556,0.05774317
2557,0.017830372
2558,-0.018637978
2559,-0.047328375
2560,-0.0096449405
2561,-0.030576505
2562,-0.028192878
2563,-0.009736888
2564,0.022644117
2565,-0.00999888
2566,-0.035550773
2567,-0.025505371
2568,-0.039763667
2569,0.028571889
2570,-0.05093783
2571,-0.05144389
2572,-0.002262257
2573,-0.050217524
2574,-0.015373863
2575,-0.015917107
2576,-0.028885812
2577,-0.038876437
2578,-0.035641268
2579,-0.048239745
2580,0.039351396
2581,-0.006177962
2582,-0.053403877
2583,0.04668425
2584,0.016755722
2585,-0.031756952
2586,0.009319194
2587,0.04273039
2588,-0.011878185
2589,-0.017058298
2590,-0.027397007
2591,-0.0009831488
2592,-0.011063233
2593,-0.02573371
2594,0.034047887
2595,0.035773173
2596,0.035312004
2597,0.010528348
2598,0.005387269
2599,0.03468538
2600,0.029551096
2601,-0.03827706
2602,-0.0056674927
2603,-0.010600358
2604,0.018114485
2605,-0.016374812
2606,-0.011283472
2607,-0.009437472
2608,-0.04694567
2609,-0.06237127
2610,0.034905605
2611,0.010629125
2612,0.039965615
2613,0.008385085
2614,-0.0062769204
2615,-0.011965103
2616,-0.01847884
2617,0.047901236
2618,-0.029403768
2619,0.004955411
2620,0.04505405
2621,0.050096475
2622,-0.053139485
2623,0.029243201
2624,-0.029446706
2625,0.01739458
2626,-0.032147832
2627,-0.03679602
2628,-0.043093726
2629,0.053262055
2630,-0.040382586
2631,-0.0259488
2632,-0.04627943
2633,-0.04412725
2634,0.05826167
2635,0.0047096238
2636,-0.03291823
2637,-0.045597754
2638,-0.011852056
2639,0.018087998
2640,-0.016842216
2641,0.007676162
2642,0.04034929
2643,0.046342902
2644,0.03814727
2645,0.0128053725
2646,-0.011474766
2647,-0.021454625
2648,0.029336922
2649,-0.034198307
2650,-0.015480213
2651,-0.02748774
2652,-0.01765544
2653,0.02159112
2654,0.033166647
2655,-0.03827978
2656,-0.016985297
2657,0.02062007
2658,-0.06145609
2659,0.05905038
2660,0.05309414
2661,-0.056922287
2662,-0.04653898
2663,-0.034304805
2664,0.047735333
2665,0.053704336
2666,-0.015910879
2667,0.05863125
2668,-0.033370994
2669,-0.058208704
2670,0.010584168
2671,-0.0508947
2672,0.048400022
2673,0.0065645725
2674,-0.0407195
2675,-0.028877221
2676,0.023718618
2677,-0.003870532
2678,-0.03507662
2679,0.055790313
2680,0.047023274
2681,-0.02703835
2682,0.04164274
2683,0.035112277
2684,-0.04415767
2685,0.029692173
2686,-0.02644097
2687,0.031672373
2688,-0.040979944
2689,0.019132666
2690,-0.021626703
2691,-0.04585448
2692,0.03588967
2693,0.060403146
2694,-0.012917079
2695,-0.020290725
2696,0.0108592585
2697,-0.027404577
2698,0.0310677
2699,0.008292198
2700,-0.040144786
2701,-0.00990729
2702,0.052126773
2703,0.025987998
2704,0.015238814
2705,-0.022244133
2706,-0.05276134
2707,-0.005048804
2708,-0.046531074
2709,-0.007035494
2710,0.019233696
2711,-0.024251513
2712,0.058745064
2713,0.03990379
2714,0.054368526
2715,-0.017116636
2716,-0.006077796
2717,0.054511152
2718,0.04976613
2719,0.019214787
2720,0.05242274
2721,-0.015473887
2722,-0.0458233
2723,0.011650719
2724,0.062148802
2725,0.011356153
2726,-0.034187593
2727,-0.008703269
2728,0.058616184
2729,-0.002909802
2730,0.039513916
2731,-0.05161909
2732,0.06237796
2733,0.019349083
2734,0.05331941
2735,0.042254537
2736,-0.04363767
2737,-0.037518933
2738,-0.03224209
2739,0.03866203
2740,-0.017930284
2741,0.029671378
2742,0.029163077
2743,0.05656673
2744,0.040011063
2745,0.04445088
2746,0.03167329
2747,-0.033371992
2748,-0.03684257
2749,-0.045965202
2750,-0.05448947
2751,0.061498232
2752,0.058508888
2753,-0.04580278
2754,0.00341741
2755,-0.03393428
2756,0.028753586
2757,0.029647693
2758,0.04779406
2759,-0.03462252
2760,0.0435075
2761,-0.02595763
2762,0.05023627
2763,-0.035075977
2764,0.016221292
2765,0.0136078
2766,0.0067980736
2767,0.03435813
2768,-0.03767448
2769,0.036283962
2770,0.0005129874
2771,-0.04469099
2772,0.061497808
2773,-0.017605238
2774,-0.04406202
2775,-0.03792893
2776,-0.041574545
2777,0.024384685
2778,0.062292725
2779,0.04187967
2780,0.02925118
2781,-0.004260063
2782,-0.008506969
2783,-0.031908177
2784,0.009586312
2785,-0.011451572
2786,0.033398457
2787,-0.010776959
2788,0.042996295
2789,-0.00020670891
2790,0.04691927
2791,0.025264665
2792,0.040410966
2793,-0.05108644
2794,0.0055865273
2795,0.013148136
2796,-0.045416802
2797,-0.010353833
2798,-0.012084134
2799,-0.0069127455
2800,0.03820186
2801,0.017629817
2802,0.041717134
2803,-0.058851488
2804,0.034799732
2805,-0.062291518
2806,-0.020654738
2807,-0.03047172
2808,-0.02756387
2809,0.0045054853
2810,0.04403516
2811,0.05962325
2812,0.007451944
2813,0.029337503
2814,-0.053811073
2815,-0.0060703605
2816,0.030564792
2817,-0.044728383
2818,-0.024951845
2819,-0.036771096
2820,0.057952464
2821,0.02973114
2822,0.03696482
2823,-0.04951056
2824,0.04263425
2825,-0.034857728
2826,0.041646913
2827,0.060661055
2828,-0.059098884
2829,0.009062156
2830,-0.006611593
2831,-0.009360217
2832,0.0322382
2833,-0.012561679
2834,0.059161834
2835,0.040937945
2836,-0.028174274
2837,-0.03439188
2838,0.047548354
2839,0.007552944
2840,0.019034535
2841,0.04136926
2842,0.05919163
2843,-0.05520051
2844,0.03037566
2845,0.026954405
2846,-0.012078211
2847,-0.045734636
2848,0.03301631
2849,0.02041164
2850,-0.04526461
2851,-0.022918932
2852,-0.02190525
2853,-0.04369335
2854,-0.04862494
2855,-0.04001064
2856,0.013912737
2857,0.06110619
2858,-0.018878251
2859,0.06208016
2860,-0.033520706
2861,0.012403116
2862,-0.027635783
2863,0.019053966
2864,0.05290073
2865,-0.03886859
2866,0.019946218
2867,0.055386595
2868,-0.004510097
2869,0.034007408
2870,0.03990022
2871,-0.0022533163
2872,0.059298344
2873,-0.033695787
2874,0.046100274
2875,-0.017028414
2876,0.00120195
2877,0.022296533
2878,-0.035277344
2879,-0.02143503
2880,0.029655166
2881,0.022291362
2882,0.0010965839
2883,-0.026339933
2884,-0.019474708
2885,-0.04207337
2886,0.026705332
2887,-0.021366663
2888,-0.027107023
2889,-0.014794089
2890,0.025068358
2891,-0.06014794
2892,0.026932389
2893,0.04502163
2894,-0.014462076
2895,-0.038072214
2896,0.041198492
2897,-0.04897619
2898,-0.0055123195
2899,-0.013005085
2900,0.014553778
2901,-0.029702984
2902,0.023728624
2903,0.038237996
2904,-0.04448636
2905,-0.02892273
2906,-0.032124527
2907,0.03895773
2908,0.034315042
2909,-0.037612215
2910,-0.037419513
2911,0.008294277
2912,0.006505385
2913,-0.040970117
2914,-0.033253327
2915,-0.03179571
2916,0.020115472
2917,0.031698994
2918,0.009248294
2919,0.059167802
2920,-0.002191946
2921,-0.03318847
2922,0.04651557
2923,0.020511389
2924,-0.0022687986
2925,-0.042033702
2926,0.049172454
2927,0.031516246
2928,0.024804592
2929,0.048569635
2930,-0.041576356
2931,-0.050104186
2932,0.005175926
2933,-0.04208027
2934,-0.003233485
2935,0.03744158
2936,0.04466276
2937,0.037722647
2938,0.0384574
2939,-0.004778713
2940,-0.037944756
2941,0.03149861
2942,-0.03317395
2943,-0.060268484
2944,-0.041297697
2945,-0.0036822706
2946,0.03781151
2947,0.032119073
2948,0.04811228
2949,-0.041132346
2950,-0.03543464
2951,0.031978518
2952,-0.057539396
2953,0.018722624
2954,-0.03910988
2955,0.029852234
2956,0.0059880465
2957,-0.024475977
2958,0.034273632
2959,-0.052726783
2960,0.008031443
2961,0.019547164
2962,-0.03735958
2963,0.016615383
2964,-0.014980152
2965,0.0090216175
2966,-0.050163113
2967,-0.009198308
2968,0.0257634
2969,-0.013006434
2970,-0.048208766
2971,0.04925544
2972,0.006328322
2973,-0.05844363
2974,0.036953673
2975,-0.060698837
2976,0.010308601
2977,0.03350486
2978,-0.035243228
2979,-0.029823788
2980,-0.0037783831
2981,0.025856845
2982,-0.030244246
2983,0.027907968
2984,0.014399268
2985,-0.04500702
2986,-0.039182827
2987,0.027896099
2988,-0.016487412
2989,0.042594425
2990,0.059167475
2991,-0.0028023422
2992,-0.015818074
2993,-0.01329612
2994,0.004895337
2995,-0.032144375
2996,-0.04875306
2997,0.0061288327
2998,0.017126232
2999,-0.018026844
3000,0.061880074
3001,-0.018323205
3002,-0.009885788
3003,0.00793612
3004,0.013778061
3005,0.0425319
3006,0.051722758
3007,0.054690808
3008,-0.054792047
3009,0.0265266
3010,-0.016102739
3011,-0.058180816
3012,-0.056627363
3013,-0.05867818
3014,-0.012218319
3015,0.014934301
3016,-0.017103627
3017,0.0046770126
3018,-0.030013137
3019,-0.047556333
3020,0.012458108
3021,-0.046193168
3022,-0.015502498
3023,-0.06000244
3024,0.006369747
3025,-0.042623654
3026,0.04395646
3027,-0.0460587
3028,-0.036150068
3029,0.028402865
3030,0.017621428
3031,0.045585856
3032,0.00936868
3033,-0.045621164
3034,-0.02910266
3035,0.049600355
3036,0.062441222
3037,-0.03884943
3038,-0.0064743906
3039,0.018503562
3040,0.016521119
3041,0.040008433
3042,0.04661797
3043,0.012746543
3044,-0.028989099
3045,0.04523497
3046,-0.016442463
3047,-0.03852567
3048,-0.038938515
3049,-0.04979401
3050,0.036829866
3051,0.042342447
3052,0.022982419
3053,-0.021266967
3054,0.015014209
3055,-0.032981277
3056,0.01906041
3057,-0.06090969
3058,-0.040852584
3059,-0.023694344
3060,-0.017778285
3061,-0.011039861
3062,0.020803824
3063,0.00886561
3064,0.029603109
3065,-0.045706168
3066,0.035410732
3067,-0.004904054
3068,-0.05890397
3069,-0.030270599
3070,-0.034002014
3071,0.04888758
3072,-0.04143346
3073,0.01835835
3074,-0.011891454
3075,-0.058804452
3076,-0.045635507
3077,-0.0037081614
3078,-0.023717932
3079,-0.04800944
3080,-0.033372775
3081,-0.009291291
3082,0.04887612
3083,-0.031157002
3084,-0.03590869
3085,-0.024849683
3086,0.019312441
3087,0.0012670383
3088,0.02302482
3089,0.04642771
3090,-0.005120963
3091,-0.022805043
3092,-0.061000243
3093,-0.032666117
3094,0.032265685
3095,-0.020482235
3096,-0.039257616
3097,0.0020193085
3098,-0.027049027
3099,-0.008336596
3100,-0.012259081
3101,0.044384733
3102,-0.05715458
3103,-0.013991497
3104,0.055681594
3105,-0.052028768
3106,0.031515993
3107,-0.005165912
3108,-0.015576124
3109,-0.0031832308
3110,-0.003097102
3111,-0.0516653
3112,0.0025357008
3113,-0.0058435276
3114,0.016697451
3115,0.045447215
3116,-0.023698308
3117,0.0023922846
3118,-0.007997133
3119,0.03190794
3120,0.059871443
3121,-0.04155612
3122,-0.055355236
3123,0.020906061
3124,-0.054220177
3125,-0.008425303
3126,-0.059776776
3127,-0.031443827
3128,-0.00073334575
3129,-0.0046677217
3130,0.031835146
3131,-0.021342747
3132,0.049303636
3133,-0.030835845
3134,0.002253443
3135,0.029570907
3136,-0.056235664
3137,0.023386948
3138,-0.050920986
3139,0.02129212
3140,-0.037251905
3141,0.018531032
3142,-0.03060405
3143,-0.04830928
3144,-0.055621274
3145,0.028288275
3146,-0.035056196
3147,0.0040766895
3148,0.051409826
3149,-0.021117464
3150,0.0061943606
3151,-0.057340533
3152,0.043665715
3153,-0.010594264
3154,0.0425061
3155,0.02180393
3156,-0.020396702
3157,0.0073628053
3158,-0.039858297
3159,0.014504246
3160,-0.019967623
3161,-0.052094102
3162,0.024061345
3163,0.0071953684
3164,-0.022825398
3165,0.024422675
3166,0.020919189
3167,-0.059353933
3168,0.028620608
3169,-0.046194717
3170,0.019674607
3171,-0.0337781
3172,-0.036739945
3173,0.0336089
3174,-0.06219644
3175,-0.013009541
3176,-0.056821257
3177,0.0024913326
3178,0.03649897
3179,-0.017021865
3180,-0.017789736
3181,-0.019022785
3182,0.041698195
3183,-0.04824379
3184,-0.06110867
3185,0.058870606
3186,-0.015486456
3187,-0.023117997
3188,0.036642775
3189,0.00076565146
3190,-0.06192997
3191,0.037040003
3192,-0.006463349
3193,0.02028238
3194,0.020571768
3195,0.06217809
3196,-0.0017456338
3197,-0.018845193
3198,-0.019559547
3199,-0.060663074
3200,-0.04289963
3201,-0.052743703
3202,-0.034178466
3203,0.00642927
3204,-0.021321505
3205,0.00027363747
3206,0.014389366
3207,-0.002576366
3208,0.027272366
3209,-0.037554853
3210,0.03538867
3211,0.028636068
3212,-0.041814685
3213,0.02214104
3214,0.05771044
3215,0.047005452
3216,-0.057057917
3217,0.041350216
3218,-0.041384034
3219,0.043173574
3220,0.06118658
3221,-0.009805642
3222,-0.010906383
3223,-0.060133405
3224,-0.033091232
3225,-0.003974594
3226,0.01590021
3227,-0.04624866
3228,0.049737222
3229,0.053165607
3230,-0.028001972
3231,0.004480079
3232,0.0011493936
3233,0.033508882
3234,0.019694425
3235,-0.052177288
3236,-0.055545866
3237,-0.051335454
3238,0.061308473
3239,0.03169828
3240,-0.059931427
3241,-0.03050632
3242,0.015461631
3243,-0.00061187893
3244,-0.05604849
3245,-0.048701756
3246,-0.054277465
3247,-0.0011386722
3248,0.032990366
3249,0.03390687
3250,0.052746832
3251,-0.0053377524
3252,0.0273607
3253,0.028447852
3254,0.0015118048
3255,0.0012950003
3256,0.03101065
3257,0.036073945
3258,0.024430543
3259,-0.039607666
3260,-0.058294512
3261,0.051345967
3262,-0.02791784
3263,-0.059092097
3264,0.01798296
3265,0.04007487
3266,-0.014913186
3267,-0.042611152
3268,-0.014247268
3269,0.050466597
3270,0.028889313
3271,0.014921926
3272,0.029082403
3273,0.048022963
3274,-0.026633427
3275,0.0038082302
3276,-0.030709498
3277,-0.06189008
3278,0.015549548
3279,0.06214039
3280,0.022166207
3281,0.037443325
3282,0.017086186
3283,0.04583168
3284,0.047821246
3285,-0.058275633
3286,-0.024337217
3287,0.0063431785
3288,0.018646337
3289,-0.03545939
3290,-0.043669604
3291,-0.0074755177
3292,0.045921564
3293,0.06241233
3294,0.034272082
3295,0.04393904
3296,-0.038622044
3297,-0.00093398243
3298,-0.0033328459
3299,-0.043210253
3300,-0.032663487
3301,-0.062073633
3302,-0.014554754
3303,-0.017736867
3304,0.04331252
3305,-0.027783059
3306,-0.060754143
3307,-0.017841287
3308,0.037204072
3309,-0.032492727
3310,0.040141396
3311,-0.009195745
3312,-0.0156895
3313,0.025110416
3314,-0.04946149
3315,-0.029549994
3316,0.042278416
3317,0.023824312
3318,0.047548957
3319,-0.030671865
3320,-0.05458826
3321,-0.00783103
3322,-0.048241787
3323,-0.03858359
3324,0.0070317388
3325,-0.016674004
3326,-0.013999544
3327,0.003255777
3328,0.0023637563
3329,-0.044307612
3330,-0.020757712
3331,-0.021348327
3332,0.015171796
3333,-0.0018678829
3334,0.023203082
3335,-0.026508883
3336,-0.052614808
3337,0.049095713
3338,0.039146192
3339,0.028041407
3340,0.011667125
3341,-0.012218125
3342,0.025395654
3343,0.056505196
3344,0.054096133
3345,0.04286226
3346,0.026775762
3347,-0.03471321
3348,-0.0032001436
3349,0.013084263
3350,-0.046888225
3351,0.049059458
3352,0.019571468
3353,0.0515372
3354,0.06056147
3355,0.046813376
3356,0.038586922
3357,0.014529929
3358,0.014967486
3359,-0.047100894
3360,0.0022075027
3361,-0.028136156
3362,0.051063865
3363,0.0045224726
3364,-0.045251027
3365,0.04169219
3366,0.011407644
3367,-0.04961396
3368,-0.038469918
3369,-0.05390268
3370,-0.056304708
3371,0.035442114
3372,0.056758136
3373,0.05817709
3374,0.018634357
3375,-0.010684788
3376,-0.057080097
3377,-0.017032698
3378,-0.06028893
3379,-0.030888282
3380,0.003168501
3381,-0.031158589
3382,0.047764994
3383,-0.057132795
3384,-0.045679063
3385,0.011580452
3386,0.020652406
3387,0.019289844
3388,-0.052778795
3389,0.04517801
3390,-0.055021018
3391,-0.002680406
3392,-0.009690367
3393,0.056099854
3394,0.016947389
3395,0.027600877
3396,0.04773418
3397,-0.057980746
3398,0.02179294
3399,0.020219326
3400,0.02898594
3401,0.009125464
3402,-0.019053303
3403,0.040493973
3404,-0.061748967
3405,0.03557854
3406,0.011927396
3407,-0.05683709
3408,-0.04216499
3409,-0.053056955
3410,0.04846052
3411,-0.041896425
3412,0.014565289
3413,0.040642083
3414,0.0494652
3415,-0.041887745
3416,0.052557483
3417,0.03256324
3418,0.03231726
3419,-0.022105291
3420,0.031254046
3421,-0.028051317
3422,0.02271793
3423,-0.033297695
3424,-0.030888028
3425,-0.010644719
3426,0.050329223
3427,-0.00037489086
3428,0.05332575
3429,0.0294642
3430,-0.025168434
3431,0.044050053
3432,0.012164347
3433,-0.021811895
3434,-0.027772374
3435,-0.029815815
3436,0.0051916167
3437,-0.016437612
3438,-0.029426783
3439,-0.04372117
3440,0.04239656
3441,0.012956329
3442,-0.044378527
3443,0.06211423
3444,0.015906222
3445,0.05357869
3446,0.00842005
3447,-0.04905588
3448,0.03351885
3449,0.042813145
3450,-0.061179228
3451,-0.020956956
3452,0.036703885
3453,0.04381553
3454,0.04021255
3455,0.034607142
3456,0.04958666
3457,-0.031330794
3458,-0.05712478
3459,-0.043458246
3460,-0.03466423
3461,-0.021772608
3462,0.04944922
3463,-0.01195582
3464,0.06034235
3465,0.021932758
3466,-0.050643228
3467,-0.06003458
3468,-0.009753786
3469,0.03492891
3470,-0.015708096
3471,-0.05672493
3472,0.019757226
3473,-0.01570747
3474,0.05060547
3475,0.010529108
3476,-0.058741756
3477,0.031448863
3478,-0.01012294
3479,0.019898362
3480,0.041345157
3481,0.050814696
3482,0.035049453
3483,0.01481881
3484,0.0041946024
3485,0.022936292
3486,-0.012692623
3487,0.026620723
3488,-0.049740583
3489,-0.030728415
3490,0.014429174
3491,-0.03650958
3492,-0.04016573
3493,0.017704561
3494,0.060036898
3495,-0.011226676
3496,-0.046061896
3497,-0.026860796
3498,0.05570013
3499,0.023819752
3500,0.008940414
3501,-0.0565997
3502,-0.027321316
3503,-0.0027602613
3504,0.0135161355
3505,-0.023273848
3506,-0.026492372
3507,-0.020775817
3508,0.028257124
3509,-0.02871997
3510,-0.05873961
3511,-0.031814016
3512,0.033368163
3513,0.056936674
3514,0.02790945
3515,0.052540794
3516,-0.038684815
3517,-0.03455337
3518,-0.044562764
3519,-0.06083276
3520,-0.029208578
3521,0.04208327
3522,0.0010345504
3523,0.0429113
3524,-0.014904268
3525,-0.016823724
3526,0.0036275834
3527,0.05971732
3528,0.014014848
3529,-0.013215199
3530,-0.037298165
3531,-0.015169255
3532,-0.0545026
3533,0.058665022
3534,0.04052011
3535,-0.041415468
3536,-0.0017541721
3537,-0.010568738
3538,-0.05457209
3539,0.037941344
3540,0.01250004
3541,-0.029416256
3542,0.051331125
3543,-0.025259756
3544,0.018926322
3545,-0.0471519
3546,0.05386509
3547,0.004987173
3548,0.029490516
3549,0.0040654168
3550,0.007077001
3551,0.05662352
3552,0.048641935
3553,0.0034480914
3554,0.01536905
3555,0.019202799
3556,0.027293958
3557,0.025938697
3558,-0.023751996
3559,-0.029651746
3560,-0.02971737
3561,0.012278825
3562,-0.00033052266
3563,0.025926799
3564,-0.05246041
3565,-0.03992582
3566,-0.05669909
3567,-0.019101158
3568,-0.018829457
3569,-0.012452066
3570,0.017344058
3571,-0.04313086
3572,0.03586231
3573,0.060771517
3574,-0.0033069104
3575,0.022683412
3576,-0.009176418
3577,0.05472847
3578,-0.03338602
3579,-0.02179788
3580,0.037467435
3581,-0.045236766
3582,-0.060039632
3583,-0.006836951
3584,-0.05061186
3585,0.046903774
3586,0.0059739873
3587,0.06004321
3588,-0.054438196
3589,0.011786409
3590,-0.0207382
3591,0.052529775
3592,-0.06042964
3593,0.033568732
3594,-0.013457835
3595,0.0049102157
3596,0.03872034
3597,0.049767457
3598,-0.0070785508
3599,0.026845515
3600,-0.009237215
3601,0.03237796
3602,0.031083725
3603,-0.032303862
3604,-0.0143228695
3605,-0.019273005
3606,-0.0044603497
3607,-0.0374147
3608,-0.020180449
3609,0.035915717
3610,-0.0066438615
3611,-0.0019439161
3612,0.012473471
3613,-0.056033447
3614,-0.0005303323
3615,-0.033946604
3616,-0.004340373
3617,-0.033276133
3618,-0.00585708
3619,0.05429717
3620,0.026344955
3621,0.057620488
3622,-0.057366148
3623,-0.04294768
3624,-0.025603116
3625,0.05997531
3626,-0.02424834
3627,0.014347009
3628,0.018951848
3629,-0.03153254
3630,-0.036420457
3631,-0.015566565
3632,-0.062458754
3633,-0.044776604
3634,0.025889687
3635,0.05511625
3636,0.016778432
3637,0.033536457
3638,-0.044773184
3639,-0.05742231
3640,0.025345653
3641,0.03438448
3642,-0.029232755
3643,0.022517808
3644,0.013642326
3645,-0.042894796
3646,0.05387736
3647,0.05293064
3648,0.056543283
3649,0.024742462
3650,0.047288753
3651,0.056819364
3652,-0.009812117
3653,-0.054504268
3654,-0.0498233
3655,0.05198936
3656,-0.0050071925
3657,-0.033113457
3658,0.04201355
3659,0.052431904
3660,0.018106528
3661,-0.03531436
3662,0.037236474
3663,-0.052857004
3664,0.027386956
3665,0.005821191
3666,-0.037726007
3667,0.049797356
3668,0.03874383
3669,-0.054989733
3670,0.03985983
3671,0.022608973
3672,-0.0546361
3673,-0.05874814
3674,0.027479388
3675,-0.02107355
3676,-0.011658721
3677,0.015465029
3678,0.026446238
3679,0.03029485
3680,-0.007930599
3681,-0.024458624
3682,0.045822985
3683,-0.0018213168
3684,-0.048871532
3685,0.05963774
3686,-0.061970487
3687,0.050532706
3688,0.025836594
3689,-0.026435979
3690,-0.030932032
3691,0.005641438
3692,-0.039776303
3693,-0.032471895
3694,-0.024481967
3695,-0.004170835
3696,-0.041408956
3697,-0.020866908
3698,-0.037962623
3699,0.041610092
3700,-0.0042033046
3701,0.0077322796
3702,0.021517463
3703,-0.062382653
3704,0.017733686
3705,0.048339427
3706,0.060833015
3707,-0.029552348
3708,0.015428685
3709,-0.057686508
3710,0.027748391
3711,0.049322255
3712,-0.028965369
3713,0.03481546
3714,0.059474155
3715,0.04714588
3716,0.020667106
3717,0.019942753
3718,0.017097324
3719,0.03761089
3720,0.027221546
3721,-0.060425065
3722,-0.047677867
3723,0.04995872
3724,-0.049435772
3725,-0.0013684183
3726,-0.045063272
3727,0.055705816
3728,0.01652816
3729,0.0211019
3730,-0.045938455
3731,0.0010031015
3732,-1.0967255e-05
3733,-0.009748898
3734,0.04639218
3735,0.058884725
3736,-0.05710592
3737,0.023644835
3738,0.04392069
3739,-0.027349837
3740,-0.0068426654
3741,-0.04447195
3742,0.053153597
3743,0.02771718
3744,-0.0058749095
3745,-0.056585908
3746,-0.037816204
3747,-0.03381063
3748,0.053466916
3749,-0.055019997
3750,0.025736384
3751,0.026319608
3752,0.0590811
3753,0.036089487
3754,0.03858605
3755,-0.047636487
3756,0.025932387
3757,0.0570731
3758,0.037376367
3759,-0.010524705
3760,0.007457018
3761,-0.018178686
3762,-0.048875354
3763,0.007981718
3764,-0.045280315
3765,-0.012399182
3766,-0.018820852
3767,0.011689261
3768,0.033648103
3769,-0.03187935
3770,-0.0024919063
3771,0.033924773
3772,0.059999034
3773,0.059707806
3774,0.041184478
3775,-0.03800533
3776,0.027116768
3777,-0.021904714
3778,0.0049680397
3779,-0.022458456
3780,0.05245415
3781,0.017986163
3782,-0.03039416
3783,-0.016481772
3784,-0.03858231
3785,0.058162965
3786,0.004030049
3787,0.0044413656
3788,-0.011943057
3789,0.007303007
3790,-0.0077937543
3791,-0.05404374
3792,0.05014822
3793,0.014513709
3794,0.01955922
3795,0.042087406
3796,0.04257538
3797,0.058162026
3798,-0.034624748
3799,-0.034983903
3800,-0.059802778
3801,-0.020347208
3802,0.041497014
3803,0.056160748
3804,0.026645027
3805,-0.007129714
3806,0.0056716874
3807,0.043442525
3808,-0.0045464635
3809,0.0591444
3810,-0.060852006
3811,0.043577433
3812,0.013897464
3813,-0.05763966
3814,0.05007726
3815,0.0035445318
3816,0.034080237
3817,-0.008191824
3818,0.014383346
3819,0.049346
3820,0.025845595
3821,0.020933777
3822,0.0062469617
3823,0.030361854
3824,0.03413622
3825,-0.04445853
3826,-0.004034005
3827,-0.009281434
3828,-0.0051464587
3829,0.004542552
3830,0.002535686
3831,-0.010006629
3832,0.041994512
3833,0.0073265806
3834,-0.04591286
3835,0.018343113
3836,0.055924833
3837,-0.052036993
3838,-0.037391357
3839,0.062320203
3840,0.03456498
3841,-0.053244002
3842,0.038337544
3843,-0.003965795
3844,0.052325264
3845,0.060162827
3846,0.000827387
3847,0.01828175
3848,-0.058121927
3849,0.028690599
3850,0.040429406
3851,-0.049524955
3852,-0.050727956
3853,0.018422686
3854,-0.011726223
3855,0.05115717
3856,-0.042829245
3857,-0.050548248
3858,0.0145954415
3859,0.061769567
3860,-0.05857376
3861,0.007888779
3862,0.035045356
3863,0.0174912
3864,0.012435786
3865,-0.059284434
3866,-0.05687342
3867,-0.04740818
3868,-0.031752028
3869,-0.04452026
3870,0.018450953
3871,0.03353785
3872,-0.056416474
3873,-0.0008318722
3874,-0.058379374
3875,0.009455919
3876,0.056468762
3877,0.039837293
3878,0.007834233
3879,0.023163848
3880,-0.024861522
3881,0.060042873
3882,0.03047514
3883,-0.02556952
3884,-0.014174938
3885,-0.040641926
3886,0.032022864
3887,-0.008216031
3888,0.0025303885
3889,0.014081731
3890,-0.02305533
3891,0.028331049
3892,-0.024201259
3893,-0.004141189
3894,0.021707661
3895,0.00034295022
3896,-0.014288582
3897,-0.01904209
3898,-0.009202763
3899,-0.051491186
3900,0.034413315
3901,0.027754948
3902,0.012330912
3903,0.018151604
3904,0.031550676
3905,0.03525748
3906,0.030227907
3907,0.058203235
3908,-0.048741378
3909,-0.0063026026
3910,0.024051264
3911,0.060483128
3912,-0.027837314
3913,-0.048521385
3914,-0.00070662796
3915,-0.055348486
3916,0.056232646
3917,-0.048910357
3918,0.05596216
3919,-0.048524387
3920,-0.061993293
3921,0.017593645
3922,-0.044464044
3923,0.040240392
3924,0.022126436
3925,0.050677717
3926,-0.016168311
3927,-0.025792062
3928,0.0062191933
3929,-0.03271438
3930,0.016363904
3931,0.053233318
3932,-0.062359475
3933,-0.012672879
3934,-0.04213527
3935,-0.059334926
3936,0.024293318
3937,0.009026654
3938,0.014343582
3939,0.012378231
3940,0.0074633807
3941,-0.039773747
3942,-0.0033964738
3943,-0.054128557
3944,-0.02397485
3945,0.05520992
3946,-0.053013965
3947,-0.062171414
3948,-0.026659146
3949,-0.037501298
3950,-0.03101778
3951,0.0004169345
3952,0.058100328
3953,0.05096384
3954,0.033979177
3955,-0.03702593
3956,-0.016467191
3957,-0.054830804
3958,0.020655833
3959,-0.01908002
3960,-0.026211344
3961,-0.03131242
3962,-0.0594246
3963,0.011244103
3964,-0.024330497
3965,0.049400732
3966,-0.005763039
3967,0.0545711
3968,0.0010666996
3969,0.03720718
3970,0.045658015
3971,-0.043330945
3972,0.0150639415
3973,0.041828513
3974,-0.009298183
3975,0.009476125
3976,-0.024683699
3977,0.03362339
3978,-0.059236467
3979,-0.028904855
3980,-0.03669069
3981,-0.058501802
3982,0.04453957
3983,0.02848427
3984,-0.030891202
3985,-0.0075848848
3986,-0.002028279
3987,-0.0049954876
3988,0.034016706
3989,-0.015588976
3990,-0.04239194
3991,0.03813207
3992,-0.004534118
3993,0.044060186
3994,0.019484393
3995,-0.037563026
3996,0.05926635
3997,-0.053254053
3998,0.01941593
3999,0.051016152
4000,0.0485192
4001,0.0601293
4002,-0.052071452
4003,0.044740304
4004,-0.012608677
4005,0.047806554
4006,-0.024640135
4007,0.03974483
4008,-0.03586282
4009,0.0009782165
4010,0.055418365
4011,-0.02298443
4012,-0.056729935
4013,0.039666444
4014,0.0114231035
4015,0.02594456
4016,-0.034606412
4017,-0.05429607
4018,-0.004346989
4019,0.016901031
4020,-0.020569168
4021,0.05896593
4022,-0.015213817
4023,-0.054598443
4024,-0.027110182
4025,-0.018130593
4026,0.040918507
4027,-0.015886962
4028,-0.044276223
4029,0.05597409
4030,-0.017380089
4031,-0.05416712
4032,-0.021591425
4033,0.03562735
4034,-0.05342859
4035,-0.02792482
4036,0.0116081685
4037,-0.034172088
4038,-0.025150053
4039,-0.027455717
4040,0.040111043
4041,-0.055113517
4042,-0.022564486
4043,0.047588192
4044,-0.012788005
4045,-0.05214133
4046,-0.005812682
4047,0.040846787
4048,-0.047969393
4049,-0.05019369
4050,-0.04724756
4051,0.03812491
4052,-0.018341891
4053,-0.019262373
4054,0.009503625
4055,-0.03488803
4056,-0.061408058
4057,-0.021512628
4058,0.059709236
4059,0.030246325
4060,-0.0027896091
4061,0.024795108
4062,0.0037750974
4063,0.03445874
4064,0.0143298805
4065,-0.0032811686
4066,-0.06150005
4067,0.0035592616
4068,0.042986073
4069,-0.0325706
4070,0.033206314
4071,-0.036540918
4072,-0.0041324347
4073,-0.00010718405
4074,-0.052563593
4075,-0.06007439
4076,0.013832651
4077,-0.061741926
4078,0.06208455
4079,0.041537873
4080,-0.014611371
4081,-0.014529467
4082,0.060988605
4083,0.022059798
4084,0.05406701
4085,-0.050201453
4086,-0.0212527
4087,-0.057661727
4088,0.0044081733
4089,-0.05569146
4090,0.055499755
4091,0.046142407
4092,0.0049476475
4093,0.030253015
4094,0.054756954
4095,-0.010067232
4096,-0.0369723
4097,-0.058848843
4098,0.024764031
4099,0.053968057
4100,-0.027539238
4101,-0.053810872
4102,-0.04619118
4103,0.0027899742
4104,0.042191073
4105,-0.061441533
4106,-0.01135274
4107,0.026305363
4108,0.03336153
4109,-0.05139927
4110,0.015273638
4111,-0.045095466
4112,-0.0014166087
4113,-0.048817717
4114,0.017693348
4115,0.012228064
4116,-0.031909265
4117,0.04049147
4118,-0.015851893
4119,0.042753145
4120,0.028673314
4121,0.045668945
4122,0.045043126
4123,-0.013989709
4124,-0.03617478
4125,-0.020961314
4126,-0.013494059
4127,0.060857147
4128,0.0043981
4129,-0.040714085
4130,-0.04302574
4131,-0.043177754
4132,0.0031468421
4133,-0.029796213
4134,0.06184181
4135,-0.036788918
4136,-0.028985515
4137,-0.002161473
4138,-0.054797918
4139,-0.017306857
4140,0.042145826
4141,0.027123354
4142,0.024423279
4143,0.022158861
4144,0.051825613
4145,0.040430076
4146,0.045749277
4147,-0.0074194223
4148,-0.05025568
4149,0.021673262
4150,-0.033255495
4151,-0.052739643
4152,-0.057130158
4153,0.06117113
4154,-0.0015771985
4155,0.0018880293
4156,-0.029666297
4157,0.040286735
4158,0.050880827
4159,0.026221521
4160,-0.06189049
4161,0.057313927
4162,-0.038753234
4163,0.0553274
4164,0.0009815693
4165,0.044044815
4166,-0.013438508
4167,-0.02713538
4168,-0.042146266
4169,0.016553268
4170,-0.020046487
4171,-0.03264541
4172,0.014144391
4173,-0.025330089
4174,-0.0058138296
4175,-0.013230026
4176,0.015183821
4177,-0.039021723
4178,0.043116778
4179,-0.033818364
4180,-0.031254143
4181,-0.0407196
4182,0.03494797
4183,0.017696686
4184,0.021901116
4185,-0.038083553
4186,0.029193357
4187,0.029736653
4188,0.01149039
4189,-0.026285514
4190,0.022849955
4191,0.026573807
4192,-0.004927255
4193,-0.03147936
4194,-0.059529737
4195,-0.0029443353
4196,-0.051751755
4197,-0.024506956
4198,-0.03758817
4199,0.0029409379
4200,-0.021742381
4201,-0.05207798
4202,-0.0037657022
4203,-0.05522991
4204,-0.00045149773
4205,-0.05189588
4206,0.047147945
4207,-0.039393365
4208,0.022724167
4209,-0.045726627
4210,-0.004509419
4211,-0.00067941844
4212,-0.004510753
4213,0.02567996
4214,0.018390536
4215,-0.047281675
4216,0.032566167
4217,-0.049118116
4218,-0.046067983
4219,0.03911578
4220,-0.027763925
4221,0.0062458813
4222,0.053144008
4223,0.060785793
4224,-0.019708492
4225,-0.0024620742
4226,-0.05666677
4227,0.05176925
4228,0.0124057755
4229,0.044842206
4230,-0.011707649
4231,-0.050939783
4232,-0.035375915
4233,0.031917386
4234,-0.056123145
4235,0.016908951
4236,-0.036884665
4237,0.029192932
4238,-0.036120363
4239,-0.049919873
4240,0.017532848
4241,-0.049383633
4242,-0.0026804283
4243,-0.01891794
4244,0.029852808
4245,0.04945474
4246,-0.028373063
4247,0.015701152
4248,-0.05566424
4249,0.052515134
4250,0.055145748
4251,-0.022007085
4252,-0.01635366
4253,-0.030467704
4254,-0.057878256
4255,0.015193194
4256,0.020804018
4257,0.04466004
4258,-0.047610432
4259,0.057963848
4260,0.061993197
4261,0.01937624
4262,-0.058957905
4263,0.04868354
4264,0.023547955
4265,0.030794576
4266,-0.00235755
4267,0.00068224967
4268,0.02619341
4269,0.03247582
4270,0.015741505
4271,0.051727355
4272,-0.0008204654
4273,0.020203158
4274,-0.028186664
4275,-0.013619229
4276,0.005686119
4277,0.014498115
4278,0.017602883
4279,0.019299783
4280,0.038868867
4281,-0.052306354
4282,0.041281417
4283,0.0482053
4284,-0.040383786
4285,-0.046972886
4286,-0.034916997
4287,0.009748504
4288,-0.019037597
4289,0.029817864
4290,0.011859544
4291,0.01850126
4292,0.03572887
4293,-0.023351908
4294,0.020874597
4295,-0.05498699
4296,-0.028431706
4297,-0.029412054
4298,-0.058100715
4299,-0.04597701
4300,0.043551713
4301,-0.04174845
4302,-0.028825268
4303,0.048133753
4304,-0.054114945
4305,0.048327528
4306,0.049735844
4307,-0.024308793
4308,-0.037173636
4309,0.027837798
4310,-0.019005537
4311,-0.052602008
4312,-0.05437178
4313,-0.00048220903
4314,-0.043655075
4315,-0.041043743
4316,0.043151863
4317,0.054504983
4318,-0.023896113
4319,0.04964617
4320,-0.029149517
4321,-0.05006977
4322,-0.043064117
4323,-0.0036024898
4324,0.020051785
4325,-0.05502341
4326,0.010528229
4327,-0.028934352
4328,-0.013201013
4329,0.027906165
4330,-0.018013537
4331,-0.03285189
4332,-0.0005579367
4333,-0.035768583
4334,-0.024794847
4335,0.0072318986
4336,0.038320057
4337,-0.022626773
4338,0.035713315
4339,-0.013291702
4340,-0.01692117
4341,0.060924985
4342,0.0039873943
4343,-0.057280555
4344,-0.02714932
4345,0.020736843
4346,0.04040368
4347,-0.039715767
4348,-0.01923646
4349,0.007515222
4350,0.025276989
4351,-0.026487596
4352,0.05302807
4353,0.058612004
4354,0.039048947
4355,0.04487613
4356,0.031405486
4357,-0.061378457
4358,0.05749488
4359,0.04330094
4360,0.025642194
4361,-0.03404586
4362,-0.015579037
4363,-0.030886859
4364,-0.026029125
4365,0.038967043
4366,-0.022509508
4367,0.009467527
4368,-0.03106381
4369,0.06232688
4370,-0.03206542
4371,-0.0032711923
4372,0.012654878
4373,0.054522432
4374,0.04197865
4375,0.041797467
4376,-0.038360395
4377,0.016982608
4378,-0.054578617
4379,0.021940075
4380,0.050500967
4381,-0.038612016
4382,0.02034565
4383,0.057107426
4384,-0.0082335025
4385,-0.04084742
4386,-0.023872674
4387,0.042369775
4388,-0.05189278
4389,-0.028223448
4390,-0.022520058
4391,-0.010429047
4392,-0.025353342
4393,0.05599709
4394,0.037699
4395,0.03775993
4396,0.0569235
4397,-0.028781101
4398,-0.00034582615
4399,0.0022284538
4400,0.019584477
4401,0.02713202
4402,0.039854355
4403,0.0059517026
4404,-0.05231498
4405,-0.00083746016
4406,0.01869978
4407,-0.009348579
4408,0.052281447
4409,0.05157783
4410,-0.00182724
4411,0.051863074
4412,-0.03159903
4413,0.0009008646
4414,-0.04488501
4415,0.045895383
4416,-0.023743577
4417,-0.027033955
4418,0.045393787
4419,0.03955818
4420,-0.061506495
4421,-0.017368957
4422,0.0018341914
4423,-0.0136163905
4424,0.05413428
4425,0.00990697
4426,0.036382668
4427,0.060884908
4428,0.037440784
4429,0.033036254
4430,-0.055230215
4431,0.06127604
4432,0.03243743
4433,0.018417366
4434,0.012222104
4435,0.039415695
4436,0.040442146
4437,-0.03418327
4438,-0.027835488
4439,-0.046403684
4440,0.03260895
4441,0.009400219
4442,0.036520973
4443,-0.036876358
4444,-0.043561824
4445,-0.03258186
4446,0.0050881132
4447,0.043622196
4448,2.2858381e-05
4449,-0.029623248
4450,-0.030200154
4451,0.0071597174
4452,-0.061285198
4453,-0.036230966
4454,0.008290991
4455,0.03752453
4456,-0.022929028
4457,-0.025128074
4458,-0.036769167
4459,0.058698274
4460,-0.0013855472
4461,0.01559443
4462,0.0012705997
4463,0.060906075
4464,0.03954433
4465,-0.016062133
4466,-0.042556383
4467,0.062381275
4468,0.03845466
4469,-0.023526683
4470,0.05122976
4471,0.024242371
4472,-0.04909326
4473,0.059816822
4474,0.052755423
4475,-0.01625628
4476,0.05245971
4477,0.036180325
4478,-0.042765483
4479,0.0070249066
4480,-0.0329348
4481,-0.017515987
4482,0.047303796
4483,0.027592093
4484,-0.0073748305
4485,0.04531367
4486,0.017344937
4487,-0.0350113
4488,-0.02960281
4489,-0.049132094
4490,-0.0034796298
4491,0.024287239
4492,0.0016078427
4493,-0.043514773
4494,0.009000428
4495,0.048255816
4496,-0.036332227
4497,0.03553454
4498,0.0015386343
4499,0.02534777
4500,0.010962255
4501,0.022688687
4502,-0.035448425
4503,-0.05058226
4504,0.05357398
4505,0.01845745
4506,-0.008341931
4507,0.05037704
4508,0.04123427
4509,0.023902714
4510,-0.022357225
4511,-0.043625318
4512,-0.027026467
4513,-0.014565922
4514,-0.0519464
4515,0.05256191
4516,0.036180176
4517,-0.05486417
4518,-0.050118595
4519,-0.044987783
4520,-0.010247774
4521,0.008710697
4522,-0.004292235
4523,0.030062206
4524,0.017428584
4525,-0.0036482215
4526,0.02896268
4527,0.024232604
4528,-0.025566734
4529,-0.022720337
4530,-0.022503786
4531,0.003814198
4532,-0.05138375
4533,-0.016412102
4534,0.044968434
4535,0.05201754
4536,-0.062305197
4537,0.061439365
4538,-0.013481848
4539,0.007968336
4540,0.039986536
4541,-0.03486926
4542,-0.03982885
4543,-0.013012983
4544,-0.001179114
4545,0.032494813
4546,0.034678876
4547,0.039420143
4548,0.058911778
4549,-0.060825646
4550,0.003251262
4551,-0.030477822
4552,0.01972457
4553,-0.060698807
4554,0.010996774
4555,-0.00801222
4556,-0.022673845
4557,-0.054441325
4558,-0.043025583
4559,0.044515587
4560,-0.019897483
4561,0.019963287
4562,-0.0016429573
4563,0.009515844
4564,-0.013147816
4565,0.013500042
4566,-0.025446028
4567,0.03249892
4568,-0.015830152
4569,-0.019279897
4570,-0.018779688
4571,0.05649376
4572,0.013516396
4573,0.036790706
4574,0.051231004
4575,0.040106267
4576,0.035690226
4577,0.054957844
4578,0.035595365
4579,-0.010348022
4580,0.054217696
4581,0.00062494725
4582,0.042433776
4583,0.0017687008
4584,-0.035159037
4585,-0.031218842
4586,-0.012294434
4587,-0.020477138
4588,-0.035918184
4589,0.016014926
4590,0.03777437
4591,0.05281412
4592,-0.043489784
4593,0.0047365725
4594,0.060252517
4595,0.034917183
4596,0.021568611
4597,0.014425941
4598,-0.0389707
4599,0.018813513
4600,-0.018899664
4601,0.055341505
4602,0.03427273
4603,0.040116817
4604,0.048957616
4605,0.017250061
4606,-0.0075867698
4607,-0.018764637
4608,0.03472565
4609,-0.018292092
4610,-0.008950397
4611,-0.03553886
4612,-0.031182602
4613,0.040947787
4614,0.044849552
4615,0.031025775
4616,-0.04288587
4617,0.056223467
4618,0.045717202
4619,-0.042929754
4620,0.015239827
4621,-0.027975433
4622,0.031727247
4623,0.01001744
4624,-0.057621844
4625,0.0543186
4626,0.061184585
4627,0.0068492517
4628,-0.031441733
4629,-0.06209206
4630,0.03666559
4631,0.04690545
4632,-0.027154475
4633,0.02991429
4634,0.018738411
4635,0.0029123202
4636,-0.05501519
4637,-0.01389353
4638,0.027068958
4639,0.002024658
4640,-0.05809804
4641,-0.04986856
4642,-0.0033365265
4643,-0.019602053
4644,-0.025259413
4645,0.04281556
4646,-0.0017262697
4647,-0.03098315
4648,-0.05448295
4649,0.054799147
4650,-0.042252883
4651,0.005995579
4652,-0.03535699
4653,-0.044612847
4654,-0.030162595
4655,-0.015489459
4656,-0.061932832
4657,-0.033531755
4658,0.021291152
4659,0.05255405
4660,-0.0239992
4661,-0.024133667
4662,0.033197984
4663,-0.053800814
4664,0.037710078
4665,-0.052561365
4666,-0.057659023
4667,-0.03253583
4668,0.008592784
4669,-0.06166766
4670,-0.04745312
4671,-0.03091216
4672,-0.02535718
4673,0.053497426
4674,0.018028975
4675,0.048856303
4676,-0.035946302
4677,-0.026942156
4678,0.060435854
4679,0.05680926
4680,-0.052123666
4681,0.05187843
4682,-0.01393687
4683,0.023830771
4684,0.051786557
4685,-0.022460155
4686,0.05645413
4687,-0.022226125
4688,0.05851621
4689,-0.0048010647
4690,-0.035062373
4691,-0.00946188
4692,0.0013934448
4693,0.058638096
4694,-0.013535462
4695,0.023414098
4696,0.053852543
4697,-0.042047612
4698,-0.037961416
4699,0.037223555
4700,0.00854817
4701,-0.04299078
4702,0.05958023
4703,-0.03267681
4704,-0.005176589
4705,0.02078706
4706,0.009462237
4707,-0.025653481
4708,-0.0050985813
4709,0.017003424
4710,0.026931085
4711,0.00039863586
4712,0.043105565
4713,0.027172334
4714,-0.03908518
4715,-0.060893983
4716,0.047373585
4717,0.038997248
4718,-0.05034516
4719,0.055172242
4720,0.041714005
4721,-0.006360233
4722,0.013102457
4723,-0.02339504
4724,-0.052237414
4725,0.016921028
4726,0.053206965
4727,-0.044475816
4728,-0.040731244
4729,0.052659154
4730,-0.038441345
4731,0.0065409914
4732,-0.020478375
4733,0.0323037
4734,-0.006044306
4735,-0.028330237
4736,0.050338127
4737,0.0039569587
4738,-0.003715977
4739,-0.017002113
4740,-0.04575216
4741,0.028579086
4742,0.04967975
4743,0.007744454
4744,-0.020811126
4745,-0.012597792
4746,0.0032550097
4747,-0.04192645
4748,0.017135993
4749,0.02686479
4750,0.006816417
4751,0.05484905
4752,-0.045589752
4753,0.05587072
4754,0.02674561
4755,0.05698628
4756,0.046233833
4757,0.009981118
4758,0.060946733
4759,0.058440335
4760,0.0027676672
4761,-0.04618752
4762,-0.043164432
4763,0.047197692
4764,-0.013415247
4765,-0.04516855
4766,0.017216831
4767,0.061732166
4768,0.060801715
4769,-0.049233563
4770,0.014380753
4771,-0.041414514
4772,0.032853812
4773,0.04601995
4774,0.04321686
4775,0.029261827
4776,0.053439736
4777,-0.004868634
4778,-0.030872002
4779,0.017402358
4780,0.00088416785
4781,0.022507384
4782,0.00986971
4783,-0.035109065
4784,0.05121702
4785,0.027124673
4786,0.036975563
4787,0.0108004585
4788,0.0620848
4789,0.009440519
4790,0.008604914
4791,0.01952561
4792,-0.04787205
4793,-0.039491646
4794,0.045028627
4795,0.048059657
4796,0.003837645
4797,-0.0072010458
4798,0.05492962
4799,-0.009381041
4800,0.05459114
4801,0.052996345
4802,0.008034132
4803,-0.047213048
4804,0.002058193
4805,-0.045134872
4806,-0.03472331
4807,-0.06073588
4808,0.006237589
4809,0.0058979467
4810,-0.0025204495
4811,0.025496684
4812,0.0416862
4813,-0.022740796
4814,-0.03455387
4815,-0.024498358
4816,-0.029072396
4817,0.022965886
4818,0.061578304
4819,-0.04396367
4820,-0.015819497
4821,0.040053524
4822,0.04682955
4823,-0.014105506
4824,0.023064174
4825,-0.025962345
4826,0.010128625
4827,-0.042018496
4828,0.054914996
4829,-0.012543075
4830,0.030260548
4831,-0.061982565
4832,-0.04816126
4833,0.055970162
4834,0.044856362
4835,0.034847915
4836,-0.0233249
4837,-0.0374149
4838,-0.0069385692
4839,-0.04388582
4840,-0.003690742
4841,-0.012610316
4842,-0.056707256
4843,0.028765216
4844,0.042047977
4845,-0.024039745
4846,0.06012124
4847,0.053584933
4848,0.058022313
4849,0.03560275
4850,-0.0035188273
4851,-0.019630946
4852,0.002078548
4853,-0.013216354
4854,0.043637425
4855,-0.03413493
4856,-0.044220425
4857,0.061842434
4858,-0.03837488
4859,-0.012196355
4860,0.0018645227
4861,0.044277668
4862,0.044225857
4863,-0.05523462
4864,0.02729103
4865,-0.041153014
4866,0.05537504
4867,0.010399103
4868,-0.042104296
4869,0.056399025
4870,-0.033545606
4871,-0.059015714
4872,0.030879132
4873,0.016148277
4874,0.004175015
4875,-0.017533824
4876,0.0029212162
4877,0.047000825
4878,0.014632344
4879,-0.056726716
4880,0.0105786845
4881,0.013065748
4882,-0.061568268
4883,0.03449534
4884,-0.060295925
4885,0.028582491
4886,-0.030176923
4887,0.006757617
4888,0.020417392
4889,-0.017495416
4890,0.012179397
4891,-0.04005041
4892,0.010685824
4893,-0.0016039461
4894,0.020633087
4895,-0.046247058
4896,-0.004856527
4897,-0.0012009218
4898,0.0025608018
4899,0.029420555
4900,0.041028574
4901,0.02480945
4902,-0.03443648
4903,-0.01755239
4904,-0.014801614
4905,-0.01815328
4906,0.0410283
4907,0.054334402
4908,0.046893373
4909,0.007871047
4910,0.029002689
4911,-0.06141661
4912,-0.057045326
4913,-0.0034899712
4914,0.030184127
4915,-0.018955536
4916,-0.010158293
4917,0.013471678
4918,0.05218163
4919,0.012910984
4920,0.04944712
4921,0.032434665
4922,-0.014809355
4923,-0.025034435
4924,-0.061021194
4925,-0.024333484
4926,-0.0043767244
4927,0.059298955
4928,-0.039479487
4929,0.017998308
4930,-0.0040545836
4931,-0.049122266
4932,-0.0137929395
4933,0.032560818
4934,-0.056897514
4935,-0.05859711
4936,0.01615388
4937,-0.00095267594
4938,-0.0442976
4939,0.053073436
4940,0.05036675
4941,-0.03379847
4942,-0.00453002
4943,0.029983707
4944,-0.052438825
4945,-0.0367591
4946,-0.018692486
4947,-0.014814295
4948,-0.019852273
4949,-0.042563617
4950,-0.02461829
4951,0.03425403
4952,0.054626912
4953,-0.061403915
4954,0.010314792
4955,-0.04942651
4956,0.029769123
4957,0.04756868
4958,0.0059936047
4959,0.011790469
4960,-0.035713904
4961,0.05985392
4962,0.0011330917
4963,0.032437213
4964,-0.041020468
4965,0.01862479
4966,-0.011469804
4967,0.053728722
4968,0.028599404
4969,0.04381775
4970,0.062137626
4971,-0.0074914247
4972,0.052073963
4973,-0.030776203
4974,0.003967166
4975,0.039363198
4976,-0.016790345
4977,0.02470953
4978,0.03712496
4979,-0.02241999
4980,0.01792863
4981,0.059207633
4982,-0.050754033
4983,0.005437374
4984,-0.05957243
4985,0.041429386
4986,0.036451608
4987,0.021582328
4988,-0.06241642
4989,0.007880054
4990,0.03862963
4991,0.011546783
4992,-0.051458836
4993,0.055854507
4994,-0.05034826
4995,0.04027678
4996,0.01977501
4997,-0.048642337
4998,0.054034002
4999,0.028833628
5000,-0.01654552
5001,-0.03956937
5002,-0.0029097125
5003,0.009971358
5004,0.008751497
5005,-0.041839868
5006,-0.025381245
5007,-0.045262747
5008,-0.009780891
5009,0.033220127
5010,0.009428427
5011,-0.024173878
5012,-0.049490668
5013,0.060719244
5014,0.04204826
5015,0.0060238987
5016,-0.03751476
5017,0.05235268
5018,-0.062350146
5019,0.013853684
5020,-0.018624537
5021,-0.045498252
5022,0.032976195
5023,0.016447306
5024,-0.012234986
5025,-0.05737585
5026,0.032524675
5027,0.020208716
5028,-0.0127615705
5029,0.030770816
5030,-0.03429465
5031,-0.0400426
5032,-0.0006234199
5033,0.03709065
5034,0.0071211904
5035,0.027178839
5036,0.036467195
5037,0.039131656
5038,0.043629177
5039,-0.03005489
5040,-0.03623479
5041,0.047008827
5042,0.004969038
5043,-0.041509494
5044,0.0019572452
5045,0.022911921
5046,0.056244574
5047,-0.030488916
5048,0.037785627
5049,-0.056691177
5050,0.0018431246
5051,-0.05829552
5052,-0.0074822977
5053,-0.046221383
5054,-0.031233631
5055,0.038293287
5056,0.025033422
5057,-0.010192312
5058,-0.016905174
5059,0.05641272
5060,0.054444507
5061,-0.00032717735
5062,-0.034596816
5063,-0.02507566
5064,-0.028659098
5065,0.012176178
5066,-0.009248853
5067,-0.058666885
5068,0.018459521
5069,0.06200251
5070,-0.04173571
5071,0.025855295
5072,-0.056305647
5073,-0.012178414
5074,0.055126473
5075,-0.027236782
5076,-0.051483355
5077,0.048554994
5078,0.051025033
5079,-0.030676402
5080,-0.007640563
5081,0.016010836
5082,0.030036256
5083,-0.056004718
5084,0.03726384
5085,0.04667536
5086,0.024579003
5087,-0.06030666
5088,0.026468456
5089,-0.023842528
5090,-0.055603564
5091,0.02704981
5092,-0.034749724
5093,-0.0518827
5094,0.060564004
5095,-0.0575706
5096,-0.04758753
5097,-0.038516685
5098,-0.033099867
5099,0.03705418
5100,0.0027126372
5101,-0.04825633
5102,0.015978247
5103,0.020415455
5104,0.021566227
5105,-0.003689617
5106,0.029203624
5107,0.034016415
5108,0.052533187
5109,0.0073735043
5110,-0.02677694
5111,-0.00046461076
5112,-0.03711477
5113,0.019341372
5114,-0.04607912
5115,-0.026395999
5116,-0.05519753
5117,-0.020111486
5118,0.029040128
5119,-0.019361265
5120,0.052803606
5121,-0.031097017
5122,0.053859122
5123,0.024340048
5124,0.047267146
5125,0.021674544
5126,0.033177428
5127,0.025943749
5128,-0.010023028
5129,0.0368597
5130,-0.060209528
5131,-0.011024348
5132,0.025234312
5133,0.031256154
5134,-0.012114733
5135,-0.05556515
5136,0.057252213
5137,0.027799256
5138,-0.039606586
5139,0.0024957806
5140,-0.045478
5141,-0.024109505
5142,-0.036833636
5143,-0.01839219
5144,0.006601818
5145,0.026571006
5146,0.0010467395
5147,0.011429347
5148,0.017106354
5149,0.05816546
5150,0.031231776
5151,-0.04645939
5152,0.042034343
5153,-0.012034021
5154,0.030171424
5155,0.032454185
5156,-0.00088463724
5157,0.032938838
5158,-0.033648655
5159,-0.039969116
5160,0.043021798
5161,0.024793461
5162,0.044809118
5163,0.009782404
5164,-0.0020474046
5165,0.015967093
5166,0.01750239
5167,-0.019681849
5168,-0.021765657
5169,0.030920036
5170,7.877499e-05
5171,-0.054404348
5172,-0.032897934
5173,0.012438327
5174,0.04364515
5175,-0.05984857
5176,0.03088165
5177,-0.02028551
5178,0.05178845
5179,-0.0011245385
5180,0.029958121
5181,0.0030579492
5182,0.024820566
5183,0.0043471456
5184,-0.057191677
5185,0.0223651
5186,0.0073990896
5187,-0.014558129
5188,-0.022678219
5189,-0.012227334
5190,-0.0035614148
5191,0.054221064
5192,-0.029901758
5193,-0.03444077
5194,-0.03881745
5195,0.025753886
5196,0.042240575
5197,-0.00588499
5198,0.006969005
5199,0.054990865
5200,0.010272652
5201,-0.04125771
5202,-0.05944036
5203,0.05067256
5204,-0.03464383
5205,0.012341984
5206,-0.022159703
5207,-0.006067075
5208,0.015718333
5209,0.004731789
5210,0.002762869
5211,0.034537442
5212,-0.02722428
5213,0.025800407
5214,0.055954687
5215,-0.04887209
5216,0.017669588
5217,0.042462125
5218,0.03890279
5219,-0.018257953
5220,0.061751455
5221,-0.059385337
5222,0.049443737
5223,-0.036888175
5224,-0.0459041
5225,0.008732572
5226,0.032080762
5227,0.0071672276
5228,-0.006544031
5229,-0.016264476
5230,-0.0140450895
5231,0.008484669
5232,-0.021169968
5233,-0.028008811
5234,-0.0035099238
5235,0.014283478
5236,-0.02645132
