,0
0,-0.024064343
1,-0.014418468
2,-0.031643853
3,-0.020886602
4,0.014199177
5,-0.068202555
6,-0.055036936
7,0.041769627
8,0.019895837
9,0.04058122
10,-0.0078153005
11,-0.01735057
12,-0.039027814
13,-0.017488448
14,0.011485399
15,0.018487006
16,-0.05497451
17,0.02656502
18,0.008695511
19,0.04234071
20,0.0074722455
21,-0.043469485
22,-0.029151125
23,-0.011304884
24,-0.028394295
25,-0.007232999
26,0.020965407
27,-0.017838132
28,-0.053826503
29,0.023727085
30,0.016848812
31,-0.010991706
32,0.037264623
33,0.002415026
34,-0.0052050925
35,-0.031192414
36,-0.04700737
37,0.037520424
38,-0.03459841
39,0.047222022
40,-0.034584302
41,0.06311751
42,-0.043256838
43,-0.058945816
44,0.030742373
45,-0.01611406
46,-0.035021707
47,0.03538716
48,-0.016999627
49,-0.033345733
50,0.044863727
51,0.045014773
52,-0.024810063
53,-0.034281187
54,-0.034869563
55,-0.014961088
56,0.058820356
57,-0.041113634
58,-0.04369024
59,-0.03293571
60,-0.012130483
61,-0.007398638
62,-0.016455548
63,-0.02343074
64,0.0322893
65,0.061858773
66,0.022822147
67,-0.0070060915
68,0.053950287
69,-0.016864322
70,-0.025018793
71,-0.01530683
72,0.011565894
73,0.011433967
74,-0.03409548
75,-0.019610852
76,0.028184928
77,-0.005104815
78,-0.0286994
79,-0.009008509
80,-0.057203457
81,0.060324073
82,-0.02339912
83,-0.040217362
84,-0.053069677
85,0.035887476
86,0.04732191
87,-0.0055869776
88,-0.027058218
89,-0.026038945
90,-0.053401772
91,-0.05805815
92,0.034171127
93,0.010707003
94,-0.058717445
95,-0.0010527975
96,-0.06774444
97,0.052732542
98,-0.034282632
99,-0.046365123
100,0.019944029
101,0.05279586
102,-0.024414442
103,0.032234505
104,0.009018062
105,-0.00026216498
106,-0.0033136278
107,0.035582434
108,-0.03476112
109,0.006070833
110,-0.0148675125
111,0.039482456
112,-0.056115955
113,0.06205126
114,0.005513675
115,-0.011742388
116,-0.052511673
117,0.060179364
118,-0.023964748
119,0.042147975
120,-0.056061644
121,-0.031039916
122,-0.0266049
123,-0.048917107
124,-0.05968418
125,-0.0429129
126,0.0011657188
127,0.014383072
128,-0.024790904
129,0.051718872
130,-0.03590073
131,-0.010321604
132,0.003911686
133,-0.029111726
134,0.00010708325
135,0.0041317823
136,-0.041697912
137,0.037333775
138,0.021866104
139,-0.016152523
140,0.028257616
141,0.020523734
142,0.045477413
143,-0.037289884
144,0.04029454
145,-0.034565866
146,0.023646884
147,-0.0011494235
148,0.051930733
149,-0.018582217
150,-0.03754019
151,-0.017021691
152,-0.008107509
153,0.017742328
154,0.0029884407
155,-0.05747442
156,-0.04241947
157,0.019538568
158,-0.020594139
159,-0.019152215
160,-0.026776273
161,0.034233943
162,0.031212008
163,-0.054353535
164,-0.027862415
165,0.047261704
166,0.05329773
167,0.02507857
168,-0.033879492
169,0.051114503
170,0.048758175
171,-0.0004080079
172,0.009112768
173,0.030470029
174,0.046981066
175,0.033026073
176,0.04467396
177,0.018490747
178,0.026916761
179,0.038629074
180,-0.009680279
181,-0.03815291
182,-0.011668819
183,-0.03157495
184,0.031046355
185,-0.013370675
186,-0.03697309
187,0.01707457
188,-0.026937181
189,0.034100786
190,0.050055783
191,-0.05890995
192,0.050512202
193,0.04076151
194,0.013647531
195,-0.025082765
196,-0.05179849
197,0.014860763
198,0.01661613
199,0.012977161
200,0.040293355
201,-0.050510004
202,0.042548172
203,0.015709123
204,0.023052424
205,-0.017347246
206,-0.04067154
207,0.03504985
208,-0.03357858
209,0.053757757
210,0.045925427
211,0.023939844
212,0.056041673
213,-0.028089618
214,-0.040799126
215,-0.03830396
216,0.039684225
217,0.027963687
218,-0.0646369
219,0.055975303
220,-0.010786338
221,-0.0150883375
222,0.0057277866
223,-0.026103772
224,-0.0023188435
225,-0.057429016
226,0.008833854
227,-0.05660735
228,-0.011826977
229,0.029149013
230,-0.058758263
231,0.0092451
232,-0.034547452
233,0.018450398
234,0.011117854
235,0.00278788
236,-0.05530183
237,0.014278851
238,0.011463055
239,0.009373956
240,-0.037160534
241,0.001109055
242,0.029350119
243,0.069017924
244,-0.04445069
245,-0.053506937
246,0.014340325
247,-0.05239574
248,-0.026646538
249,-0.066761985
250,-0.03883018
251,-0.054879647
252,0.044696815
253,-0.009835168
254,-0.02063068
255,0.037107326
256,-0.003938705
257,-0.034614913
258,0.031654842
259,-0.03486894
260,-0.055156868
261,0.01860238
262,0.051293857
263,-0.0030258386
264,0.065024324
265,0.00054833264
266,7.162399e-05
267,0.07111259
268,-0.034575455
269,-0.066365995
270,0.063718334
271,0.005323992
272,0.037161186
273,0.005774712
274,0.027390135
275,0.018115975
276,0.033076286
277,-0.016074976
278,0.030832969
279,-0.068829514
280,0.026651694
281,-0.009595335
282,0.013021312
283,-0.07006098
284,0.016771453
285,0.01214436
286,0.012382467
287,-0.04857997
288,-0.0059916996
289,0.047807124
290,0.05345547
291,-0.030808756
292,-0.019760739
293,0.049911823
294,-0.0517391
295,0.026391804
296,-0.033274114
297,0.06482029
298,0.013814673
299,0.02733622
300,-0.06344512
301,-0.046057593
302,0.06008447
303,-0.043791074
304,-0.03219619
305,-0.013269264
306,-0.039006267
307,-0.040422317
308,0.051265955
309,-0.07153056
310,0.008036563
311,-0.021828339
312,0.0122730555
313,-0.05687416
314,-0.030547723
315,0.07138701
316,-0.064377055
317,0.020442009
318,-0.02080987
319,0.028146667
320,0.008470316
321,0.012893971
322,0.00556451
323,0.0044720243
324,-0.035138313
325,0.028501285
326,0.07101558
327,0.076921426
328,0.03195519
329,0.0564157
330,-0.038574234
331,0.01149146
332,-0.052308396
333,0.06455071
334,0.026971152
335,0.0023514167
336,0.061796013
337,-0.0019575076
338,0.045708276
339,-0.012996151
340,0.010356369
341,-0.034258418
342,-0.0041485135
343,-0.01675558
344,-0.058636397
345,-0.049231254
346,0.04215129
347,-0.03064473
348,0.017809156
349,0.043249674
350,-0.054224037
351,-0.013364813
352,0.017607458
353,-0.008732972
354,0.03482883
355,-0.027268445
356,0.0026980545
357,-0.015997713
358,-0.02698957
359,0.026588451
360,0.058712136
361,0.027360428
362,-0.024574455
363,0.027093064
364,0.0068267123
365,0.027616546
366,-0.010009989
367,-0.026019845
368,0.019086363
369,0.018347472
370,0.05225601
371,0.016660219
372,-0.07066855
373,-0.007540157
374,0.019373687
375,0.08373343
376,0.041267876
377,-0.037803974
378,0.027002985
379,0.061232653
380,0.029153906
381,-0.036872037
382,0.024458349
383,-0.050673112
384,-0.0067735384
385,-0.026766283
386,0.028419796
387,-0.020607471
388,-0.03319286
389,0.0056544053
390,0.0043079383
391,-0.01787137
392,0.036457278
393,-0.009918581
394,-0.011342294
395,0.010425605
396,-0.008959062
397,-0.011978536
398,0.015199913
399,0.04085849
400,0.05265801
401,-0.0126155345
402,-0.043968033
403,-0.075430855
404,0.007055028
405,-0.017725822
406,0.02457183
407,-0.040707003
408,-0.048207883
409,0.048750713
410,-0.021227501
411,0.04991229
412,0.07123222
413,-0.016305555
414,0.024243947
415,-0.040066015
416,0.060196787
417,-0.052339368
418,0.076499715
419,0.014090353
420,0.020239728
421,-0.021270107
422,-0.05254931
423,-0.008997732
424,0.08126166
425,0.00068801525
426,0.057391673
427,-0.0233248
428,-0.04345587
429,-0.05217563
430,-0.011800106
431,-0.045731705
432,-0.016209511
433,0.023735572
434,-0.058396146
435,0.03126079
436,-0.029242039
437,-0.024643524
438,-0.05117604
439,-0.06022148
440,0.0641177
441,-0.055081364
442,0.01728419
443,-0.07021014
444,0.044224985
445,0.051872846
446,0.052289322
447,-0.0656157
448,-0.0095542
449,0.068752915
450,-0.034274943
451,0.06731835
452,0.0073815277
453,5.2435193e-05
454,-0.03279182
455,0.043963537
456,0.05735723
457,0.012511217
458,0.042020105
459,-0.06424389
460,0.013627105
461,0.0178065
462,3.6446025e-05
463,-0.05168036
464,-0.02242947
465,-0.047672424
466,0.00774791
467,0.043256637
468,0.031060651
469,-0.056068316
470,0.03160767
471,0.069479614
472,-0.046906505
473,-0.049084123
474,-0.05033331
475,-0.076397635
476,0.034186315
477,-0.06087984
478,0.0030495266
479,0.015154556
480,0.013417045
481,0.035481494
482,-0.046068817
483,0.05699929
484,0.0383233
485,0.01044012
486,-0.012617469
487,-0.030559275
488,-0.050764497
489,-0.010140559
490,-0.016896483
491,-0.011002035
492,-0.014783993
493,-0.027861603
494,0.022864502
495,0.03592985
496,0.075807266
497,-0.028307097
498,0.06284857
499,0.04697231
500,0.038967326
501,0.00088102627
502,-0.037667356
503,-0.030297522
504,-0.0324046
505,-0.00021019824
506,-0.0051814257
507,-0.019637603
508,0.051045567
509,0.051541843
510,0.023241615
511,0.030060526
512,-0.047320645
513,-0.0021566933
514,0.04253842
515,0.0020269463
516,0.05427429
517,0.018042415
518,0.0069042095
519,-0.005085582
520,0.0135984095
521,0.024465961
522,-0.046481375
523,0.06784465
524,-0.060750406
525,-0.00840052
526,-0.0017673682
527,-0.018699862
528,-0.06721179
529,-0.05785934
530,0.021287704
531,0.047411047
532,-0.013697237
533,-0.030308971
534,-0.0066995895
535,0.0541863
536,-0.048301343
537,-0.062153537
538,-0.029205794
539,-0.009647679
540,-0.014732592
541,0.0071754013
542,-0.031424854
543,0.023880668
544,0.019040091
545,0.016203929
546,0.06566491
547,-0.048946574
548,-0.028251642
549,0.008613231
550,-0.010322315
551,0.034943197
552,-0.030416513
553,0.04548483
554,-0.032720666
555,0.057448678
556,-0.03194602
557,0.047180783
558,0.0014174886
559,-0.03230707
560,-0.03256826
561,0.039811358
562,0.04138367
563,-0.042326834
564,0.02236959
565,0.026195616
566,-0.00507843
567,-0.03481616
568,-0.0071283216
569,-0.049734462
570,0.053420417
571,-0.048880674
572,0.024973268
573,0.011079758
574,0.009149957
575,0.031234335
576,0.032160304
577,-0.03860849
578,0.01639643
579,0.06618715
580,0.015075402
581,0.035041217
582,0.006436584
583,0.04942956
584,0.0133434
585,0.018227277
586,-0.053418107
587,0.013976479
588,0.047964193
589,-0.040880103
590,0.0130885085
591,0.0160112
592,-0.0054427255
593,-0.0037370704
594,-0.056623068
595,0.019154362
596,0.02216195
597,-0.01913816
598,0.023715386
599,0.012419569
600,0.050684143
601,0.03453662
602,0.044430308
603,-0.018064404
604,-0.04650969
605,-0.028142804
606,0.040462773
607,0.04799255
608,0.0008162362
609,0.040642157
610,-0.028812025
611,0.046758767
612,-0.04297011
613,-0.03553567
614,-0.003998044
615,0.033012107
616,-0.028830312
617,0.06286373
618,-0.008405604
619,-0.0010834719
620,0.033051774
621,-0.04295878
622,0.02983648
623,-0.058546133
624,0.041260775
625,-0.010607571
626,0.023964899
627,0.02343654
628,0.04570275
629,-0.012826717
630,-0.0106931655
631,-0.009814798
632,-0.0213895
633,0.0012451734
634,-0.0015290094
635,-0.038030878
636,0.0030238233
637,-0.05127668
638,-0.018084364
639,-0.030148445
640,-0.034290027
641,-0.00082883495
642,-0.036688887
643,0.050638746
644,0.0508719
645,-0.026621856
646,-0.042480677
647,-0.021315005
648,-0.020400671
649,0.03102532
650,0.03793974
651,-0.022941437
652,-0.014445348
653,0.0001952564
654,0.029210363
655,0.035064623
656,0.061734263
657,-0.020870721
658,-0.023176286
659,-0.024589017
660,0.06498265
661,0.034561656
662,-0.030795414
663,0.030095791
664,0.036177885
665,-0.058225654
666,0.0109729925
667,0.045802303
668,-0.0236816
669,0.016288267
670,-0.04935015
671,-0.021281838
672,0.0515054
673,0.04704645
674,0.06551454
675,0.018060183
676,-0.05784996
677,-0.026521645
678,-0.05673338
679,-0.03350731
680,0.07585036
681,0.028511385
682,-0.03610239
683,-0.0008437839
684,-0.0057847137
685,-0.013339728
686,0.018455574
687,0.013227942
688,-0.010104886
689,-0.057265032
690,-0.020601496
691,0.012960326
692,0.06717444
693,-0.004971075
694,0.032739412
695,0.054987658
696,0.04684126
697,0.056655988
698,0.040069886
699,-0.013488839
700,-0.018362746
701,0.032261733
702,-0.03203834
703,-0.06426319
704,0.041748103
705,-0.034131914
706,0.007874814
707,-0.022733847
708,0.010323494
709,-0.028975999
710,0.008701054
711,0.056861907
712,0.04822492
713,-0.00820652
714,0.034357775
715,-0.003940707
716,0.059274007
717,0.054833945
718,0.029698486
719,0.01671151
720,0.050293714
721,-0.021997236
722,0.03411077
723,-0.020444313
724,0.028257929
725,0.0139497
726,-0.047470402
727,-0.035227176
728,-0.061065763
729,0.051833108
730,0.01305692
731,-0.06383976
732,0.031200737
733,0.020133054
734,-0.052384052
735,0.012054106
736,0.028342513
737,-0.010572231
738,0.04018414
739,-0.049790878
740,-0.013243469
741,0.055681992
742,-0.045178756
743,0.038374055
744,-0.013964185
745,0.034938376
746,0.050466854
747,-0.03976877
748,0.0007354844
749,0.0013428241
750,0.023131493
751,0.0345229
752,0.0047701746
753,0.024031032
754,-0.0734648
755,-0.058824167
756,-0.05175267
757,-0.019171052
758,-0.040293608
759,0.018045729
760,-0.03662288
761,0.062116288
762,-0.0123662865
763,0.010665899
764,0.020250086
765,0.039497107
766,0.048238218
767,0.034924056
768,-0.0477691
769,0.041259974
770,-0.0097632
771,-0.061585255
772,-0.034901053
773,-0.006088912
774,0.05745889
775,0.030537728
776,-0.015357121
777,-0.036425922
778,0.03583648
779,0.0636594
780,-0.036341064
781,-0.009694381
782,0.035163637
783,0.024944374
784,-0.051491432
785,-0.00238755
786,0.0072433087
787,0.01833781
788,0.019208549
789,-0.028809927
790,0.039912064
791,0.025150845
792,-0.03785801
793,0.0187465
794,0.055130318
795,-0.04367672
796,-0.063257344
797,-0.008668676
798,-0.014267005
799,-0.013723633
800,-0.039376054
801,-0.010179213
802,0.0012267431
803,-0.0064357975
804,0.033447057
805,-0.04538265
806,0.01297262
807,0.036136586
808,-0.030738993
809,-0.010179559
810,-0.042987626
811,0.048278097
812,-0.05103261
813,-0.001961638
814,-0.010713752
815,0.0038698493
816,0.04409169
817,-0.022330107
818,-0.019912379
819,0.024991259
820,-0.022655578
821,0.033234347
822,0.026408903
823,0.049935214
824,0.02925723
825,0.053820726
826,0.05234354
827,0.056540113
828,0.028079903
829,0.041572567
830,0.049067017
831,-0.057965603
832,-0.049053688
833,0.0009322928
834,0.015339156
835,-0.022298906
836,-0.061249834
837,0.021664465
838,-0.015130112
839,0.0491823
840,0.017194625
841,0.05532891
842,-0.0064978516
843,0.047120273
844,-0.00015180653
845,-0.008129053
846,0.057296805
847,-0.058821023
848,-0.050868694
849,0.010106746
850,-0.0589368
851,-0.0103142485
852,-0.0073724384
853,-0.050701562
854,-0.02738673
855,-0.04559371
856,0.057790287
857,-0.040834922
858,-0.05220267
859,0.058885686
860,-0.023289643
861,0.004372134
862,-0.0316269
863,-0.059606027
864,0.016488876
865,0.0031479085
866,-0.04231038
867,-0.05886498
868,0.006269619
869,0.008349891
870,0.05478381
871,-0.019350227
872,-0.063887306
873,-0.030715622
874,0.030560108
875,0.018241843
876,0.013110536
877,0.0498152
878,-0.0043423166
879,-0.0006248376
880,-0.007740215
881,-0.00054563954
882,-0.03710476
883,0.03335037
884,0.027041858
885,0.009670045
886,-0.046670806
887,-0.059418857
888,-0.05837806
889,-0.03649526
890,0.05831823
891,-0.06118112
892,-0.030454593
893,-0.031751864
894,-0.019582756
895,0.025570164
896,0.05971805
897,0.0018052034
898,0.045626033
899,-0.019005375
900,0.016386984
901,0.03903872
902,0.019300234
903,0.06078937
904,-0.020614367
905,0.037333626
906,0.039904464
907,-0.05276927
908,0.005237434
909,0.015794965
910,0.03944324
911,0.040201563
912,0.05725923
913,0.0062467963
914,0.060122203
915,-0.039745625
916,-0.03575011
917,0.032997344
918,-0.049453095
919,-0.0068671093
920,0.028369132
921,-0.020467186
922,0.020528123
923,0.0345449
924,0.013431286
925,-0.053833123
926,-0.00329059
927,0.014381659
928,-0.02351891
929,0.026500212
930,0.05643604
931,0.043801527
932,-0.0014160603
933,-0.047262225
934,-0.013639671
935,-0.010876376
936,-0.054388974
937,0.029872777
938,0.008360758
939,-0.02266803
940,-0.06667496
941,-0.030701116
942,0.028706342
943,0.059124984
944,0.008644446
945,-0.018776665
946,-0.06159692
947,0.039551474
948,-0.032217227
949,0.056513093
950,-0.031241886
951,0.03741977
952,-0.033884663
953,0.049496878
954,0.0010065553
955,0.0504939
956,0.022937832
957,0.037815653
958,0.051946074
959,-0.041316535
960,0.053710416
961,0.03567586
962,-0.007955135
963,-0.056001615
964,0.004515419
965,-0.035085972
966,-0.043698873
967,-0.016095862
968,-0.055349465
969,-0.03229294
970,-0.07006884
971,-0.010508807
972,-0.014991647
973,-0.032952838
974,-0.0076766056
975,0.00025861175
976,-0.00555049
977,-0.039771367
978,-0.01497401
979,0.006494428
980,0.05082631
981,0.0237199
982,0.039173637
983,-0.015756717
984,0.024668083
985,-0.039450966
986,-0.032817684
987,-0.041490056
988,0.039104193
989,0.022406084
990,0.0040491517
991,-0.01707436
992,-0.037412412
993,-0.0020150363
994,0.004681509
995,-0.04984353
996,-0.017521443
997,-0.004409269
998,0.024621561
999,0.06259746
1000,0.040858626
1001,0.031852253
1002,-0.0008088198
1003,0.03669389
1004,0.044604942
1005,0.012663595
1006,-0.0031895982
1007,-0.033307713
1008,-0.006132974
1009,-0.038367286
1010,0.033510916
1011,0.035630055
1012,-0.042557683
1013,-0.034757115
1014,-0.054704435
1015,0.05983219
1016,0.0058818306
1017,0.010761856
1018,0.036717847
1019,-0.0384224
1020,-0.032202814
1021,0.032861322
1022,0.031494223
1023,-0.0009715591
1024,0.004028264
1025,0.017046748
1026,-0.011078906
1027,0.027910147
1028,-0.0457962
1029,0.05239299
1030,0.013430864
1031,0.037294727
1032,0.043743204
1033,0.0438202
1034,0.026596244
1035,-0.002899889
1036,0.022548206
1037,-0.05972605
1038,0.057273753
1039,-0.026666993
1040,-0.003454952
1041,0.0052638887
1042,-0.0022285408
1043,0.040947035
1044,0.044580568
1045,0.014209145
1046,-0.018149178
1047,0.05087214
1048,-0.033467274
1049,-0.013479179
1050,0.0061684297
1051,0.042503513
1052,-0.022594027
1053,0.031007357
1054,-0.03552008
1055,0.0038547358
1056,-0.06802208
1057,0.010593647
1058,0.001885221
1059,0.047955275
1060,0.048975676
1061,-0.04432927
1062,0.0088010905
1063,0.0085493075
1064,-0.049687363
1065,-0.00911841
1066,0.016778247
1067,0.024662212
1068,-0.02202481
1069,-0.022096554
1070,0.02750023
1071,-0.030536287
1072,-0.0084524965
1073,-0.029594842
1074,-0.011019032
1075,0.062321257
1076,0.041908745
1077,-0.019346977
1078,-0.050933544
1079,0.056133598
1080,0.026226794
1081,0.062790975
1082,-0.026829446
1083,-0.044808816
1084,0.045525007
1085,0.0008184497
1086,0.059084643
1087,0.0028409369
1088,0.04909767
1089,-0.060764134
1090,-0.047162343
1091,-0.04609624
1092,-0.0035173437
1093,0.05105504
1094,-0.0071136346
1095,0.034387596
1096,-0.037547473
1097,-0.017780233
1098,0.05570713
1099,-0.04443426
1100,-0.05891302
1101,-0.013765553
1102,0.020466536
1103,-0.03158365
1104,0.06004058
1105,-0.047410965
1106,-0.006898475
1107,-0.04517694
1108,-0.0075195767
1109,-0.008893409
1110,0.009176105
1111,-0.012255767
1112,0.047429174
1113,-0.049084067
1114,0.04881271
1115,-0.002721877
1116,0.022542577
1117,0.033642653
1118,-0.01604998
1119,-0.012495632
1120,-0.06344943
1121,-0.030318877
1122,-0.02529755
1123,0.031200746
1124,-0.02969573
1125,0.050771676
1126,-0.039117966
1127,-0.053897068
1128,0.0017772904
1129,0.047393374
1130,-0.041735027
1131,0.049613897
1132,0.023678053
1133,-0.055168092
1134,-0.06100405
1135,-0.054117493
1136,0.020909172
1137,0.05958215
1138,0.03255477
1139,0.04140927
1140,0.04199177
1141,-0.053116005
1142,0.03823227
1143,-0.044617027
1144,-0.027944159
1145,0.009205374
1146,0.040271606
1147,0.0009790522
1148,-0.028828617
1149,0.050368153
1150,0.049941074
1151,-0.011797394
1152,-0.050589524
1153,0.0035365603
1154,0.037687667
1155,0.041824237
1156,-0.0077643227
1157,0.059347924
1158,-0.026722794
1159,-0.0018830319
1160,0.064822525
1161,0.0148884645
1162,-0.043996233
1163,0.018380765
1164,-0.059665415
1165,0.03954171
1166,-0.013713954
1167,-0.034431886
1168,0.017051019
1169,0.026577486
1170,-0.05332863
1171,-0.0675949
1172,0.02175154
1173,-0.04390005
1174,0.015262086
1175,0.073131256
1176,0.023632398
1177,-0.002189992
1178,-0.05055129
1179,-0.011409212
1180,-0.007053729
1181,0.031853594
1182,-0.030627308
1183,0.0648227
1184,-0.027108336
1185,0.040083006
1186,-0.04520648
1187,0.040949646
1188,0.042833347
1189,0.0031754822
1190,-0.03068126
1191,-0.04303697
1192,-0.047335546
1193,-0.0010247253
1194,0.02559914
1195,-0.0585574
1196,-0.03373237
1197,-0.00025923192
1198,0.021948341
1199,0.024817923
1200,-0.0063235248
1201,-0.049753748
1202,0.043140847
1203,-0.063428625
1204,0.04357949
1205,-0.035999477
1206,-0.06487078
1207,-0.016528398
1208,-0.024100613
1209,-0.03831917
1210,0.02511064
1211,0.027450994
1212,0.0119826505
1213,0.001941136
1214,-0.033321347
1215,0.012935371
1216,0.011687212
1217,-0.014123929
1218,0.053011023
1219,-0.040184155
1220,0.017752724
1221,0.06473984
1222,-0.024074238
1223,-0.05248323
1224,-0.0015133012
1225,0.04227439
1226,-0.023280747
1227,-0.05699595
1228,0.008663177
1229,-0.013999309
1230,0.018546984
1231,0.021566303
1232,-0.043016214
1233,-0.0126328245
1234,0.019092035
1235,0.041306272
1236,-0.061347704
1237,0.005159467
1238,-0.048842583
1239,-0.0027209169
1240,-0.054066714
1241,-0.020727819
1242,-0.038798597
1243,-0.01514026
1244,0.013268087
1245,0.033929046
1246,0.04385501
1247,0.024070261
1248,-0.013263658
1249,-0.052764285
1250,0.0304906
1251,0.026458004
1252,0.061030705
1253,0.0467978
1254,0.04490215
1255,0.016657852
1256,0.017915137
1257,0.005393101
1258,0.03845983
1259,-0.044292115
1260,0.012128007
1261,-0.0253742
1262,-0.05277633
1263,-0.05330388
1264,-0.03661486
1265,0.031483725
1266,-0.032897737
1267,-0.044216834
1268,0.003965302
1269,-0.058158375
1270,0.0035852722
1271,-0.00034282065
1272,0.005486588
1273,0.042440828
1274,-0.025337502
1275,-0.01490974
1276,-0.05100428
1277,0.021908421
1278,0.054045353
1279,-0.049554747
1280,0.02074799
1281,0.031849634
1282,-0.0068256957
1283,0.05753169
1284,0.0522338
1285,-0.030605989
1286,0.029115826
1287,-0.04933802
1288,0.052308496
1289,0.0124073895
1290,-0.004254741
1291,-0.03636587
1292,0.023251856
1293,0.00021349853
1294,-0.044113416
1295,0.042782202
1296,-0.014256676
1297,0.01253663
1298,0.0068493895
1299,-0.045074794
1300,0.064805895
1301,-0.042725284
1302,0.0048365854
1303,-0.018773928
1304,0.025882911
1305,0.056303874
1306,0.00821108
1307,-0.04852948
1308,0.021921854
1309,-0.037301674
1310,-0.05049796
1311,0.03512244
1312,-0.058635958
1313,0.04200293
1314,0.059324097
1315,0.015668882
1316,-0.051862996
1317,-0.00071454135
1318,0.013005588
1319,-0.05695548
1320,-0.04491404
1321,-0.035100475
1322,-0.044111017
1323,0.018951515
1324,0.0017394649
1325,-0.01506948
1326,0.053330414
1327,-0.021518052
1328,-0.043155972
1329,-0.037788864
1330,0.057404608
1331,0.05107181
1332,-0.06918118
1333,-0.034019507
1334,0.05439732
1335,0.048835278
1336,0.036366582
1337,0.02408595
1338,0.04910797
1339,-0.013243527
1340,-0.06044456
1341,-0.012762126
1342,0.07049556
1343,-0.009994416
1344,0.009562379
1345,-0.052137148
1346,-0.023479052
1347,-0.026021112
1348,-0.03245881
1349,0.07639173
1350,0.0053727212
1351,-0.016731722
1352,0.014207856
1353,-0.06494871
1354,-0.016993234
1355,-0.06486991
1356,-0.03860202
1357,-0.01513831
1358,0.06152464
1359,-0.020940652
1360,-0.0720483
1361,0.03983292
1362,-0.052112795
1363,0.02957796
1364,-0.055569105
1365,-0.009175177
1366,-0.017892847
1367,-0.04454114
1368,-0.026782852
1369,0.01731393
1370,-0.0408941
1371,0.009336606
1372,-0.016607461
1373,-0.015279767
1374,0.021832108
1375,0.0117386775
1376,0.02608622
1377,-0.005675745
1378,-0.0050840494
1379,-0.020145081
1380,-0.027297478
1381,-0.03401749
1382,0.042983454
1383,-0.027006263
1384,-0.068099804
1385,-0.05646769
1386,0.043357
1387,0.040706888
1388,-0.025165528
1389,-0.007913571
1390,0.016935071
1391,-0.030257024
1392,0.03856723
1393,0.029323922
1394,0.0052757426
1395,-0.0071517597
1396,0.03432237
1397,0.044532664
1398,0.0016378653
1399,0.060298875
1400,0.040939838
1401,0.03217032
1402,-0.022448532
1403,0.04194945
1404,-0.005285058
1405,-0.04310444
1406,0.02191709
1407,0.0042018993
1408,-0.0006335804
1409,0.042394668
1410,-0.046799026
1411,0.04723289
1412,0.051849153
1413,0.03982974
1414,-0.0035106563
1415,-0.029420398
1416,0.008095022
1417,0.004375265
1418,0.003628444
1419,-0.008226782
1420,0.024848055
1421,-0.040489163
1422,0.045950644
1423,0.05866535
1424,-0.04700817
1425,0.0046678474
1426,-0.014562815
1427,-0.04593544
1428,-0.050240573
1429,-0.026856095
1430,-0.037803363
1431,-0.053165063
1432,-0.023990743
1433,0.033802256
1434,-0.01648548
1435,0.013293127
1436,0.036491442
1437,-0.027461981
1438,-0.06147952
1439,0.043171253
1440,-0.021315148
1441,0.030251624
1442,0.05885474
1443,-0.034236345
1444,0.049945857
1445,0.03374606
1446,0.001447195
1447,0.0412705
1448,-0.056848664
1449,0.009948737
1450,-0.05839245
1451,0.0052099084
1452,0.06016426
1453,-0.05110727
1454,0.010779517
1455,0.05616438
1456,-0.05576963
1457,0.00718819
1458,0.038842812
1459,-0.009727854
1460,0.043737464
1461,0.025907101
1462,0.031407434
1463,0.066319995
1464,0.05394649
1465,0.024950173
1466,0.059902236
1467,0.021445606
1468,-0.056581605
1469,-0.0014718833
1470,-0.06199514
1471,-0.04613113
1472,-0.0072742226
1473,-0.013955837
1474,-0.017899018
1475,-0.030043555
1476,-0.04715283
1477,-0.012424595
1478,0.033175107
1479,0.016645491
1480,0.01798318
1481,-0.019114219
1482,0.022809846
1483,-0.053731963
1484,0.048957188
1485,0.06651127
1486,-0.045663644
1487,0.02075389
1488,-0.020848801
1489,0.04405601
1490,-0.009433694
1491,0.01723383
1492,-0.010208581
1493,0.05422875
1494,0.042168815
1495,0.013401711
1496,-0.04733084
1497,0.05184355
1498,0.055697672
1499,0.057081252
1500,0.04171002
1501,-0.017235838
1502,-0.02880695
1503,-0.0027301551
1504,0.014001112
1505,-0.008027523
1506,0.025020776
1507,-0.055272598
1508,0.060136337
1509,-0.008848554
1510,-0.052417807
1511,-0.05805457
1512,0.015320499
1513,0.004153555
1514,0.04756157
1515,-0.017912757
1516,-0.03905389
1517,-0.010266631
1518,-0.011082686
1519,0.034480944
1520,0.006521452
1521,0.04058034
1522,0.028180707
1523,0.019753905
1524,-0.0017154596
1525,0.020075487
1526,0.012886274
1527,-0.044093553
1528,-0.027139125
1529,0.06721052
1530,0.004607986
1531,-0.035633776
1532,-0.018762074
1533,-0.047137816
1534,0.013401118
1535,-0.030766375
1536,0.054587573
1537,-0.028565321
1538,0.036056243
1539,0.053847566
1540,0.062414188
1541,-0.00095528114
1542,0.0078073684
1543,0.015294889
1544,-0.021981087
1545,-0.0071429177
1546,0.03123185
1547,-0.01857294
1548,-0.006970099
1549,0.031361513
1550,-0.0022559697
1551,-0.052328046
1552,0.004181853
1553,-0.03155314
1554,0.04472156
1555,-0.0040574907
1556,0.03440478
1557,0.008189699
1558,0.04975044
1559,-0.04532614
1560,0.01910912
1561,0.06515953
1562,-0.052286338
1563,0.040665384
1564,0.006183597
1565,-0.029087786
1566,0.0063751657
1567,-0.027912892
1568,-0.06478073
1569,-0.005869728
1570,-0.048920356
1571,-0.052613802
1572,0.007080655
1573,0.049699184
1574,0.011766472
1575,0.037697844
1576,0.036236357
1577,0.057597317
1578,0.026607301
1579,-0.021762786
1580,0.005316341
1581,-0.004318732
1582,0.04356303
1583,-0.053687975
1584,0.052641455
1585,-0.046042267
1586,-0.014337363
1587,-0.04112961
1588,-0.0023189352
1589,0.0019764213
1590,0.06153298
1591,0.050920755
1592,0.027093958
1593,0.010993457
1594,-0.04531963
1595,-0.0060214945
1596,0.009938198
1597,0.020793393
1598,-0.032410517
1599,-0.0032361173
1600,-0.026990665
1601,0.011552918
1602,-0.05020177
1603,0.04633984
1604,0.056674246
1605,0.012352593
1606,0.039123934
1607,0.015723364
1608,0.027885696
1609,0.061849177
1610,-0.050396062
1611,-0.020211346
1612,0.06446723
1613,-0.05102819
1614,0.033603393
1615,-0.019540684
1616,-0.026161058
1617,-0.025981404
1618,-0.035219308
1619,0.014626091
1620,-0.029918842
1621,-0.071279444
1622,-0.014900254
1623,-0.024837226
1624,0.054694172
1625,0.026146945
1626,0.06628445
1627,0.018589573
1628,0.014933607
1629,-0.047420945
1630,0.06300408
1631,0.015100834
1632,-0.043527186
1633,0.06267855
1634,-0.05734972
1635,-0.04320859
1636,0.02670984
1637,0.0038037119
1638,0.037057757
1639,-0.014253013
1640,0.04382029
1641,0.025938915
1642,0.046198852
1643,-0.020280283
1644,-0.05116722
1645,-0.024257177
1646,0.048035804
1647,-0.051578343
1648,0.0070235664
1649,0.06749626
1650,-0.007274437
1651,-0.0059010102
1652,0.047320165
1653,-0.026763013
1654,0.003442719
1655,-0.057774775
1656,-0.05294777
1657,-0.0683307
1658,0.040716704
1659,0.056640707
1660,-0.046283394
1661,-0.04102505
1662,-0.021502666
1663,-0.009911513
1664,0.00055532914
1665,0.019718695
1666,0.005800172
1667,-0.0022463014
1668,0.0035899235
1669,-0.007861513
1670,-0.01215423
1671,0.018880522
1672,-0.044520985
1673,0.013338297
1674,0.021507552
1675,0.031670563
1676,0.009476426
1677,-0.01787832
1678,0.031759784
1679,-0.067418925
1680,-0.0036901622
1681,0.0017734586
1682,-0.011725903
1683,0.008028771
1684,-0.04230175
1685,-0.053405307
1686,-0.06473527
1687,-0.06053119
1688,0.0015280264
1689,-0.0504576
1690,0.028909197
1691,-0.034588356
1692,0.037846718
1693,0.016282152
1694,-0.027587108
1695,-0.024253521
1696,-0.045511983
1697,-0.025172396
1698,-0.0151160145
1699,-0.014829621
1700,-0.025015984
1701,-0.04203499
1702,0.02672347
1703,-0.05693632
1704,-0.06187591
1705,-0.038076922
1706,0.044380628
1707,0.045078415
1708,-0.03534449
1709,0.041133147
1710,0.010077695
1711,0.014794579
1712,-0.04933299
1713,-0.024927152
1714,0.0405518
1715,0.005570532
1716,-0.06001991
1717,0.052718095
1718,0.027618688
1719,0.01274851
1720,0.049128946
1721,0.011565851
1722,-0.025620777
1723,0.0509502
1724,-0.025246736
1725,-0.0020107622
1726,-0.02498786
1727,0.0025582125
1728,-0.043721706
1729,0.0043306043
1730,-0.0154148135
1731,-0.07133529
1732,0.047347303
1733,-0.01548372
1734,-0.03977101
1735,0.013561026
1736,0.023570694
1737,-0.039818984
1738,-0.041233566
1739,0.06639625
1740,0.060282465
1741,0.07027141
1742,-0.011993413
1743,0.005218704
1744,-0.040896807
1745,0.05848477
1746,0.032896824
1747,0.024173137
1748,-0.048877347
1749,0.0053896615
1750,0.04681257
1751,-0.019294735
1752,-0.05872662
1753,0.021294793
1754,0.015400139
1755,0.022419844
1756,0.05323535
1757,-0.020676503
1758,0.037044276
1759,0.054916155
1760,-0.05570505
1761,-0.036114335
1762,-0.05382539
1763,-0.010608737
1764,-0.015213236
1765,0.00955759
1766,-0.06194994
1767,-0.008020333
1768,-0.049587008
1769,-0.037329365
1770,0.036646307
1771,-0.028893508
1772,-0.022153674
1773,0.028595673
1774,-0.01779919
1775,-0.005160025
1776,-0.05185017
1777,0.012657569
1778,0.029780952
1779,0.016981566
1780,0.028912378
1781,-0.011749819
1782,0.05518412
1783,0.030498734
1784,0.05489201
1785,-0.0053823907
1786,-0.020358825
1787,0.00080398144
1788,-0.037819114
1789,0.022702545
1790,0.047639754
1791,-0.05105718
1792,-0.027651308
1793,-0.011601364
1794,-0.02282201
1795,-0.017150722
1796,-0.00407064
1797,0.005566136
1798,0.043624483
1799,0.03694296
1800,-0.0015108985
1801,0.022384997
1802,-0.019946
1803,0.04746309
1804,0.024524609
1805,0.0073932884
1806,-0.0347068
1807,-0.015380025
1808,-0.01672217
1809,-0.016992671
1810,0.042791173
1811,0.012568795
1812,-0.039475247
1813,-0.03243403
1814,0.044507504
1815,-0.00920924
1816,0.035094064
1817,0.024242612
1818,-0.03603201
1819,0.05371761
1820,0.049844455
1821,-0.024430232
1822,-0.031985324
1823,-0.063856155
1824,0.0071723186
1825,0.039269246
1826,-0.038571604
1827,-0.008243876
1828,0.017846081
1829,0.06208744
1830,0.04196132
1831,0.0556295
1832,0.040593315
1833,0.035999697
1834,0.011721034
1835,-0.057451732
1836,0.033471454
1837,-0.057195514
1838,-0.062047668
1839,0.03221034
1840,-0.0074625043
1841,-0.05788681
1842,-0.039110247
1843,0.05129521
1844,0.060034398
1845,-0.021205105
1846,-0.041317206
1847,0.05555736
1848,-0.039269395
1849,0.03520769
1850,-0.05462141
1851,-0.01252618
1852,-0.021129007
1853,0.02602239
1854,0.053075887
1855,0.04109063
1856,0.014483415
1857,0.010621039
1858,-0.030932602
1859,-0.048778705
1860,-0.07030791
1861,-0.04013945
1862,0.029605955
1863,0.0749803
1864,0.0012017475
1865,0.0023155743
1866,-0.034252115
1867,0.061626434
1868,-0.059941415
1869,-0.012727156
1870,-0.003806745
1871,-0.01664917
1872,-0.0589897
1873,0.0009024485
1874,-0.05640819
1875,0.035304368
1876,0.022004012
1877,0.035717245
1878,0.008943224
1879,-0.025803536
1880,-0.021275226
1881,-0.028717471
1882,-0.027830778
1883,0.014604365
1884,0.05231894
1885,0.047220584
1886,-0.059053216
1887,0.061686493
1888,0.0067887018
1889,-0.047862843
1890,0.026845789
1891,0.0090955235
1892,0.063039824
1893,-0.06708375
1894,-0.045952424
1895,0.05500988
1896,0.0035862555
1897,0.05725447
1898,0.060663603
1899,0.002843216
1900,-0.0038608457
1901,-0.05128705
1902,-0.0495201
1903,0.04855621
1904,-0.019307958
1905,0.043986764
1906,-0.031088427
1907,0.0032782608
1908,0.0006905521
1909,0.012724829
1910,-0.0030756858
1911,0.034506615
1912,-0.052052096
1913,-0.017501265
1914,-0.016020728
1915,-0.023639075
1916,-0.0059683085
1917,0.0007698834
1918,-0.054763764
1919,0.06410144
1920,0.038742382
1921,-0.060456365
1922,0.05252248
1923,-0.045992028
1924,-0.017155858
1925,-0.054709904
1926,-0.032735553
1927,0.0034578957
1928,-0.037334926
1929,-0.055243272
1930,0.036943637
1931,0.03298782
1932,0.031327907
1933,0.05517203
1934,-0.030615076
1935,0.03343775
1936,-0.028917301
1937,0.03929992
1938,-0.005469874
1939,-0.032782514
1940,0.040305667
1941,-0.037876274
1942,0.051566165
1943,0.012611466
1944,-0.046727534
1945,-0.037028674
1946,-0.01833959
1947,-0.018360969
1948,0.024979975
1949,0.056132607
1950,0.03838589
1951,0.049043007
1952,-0.06050054
1953,0.04129967
1954,0.039056174
1955,0.027677055
1956,0.002211598
1957,0.050900675
1958,-0.033825465
1959,-0.008252717
1960,-0.035534322
1961,0.0025909035
1962,0.059314847
1963,0.054785267
1964,0.024383489
1965,-0.025166394
1966,0.020161409
1967,-0.024830634
1968,0.03648618
1969,-0.009101518
1970,0.04167347
1971,-0.05454565
1972,-0.03561952
1973,0.060163017
1974,-0.044811577
1975,0.010375046
1976,0.024091197
1977,-0.029263135
1978,0.045977958
1979,-0.0049974057
1980,0.04482372
1981,-0.043919433
1982,-0.03523854
1983,0.0019028765
1984,0.012244463
1985,-0.035033777
1986,0.05525173
1987,0.046032343
1988,-0.020190744
1989,0.026367167
1990,-0.031294145
1991,0.030782716
1992,0.0127714425
1993,-0.04347817
1994,0.0672929
1995,-0.06648516
1996,0.007393038
1997,0.0034099955
1998,0.007796762
1999,-0.008827625
2000,-0.0015982462
2001,-0.04782873
2002,0.0398116
2003,-0.037627406
2004,0.04310564
2005,-0.0053107017
2006,0.051257562
2007,0.017132789
2008,0.024690038
2009,-0.030458905
2010,0.033048987
2011,0.028688625
2012,0.0073224786
2013,-0.01078539
2014,0.017046224
2015,0.014642528
2016,-0.065820076
2017,0.06446184
2018,0.04901215
2019,-0.06998386
2020,-0.048015695
2021,0.063049264
2022,-0.032845527
2023,0.0131450035
2024,0.03835614
2025,0.051302876
2026,-0.009877711
2027,-0.013600243
2028,-0.0015453293
2029,-0.018134905
2030,0.037192274
2031,-0.03750336
2032,-0.02770693
2033,-0.03953762
2034,-0.029902449
2035,0.017302707
2036,0.015425135
2037,0.008258251
2038,-0.0564155
2039,0.026702667
2040,0.03145712
2041,0.04745314
2042,0.03956629
2043,0.0367366
2044,0.024403686
2045,0.06422708
2046,-0.0023989284
2047,-0.021311643
2048,-0.010875635
2049,0.044905454
2050,-0.052368194
2051,0.05447869
2052,-0.0055822744
2053,0.0075440854
2054,0.04163273
2055,0.024785131
2056,-0.06548863
2057,0.0314301
2058,-0.027589617
2059,0.008256993
2060,0.008434473
2061,-0.02179616
2062,-0.025558421
2063,-0.02663617
2064,-0.034217972
2065,-0.06397399
2066,-0.0043506464
2067,-0.0132040065
2068,-0.04017096
2069,0.049474597
2070,0.0019387443
2071,-0.0067682043
2072,0.02688649
2073,0.05324144
2074,0.05303516
2075,-0.037854847
2076,0.033246323
2077,0.018495763
2078,-0.019285712
2079,0.034670085
2080,-0.035253923
2081,0.011025934
2082,-0.036879003
2083,-0.055661846
2084,-0.028710753
2085,0.05097469
2086,-0.0003606855
2087,-0.062273357
2088,-0.050848465
2089,-0.04763964
2090,0.034853145
2091,-0.054536834
2092,-0.008738123
2093,0.03606227
2094,-0.02448886
2095,-0.04605958
2096,-0.055523634
2097,0.028626736
2098,0.04077558
2099,-0.035935916
2100,-0.008770906
2101,-0.028956736
2102,0.045201376
2103,0.047945388
2104,-0.011849878
2105,-0.04481617
2106,-0.031538613
2107,0.02358791
2108,-0.019501006
2109,-0.05308584
2110,0.056931417
2111,0.009496289
2112,-0.046166267
2113,0.032869346
2114,-0.001907136
2115,0.04871234
2116,0.0373921
2117,0.048787028
2118,-0.0004967495
2119,0.030992875
2120,-0.020198356
2121,-0.0170517
2122,-0.05203651
2123,0.018966796
2124,-0.03775239
2125,0.014648041
2126,0.04199261
2127,-0.051910322
2128,-0.007277882
2129,0.04167989
2130,0.053995553
2131,-0.030620005
2132,0.052630905
2133,-0.008035586
2134,0.034567866
2135,-0.018600035
2136,0.03820628
2137,0.044536363
2138,-0.008983782
2139,0.030826697
2140,0.018777138
2141,-0.00035073524
2142,-0.03168866
2143,-0.039500024
2144,-0.018915938
2145,-0.0018642558
2146,-0.01953616
2147,0.040342916
2148,-0.044167325
2149,-0.040966626
2150,0.048313677
2151,-0.051967405
2152,0.024936376
2153,-0.0035495549
2154,0.040191848
2155,0.02151468
2156,0.055356897
2157,-0.0050622565
2158,0.03960474
2159,-0.04880648
2160,0.013231561
2161,0.02449046
2162,0.06286218
2163,-0.0033183203
2164,-0.018110039
2165,0.048068084
2166,-0.02392402
2167,-0.019873366
2168,-0.048828773
2169,0.014110477
2170,0.028690124
2171,0.03126106
2172,-0.02288436
2173,-0.04934692
2174,-0.015076767
2175,-0.047214657
2176,0.012215278
2177,0.03835959
2178,-0.038095992
2179,-0.051823664
2180,-0.06012848
2181,0.007160085
2182,-0.0048743985
2183,0.0072838776
2184,-0.051586457
2185,0.019581547
2186,0.017055474
2187,-0.0008939946
2188,-0.05391542
2189,0.017528046
2190,0.049628615
2191,0.00930036
2192,-0.031621326
2193,0.036695935
2194,-0.05228115
2195,-0.047102924
2196,-0.032944724
2197,-0.022351572
2198,-0.051570464
2199,0.054772217
2200,-0.021116504
2201,0.03201883
2202,0.0020180752
2203,0.040453322
2204,-0.048225846
2205,-0.053873256
2206,0.0037006098
2207,0.021230968
2208,0.025025452
2209,0.044767153
2210,-0.0010296161
2211,-0.028286112
2212,0.013686998
2213,0.015187416
2214,-0.014772352
2215,0.05330677
2216,-0.03714406
2217,0.014785808
2218,-0.03713794
2219,-0.0069478652
2220,0.01358749
2221,-0.051942162
2222,-0.049903125
2223,-0.0029791058
2224,0.0019528336
2225,-0.023261596
2226,0.017466629
2227,-0.030172817
2228,-0.062811404
2229,0.058495946
2230,0.011510811
2231,-0.01943156
2232,-0.0011062585
2233,0.046440445
2234,-0.011758123
2235,0.04468368
2236,-0.014170902
2237,0.019833744
2238,-0.033581156
2239,-0.00027882855
2240,0.054366
2241,-0.015979238
2242,0.036687475
2243,-0.0013969328
2244,0.020032773
2245,-0.014592912
2246,0.014849273
2247,0.06479319
2248,-0.04086253
2249,0.041430645
2250,0.009114517
2251,0.02152165
2252,0.0035581652
2253,0.015152663
2254,-0.015599312
2255,-0.050992597
2256,0.021324346
2257,-0.0135351345
2258,0.0011376922
2259,-0.011805328
2260,-0.0031770943
2261,-0.016725374
2262,-0.05088306
2263,-0.021820577
2264,0.00032958726
2265,0.06273476
2266,-0.015509565
2267,0.001717845
2268,0.056739576
2269,0.024712635
2270,-0.039719157
2271,0.040426474
2272,0.019183395
2273,0.017742436
2274,-0.030629689
2275,-0.03987425
2276,0.023546781
2277,0.036034364
2278,0.042243388
2279,-0.05450421
2280,0.01277842
2281,0.031716317
2282,-0.02418307
2283,-0.046600156
2284,-0.04852911
2285,-0.04830566
2286,-0.04484361
2287,0.00096797064
2288,-0.04058219
2289,-0.052195814
2290,0.0011709328
2291,0.046184193
2292,-0.062223334
2293,0.054876085
2294,-0.0022366229
2295,0.013965257
2296,-0.026395487
2297,-0.021468947
2298,0.059101343
2299,0.06699606
2300,0.025893306
2301,0.057933144
2302,-0.011392929
2303,0.032796443
2304,0.0396684
2305,0.007716831
2306,0.046709705
2307,-0.03170317
2308,-0.028826565
2309,0.01626461
2310,-0.03434157
2311,0.02355772
2312,0.057568606
2313,0.036491938
2314,-0.034465123
2315,0.023119893
2316,0.030521365
2317,0.036467444
2318,0.04488507
2319,-0.036947634
2320,0.033852395
2321,-0.010224796
2322,-0.03502624
2323,-0.039353028
2324,0.015835462
2325,0.051500075
2326,0.0069493377
2327,-0.015737725
2328,-0.02534252
2329,0.0006581531
2330,-0.0024611116
2331,-0.019291013
2332,0.0057562455
2333,0.044675317
2334,-0.005615102
2335,0.043002624
2336,-0.03931007
2337,-0.055187244
2338,0.038743097
2339,-0.0055539003
2340,-0.0022796935
2341,-0.028301701
2342,0.027719975
2343,-0.016333165
2344,0.0018229333
2345,0.007926526
2346,0.010696442
2347,-0.027388819
2348,0.015670212
2349,0.03408687
2350,0.061957084
2351,0.02664122
2352,-0.02851032
2353,0.056064844
2354,0.035085797
2355,0.020392235
2356,-0.005464621
2357,-0.012711708
2358,0.025351672
2359,-0.0013116433
2360,0.046901267
2361,0.020922573
2362,-0.057855606
2363,0.018742982
2364,-0.04708981
2365,-0.04529428
2366,-0.060702186
2367,-0.03445281
2368,-0.052214775
2369,-0.054218624
2370,-0.052700672
2371,-0.04220583
2372,0.044354748
2373,0.026737805
2374,-0.02391232
2375,0.026687084
2376,-0.03916793
2377,-0.06288457
2378,-0.033450387
2379,0.014504586
2380,-0.060166046
2381,0.007993394
2382,-0.041954376
2383,0.0054122917
2384,-0.019559145
2385,0.02744807
2386,-0.017120263
2387,0.018366339
2388,-0.03672706
2389,-0.032386724
2390,0.04863707
2391,0.019097505
2392,-0.022360496
2393,0.02127062
2394,0.057587206
2395,0.050244343
2396,0.017179701
2397,-0.042887572
2398,-0.02293739
2399,-0.03822564
2400,-0.042992137
2401,0.012794844
2402,0.00093799207
2403,-0.010438375
2404,-0.039948724
2405,0.0001325016
2406,-0.017862936
2407,-0.034758374
2408,0.05379492
2409,-0.0021747
2410,-0.035142813
2411,0.037624907
2412,0.040937938
2413,0.023058154
2414,-0.026186956
2415,-0.028334165
2416,-0.017943285
2417,0.043223325
2418,0.040968783
2419,-0.03932341
2420,-0.05869641
2421,-0.038112327
2422,0.066533655
2423,0.056120828
2424,-0.03188178
2425,-0.05162513
2426,-0.03673435
2427,-0.033620905
2428,0.023908312
2429,0.05421634
2430,-0.046604402
2431,0.028822811
2432,0.0010681885
2433,0.03210991
2434,0.0105979815
2435,-0.05877442
2436,-0.0640497
2437,0.042522885
2438,-0.01632646
2439,0.04133234
2440,0.00924047
2441,-0.053176183
2442,-0.055696223
2443,0.0016971508
2444,-0.029904237
2445,0.026326941
2446,-0.011788535
2447,-0.05742756
2448,-0.031627275
2449,-0.0046967864
2450,0.022328286
2451,-0.044947773
2452,-0.035624903
2453,0.03394836
2454,0.014797515
2455,0.005033859
2456,0.05584829
2457,0.008159808
2458,0.016834827
2459,-0.009935608
2460,0.04436423
2461,-0.013546835
2462,0.049098324
2463,0.050605796
2464,-0.048297357
2465,0.053443864
2466,0.038615387
2467,0.03734013
2468,0.0075477147
2469,0.053351115
2470,0.004256602
2471,-0.03776492
2472,-0.04303817
2473,0.047727857
2474,0.06005082
2475,-0.060352
2476,-0.005670639
2477,0.022181958
2478,0.025978908
2479,-0.033756506
2480,0.04076423
2481,-0.031729396
2482,0.007713895
2483,0.041766748
2484,-0.055132844
2485,-0.010837176
2486,-0.05842923
2487,-0.055177644
2488,0.06145883
2489,-0.034837015
2490,-0.024109792
2491,0.032959163
2492,0.056470923
2493,0.036780313
2494,0.04536601
2495,-0.022222606
2496,0.022619253
2497,0.05910052
2498,-0.013321151
2499,0.06476259
2500,0.023110613
2501,-0.0017215351
2502,-0.010833073
2503,-0.05472649
2504,0.045912176
2505,0.013348641
2506,-0.042112958
2507,0.035222597
2508,0.0393811
2509,-0.018297944
2510,-0.0027322334
2511,0.024705067
2512,-0.03550847
2513,0.049138594
2514,0.028088361
2515,-0.043898918
2516,0.014482715
2517,0.019234097
2518,-0.048566993
2519,-0.015817175
2520,0.046330508
2521,0.05649182
2522,-0.021403564
2523,-0.045920502
2524,-0.011406977
2525,-0.011928253
2526,-0.058085274
2527,-0.04187837
2528,0.055332594
2529,0.050035324
2530,0.0086531285
2531,0.03175463
2532,-0.009923858
2533,-0.058109142
2534,0.024319567
2535,-0.03335357
2536,-0.03588129
2537,-0.023136253
2538,-0.030184567
2539,-0.030591214
2540,0.053264655
2541,-0.03598711
2542,0.019093927
2543,-0.021169173
2544,0.04869874
2545,0.04710985
2546,0.033389743
2547,-0.02636002
2548,-0.05443852
2549,0.020074487
2550,-0.01490431
2551,0.00011036511
2552,-0.0073973914
2553,-0.055988066
2554,-0.02355363
2555,0.059506692
2556,0.057749666
2557,0.019862702
2558,-0.021476638
2559,-0.050816793
2560,-0.015214795
2561,-0.031979658
2562,-0.016469348
2563,-0.016207444
2564,0.02060513
2565,-0.02426387
2566,-0.039380908
2567,-0.023712628
2568,-0.049321838
2569,0.03669732
2570,-0.0480943
2571,-0.057726484
2572,0.002231437
2573,-0.045585644
2574,-0.017517403
2575,-0.019116964
2576,-0.017305661
2577,-0.044695493
2578,-0.038301487
2579,-0.052157253
2580,0.037226442
2581,0.0020864445
2582,-0.04846217
2583,0.049519937
2584,0.02244281
2585,-0.023635015
2586,0.015558329
2587,0.044329576
2588,-0.027996121
2589,-0.014286269
2590,-0.019066205
2591,0.005604845
2592,-0.0036145628
2593,-0.029803125
2594,0.040396746
2595,0.030306717
2596,0.03857865
2597,0.0052207746
2598,0.009963673
2599,0.03047171
2600,0.041408997
2601,-0.030048875
2602,0.0037570286
2603,-0.023471985
2604,0.027211783
2605,-0.013646317
2606,-0.018413238
2607,-0.013173536
2608,-0.04737518
2609,-0.06752927
2610,0.028415512
2611,0.016768819
2612,0.062118284
2613,0.016101146
2614,-0.002192397
2615,-0.019086398
2616,-0.01457901
2617,0.047087863
2618,-0.03415809
2619,0.009947829
2620,0.050932102
2621,0.060190964
2622,-0.056318294
2623,0.036099482
2624,-0.03936164
2625,0.017463928
2626,-0.026984686
2627,-0.021971516
2628,-0.03805031
2629,0.031820815
2630,-0.037100058
2631,-0.022001596
2632,-0.043572873
2633,-0.040690705
2634,0.05386071
2635,-0.004739702
2636,-0.035284825
2637,-0.03254826
2638,-0.014387456
2639,0.022111045
2640,-0.005890884
2641,-0.0014375049
2642,0.046853833
2643,0.043545708
2644,0.036730908
2645,0.013363094
2646,-0.012848482
2647,-0.03138602
2648,0.03035035
2649,-0.037400156
2650,-0.00071576977
2651,-0.024645891
2652,-0.026638586
2653,0.022128979
2654,0.039216902
2655,-0.031670984
2656,-0.018932419
2657,0.023169972
2658,-0.055933602
2659,0.050279338
2660,0.047274247
2661,-0.051042944
2662,-0.050937787
2663,-0.043551944
2664,0.055985156
2665,0.047290247
2666,-0.021847019
2667,0.05055168
2668,-0.041083433
2669,-0.05620405
2670,0.0048927357
2671,-0.05532613
2672,0.04331935
2673,0.0143141765
2674,-0.0360451
2675,-0.025717834
2676,0.0131061785
2677,-0.007916933
2678,-0.047002017
2679,0.058225513
2680,0.051587496
2681,-0.023512812
2682,0.03794753
2683,0.03270467
2684,-0.04597543
2685,0.023194507
2686,-0.01497751
2687,0.026313525
2688,-0.05151755
2689,0.020342277
2690,-0.024582999
2691,-0.039607406
2692,0.04799342
2693,0.068390235
2694,-0.016293064
2695,-0.022471102
2696,0.00896343
2697,-0.03153361
2698,0.03470027
2699,-0.005562538
2700,-0.046037935
2701,-0.02044127
2702,0.044161487
2703,0.029199986
2704,0.012878784
2705,-0.00071752875
2706,-0.044485603
2707,-0.014184658
2708,-0.056691013
2709,-0.013045654
2710,0.023995016
2711,0.00010781653
2712,0.04693418
2713,0.03897895
2714,0.022738954
2715,-0.024755066
2716,-0.0031472177
2717,0.057099007
2718,0.049299374
2719,0.028017612
2720,0.04529219
2721,-0.024204982
2722,-0.048261676
2723,0.0047123
2724,0.0618432
2725,0.006068912
2726,-0.029132003
2727,-0.017439261
2728,0.06995584
2729,-0.01017029
2730,0.050188556
2731,-0.052782394
2732,0.068296224
2733,0.017338729
2734,0.062074844
2735,0.042219095
2736,-0.048755016
2737,-0.03806851
2738,-0.035453063
2739,0.04293059
2740,-0.027952032
2741,0.020131946
2742,0.024315529
2743,0.058764607
2744,0.021439321
2745,0.03345123
2746,0.026209842
2747,-0.047260072
2748,-0.03350796
2749,-0.036981575
2750,-0.054190245
2751,0.06342816
2752,0.06927781
2753,-0.05095253
2754,8.966072e-05
2755,-0.03161979
2756,0.01964286
2757,0.02951796
2758,0.059481427
2759,-0.024404231
2760,0.051189188
2761,-0.03161878
2762,0.07107387
2763,-0.054130167
2764,0.013249698
2765,0.010309351
2766,-0.0051748147
2767,0.034812417
2768,-0.031246468
2769,0.04090253
2770,-0.0077007585
2771,-0.050815165
2772,0.059724025
2773,-0.01909246
2774,-0.052198775
2775,-0.019335333
2776,-0.038648985
2777,0.020636482
2778,0.065309346
2779,0.027409816
2780,0.04016315
2781,0.0018834319
2782,0.018284243
2783,-0.032521058
2784,0.012036221
2785,-0.011222139
2786,0.047161542
2787,-0.013240643
2788,0.03604532
2789,-0.005475926
2790,0.043343425
2791,0.032737494
2792,0.035766613
2793,-0.056573037
2794,-0.006705037
2795,0.01270825
2796,-0.04560052
2797,-0.01731717
2798,-0.01697978
2799,-0.00850863
2800,0.04848524
2801,0.024693279
2802,0.03961823
2803,-0.05863736
2804,0.033607274
2805,-0.06104251
2806,-0.011104087
2807,-0.030396821
2808,-0.059054803
2809,-0.002641645
2810,0.042641945
2811,0.071071334
2812,0.004546024
2813,0.03150133
2814,-0.042909995
2815,0.0012168557
2816,0.032069545
2817,-0.051695094
2818,-0.03208855
2819,-0.034259945
2820,0.067845725
2821,0.037925467
2822,0.039771933
2823,-0.05470254
2824,0.056016337
2825,-0.039231196
2826,0.040948343
2827,0.07234
2828,-0.062167402
2829,0.0058354368
2830,-0.0033082548
2831,-0.014322935
2832,0.0128108775
2833,-0.006237644
2834,0.057617296
2835,0.044556603
2836,-0.029079897
2837,-0.04835748
2838,0.045874245
2839,0.0022450574
2840,0.026140116
2841,0.03428201
2842,0.05510991
2843,-0.064718865
2844,0.042522565
2845,0.029159626
2846,-0.012063693
2847,-0.04900628
2848,0.029590053
2849,0.018012498
2850,-0.043543752
2851,-0.015321203
2852,-0.020173598
2853,-0.041140795
2854,-0.051130254
2855,-0.032644063
2856,0.0032753495
2857,0.055732664
2858,-0.024258979
2859,0.065024264
2860,-0.038980708
2861,-0.0019671791
2862,-0.023351766
2863,0.01593594
2864,0.04605019
2865,-0.032837834
2866,0.029125264
2867,0.05759156
2868,-0.01497351
2869,0.026647745
2870,0.027788168
2871,0.006412832
2872,0.053614534
2873,-0.04334237
2874,0.052315515
2875,-0.02782104
2876,-0.0015297745
2877,0.019226588
2878,-0.040952504
2879,-0.034352716
2880,0.01816946
2881,0.028329482
2882,-0.0069909766
2883,-0.030791886
2884,-0.015857369
2885,-0.029430667
2886,0.02817709
2887,-0.024869535
2888,-0.025209902
2889,-0.017938342
2890,0.027712114
2891,-0.04636599
2892,0.034901313
2893,0.025524627
2894,-0.010774609
2895,-0.043332983
2896,0.028188113
2897,-0.044070255
2898,0.0012098071
2899,-0.016321018
2900,0.01797639
2901,-0.035914846
2902,0.026996657
2903,0.04800257
2904,-0.046170402
2905,-0.019327832
2906,-0.037942104
2907,0.039317034
2908,0.04668452
2909,-0.037006486
2910,-0.045581706
2911,0.0058491076
2912,0.013538281
2913,-0.04729839
2914,-0.043475866
2915,-0.02177652
2916,0.026334839
2917,0.037025865
2918,0.008950181
2919,0.064302675
2920,-0.0032214972
2921,-0.019417357
2922,0.048982147
2923,0.023066668
2924,-0.003956264
2925,-0.03988376
2926,0.047201645
2927,0.036228716
2928,0.028696379
2929,0.047292702
2930,-0.044598345
2931,-0.059920695
2932,0.010061015
2933,-0.045620393
2934,0.004790592
2935,0.04172429
2936,0.03764129
2937,0.03607128
2938,0.039674737
2939,-0.0030966285
2940,-0.038250424
2941,0.043250825
2942,-0.041847218
2943,-0.057332568
2944,-0.033815116
2945,0.009987889
2946,0.036068246
2947,0.028099542
2948,0.02555421
2949,-0.0510298
2950,-0.030734548
2951,0.0339208
2952,-0.05719113
2953,0.02082041
2954,-0.039950773
2955,0.033339605
2956,0.0065835663
2957,-0.015623206
2958,0.040848743
2959,-0.05186054
2960,0.020361733
2961,0.018254975
2962,-0.0461331
2963,0.023860587
2964,-0.007103013
2965,0.012089417
2966,-0.0558867
2967,-0.04006557
2968,0.038622677
2969,-0.019616485
2970,-0.028718341
2971,0.06654127
2972,0.0026489517
2973,-0.06271255
2974,0.04308115
2975,-0.07031289
2976,0.014058528
2977,0.04314387
2978,-0.024336895
2979,-0.01995786
2980,-0.0025455903
2981,0.021513518
2982,-0.04322105
2983,0.028771045
2984,0.01088356
2985,-0.041113704
2986,-0.0465954
2987,0.033265375
2988,-0.032549582
2989,0.050821304
2990,0.050742
2991,-0.0026827361
2992,-0.014379699
2993,-0.0034975216
2994,-0.0016925371
2995,-0.029789407
2996,-0.039169423
2997,0.01094083
2998,0.019304689
2999,-0.026228832
3000,0.06595326
3001,-0.005890891
3002,-0.0028817388
3003,0.027246604
3004,0.013989507
3005,0.027925786
3006,0.05343712
3007,0.054843713
3008,-0.06646945
3009,0.021576447
3010,-0.011803309
3011,-0.06486107
3012,-0.045194253
3013,-0.05977561
3014,-0.02351421
3015,-0.0032222725
3016,-0.02424886
3017,0.015646359
3018,-0.049498145
3019,-0.04243851
3020,0.02242516
3021,-0.041563626
3022,-0.008769537
3023,-0.052713405
3024,0.001665464
3025,-0.04429947
3026,0.047460567
3027,-0.044735014
3028,-0.026433673
3029,0.02657667
3030,0.025069177
3031,0.03661212
3032,0.0032665306
3033,-0.04738273
3034,-0.030912042
3035,0.047375455
3036,0.06443526
3037,-0.044356115
3038,-0.028277474
3039,0.021634182
3040,0.009391094
3041,0.036289416
3042,0.040941387
3043,0.018221635
3044,-0.02052079
3045,0.050606996
3046,-0.015267163
3047,-0.04932414
3048,-0.031992737
3049,-0.0566911
3050,0.03372381
3051,0.04399394
3052,0.029749287
3053,-0.015282673
3054,0.004193836
3055,-0.024274299
3056,0.009718616
3057,-0.065929666
3058,-0.04674996
3059,-0.026587568
3060,-0.0100186765
3061,-0.015152297
3062,0.0081674205
3063,0.0022340047
3064,0.04569177
3065,-0.040364936
3066,0.03488529
3067,-0.01932041
3068,-0.059950214
3069,-0.028544085
3070,-0.04497785
3071,0.034446705
3072,-0.0424381
3073,0.023962397
3074,-0.006845712
3075,-0.06073914
3076,-0.041134328
3077,0.0016102082
3078,-0.030209182
3079,-0.052625984
3080,-0.02354132
3081,-0.0068677873
3082,0.03754725
3083,-0.0320526
3084,-0.03636835
3085,-0.02147661
3086,0.026952649
3087,-0.005536851
3088,0.021996468
3089,0.049773898
3090,-0.011583758
3091,-0.029666075
3092,-0.06761339
3093,-0.039820828
3094,0.031766456
3095,-0.01619011
3096,-0.04020274
3097,0.0020663713
3098,-0.027468681
3099,-0.007610795
3100,0.0009764487
3101,0.043951906
3102,-0.05310128
3103,-0.010139399
3104,0.05284397
3105,-0.050090354
3106,0.029488187
3107,-0.010149728
3108,-0.019310948
3109,-0.0018168839
3110,-0.0070220768
3111,-0.03968012
3112,-0.00012666914
3113,-0.0032776068
3114,0.017088538
3115,0.049580377
3116,-0.022350525
3117,0.0020645035
3118,-0.01248752
3119,0.03085939
3120,0.06164267
3121,-0.053930003
3122,-0.054778684
3123,0.027010744
3124,-0.058558308
3125,-0.005793328
3126,-0.051100448
3127,-0.020666758
3128,0.0034527637
3129,-0.0040104394
3130,0.031487867
3131,-0.026146721
3132,0.0483702
3133,-0.027575575
3134,3.674788e-05
3135,0.02896543
3136,-0.06653999
3137,0.029690836
3138,-0.052040923
3139,0.0076583996
3140,-0.0357262
3141,0.025385853
3142,-0.030596014
3143,-0.051357232
3144,-0.053490993
3145,0.035433423
3146,-0.039827406
3147,0.013516593
3148,0.059379544
3149,-0.02980063
3150,-0.0024460398
3151,-0.06815636
3152,0.047243427
3153,-0.012209779
3154,0.0435125
3155,0.019667756
3156,-0.024917992
3157,-0.0034806312
3158,-0.05190923
3159,0.0077787763
3160,-0.024921486
3161,-0.048451878
3162,0.026427872
3163,0.008817328
3164,-0.022667646
3165,0.020612482
3166,0.026238315
3167,-0.057098083
3168,0.02554721
3169,-0.039526697
3170,0.018223722
3171,-0.029382298
3172,-0.033259057
3173,0.034911603
3174,-0.062275294
3175,-0.015358083
3176,-0.053294703
3177,0.009087843
3178,0.03384069
3179,-0.01194607
3180,-0.01604448
3181,-0.016430376
3182,0.040060975
3183,-0.04978438
3184,-0.06696092
3185,0.056751773
3186,-0.008950023
3187,-0.030227123
3188,0.03729905
3189,-0.0011316021
3190,-0.059862446
3191,0.02648862
3192,-0.0033661951
3193,0.01646167
3194,0.020205969
3195,0.064848445
3196,-0.0055933106
3197,-0.014752876
3198,-0.022198776
3199,-0.06301195
3200,-0.04488751
3201,-0.04943665
3202,-0.04227907
3203,0.007678283
3204,-0.03777922
3205,-0.004698057
3206,0.014048079
3207,-0.0026965083
3208,0.030323828
3209,-0.043024193
3210,0.033969223
3211,0.02784009
3212,-0.048163187
3213,0.016421914
3214,0.055191368
3215,0.046143707
3216,-0.049622312
3217,0.037063405
3218,-0.045141533
3219,0.05160525
3220,0.059168056
3221,-0.018603493
3222,-0.00921715
3223,-0.0673397
3224,-0.030271282
3225,-0.0075188754
3226,0.028334556
3227,-0.052243713
3228,0.043167423
3229,0.05120343
3230,-0.021759028
3231,0.0068578403
3232,-0.00025582948
3233,0.040035784
3234,0.019415423
3235,-0.057583302
3236,-0.053962737
3237,-0.04663088
3238,0.047970314
3239,0.03157552
3240,-0.063584365
3241,-0.031945806
3242,0.013355108
3243,-8.3864565e-05
3244,-0.05784047
3245,-0.04663185
3246,-0.05714298
3247,-0.0043945457
3248,0.028237917
3249,0.03783182
3250,0.051933482
3251,-0.0066458993
3252,0.027534366
3253,0.023994837
3254,-0.0026172781
3255,-0.0010149705
3256,0.044067264
3257,0.04239511
3258,0.02455713
3259,-0.023769494
3260,-0.056375545
3261,0.04130198
3262,-0.018425932
3263,-0.056716274
3264,0.013469623
3265,0.039794426
3266,-0.022684598
3267,-0.048321288
3268,-0.0080310255
3269,0.048709113
3270,0.02534675
3271,0.0021316805
3272,0.03250516
3273,0.050389837
3274,-0.037698675
3275,0.008623619
3276,-0.026753476
3277,-0.06656842
3278,0.02544869
3279,0.06114155
3280,0.026519423
3281,0.04212844
3282,0.016091557
3283,0.043266892
3284,0.051436137
3285,-0.057977293
3286,-0.024318414
3287,0.0046481765
3288,0.014711853
3289,-0.04272251
3290,-0.040617384
3291,-0.0020127827
3292,0.0528791
3293,0.065428905
3294,0.024969675
3295,0.04428549
3296,-0.043849323
3297,-0.0031835225
3298,-0.0055290572
3299,-0.04316145
3300,-0.034041665
3301,-0.056150533
3302,-0.013052345
3303,-0.023429383
3304,0.042383354
3305,-0.028296547
3306,-0.059140738
3307,-0.021331035
3308,0.039255343
3309,-0.0348471
3310,0.05114845
3311,-0.0068788384
3312,-0.022186384
3313,0.025686452
3314,-0.052788414
3315,-0.022396283
3316,0.042368446
3317,0.019038873
3318,0.047965027
3319,-0.033062644
3320,-0.047379516
3321,-0.0089816125
3322,-0.050484087
3323,-0.041286934
3324,0.00577961
3325,-0.0063691246
3326,-0.011041487
3327,0.008667626
3328,0.01004549
3329,-0.03826653
3330,-0.031174177
3331,-0.019586306
3332,0.020341916
3333,0.0070337546
3334,0.027995162
3335,-0.02592257
3336,-0.04763435
3337,0.03607389
3338,0.046388745
3339,0.0341449
3340,0.01846054
3341,-0.023768274
3342,0.028511345
3343,0.056493122
3344,0.05031297
3345,0.051799938
3346,0.024585618
3347,-0.030206745
3348,0.0032398202
3349,0.0064151566
3350,-0.057142
3351,0.041315727
3352,0.015926786
3353,0.04815027
3354,0.05743802
3355,0.04873675
3356,0.04191602
3357,0.013100049
3358,0.008376507
3359,-0.051501513
3360,-0.0039533046
3361,-0.019020297
3362,0.04896433
3363,0.01332859
3364,-0.03858851
3365,0.048430923
3366,0.0049124314
3367,-0.046848677
3368,-0.04717642
3369,-0.05479118
3370,-0.061237648
3371,0.043910723
3372,0.049654897
3373,0.054750007
3374,0.019506201
3375,-0.014736688
3376,-0.054214913
3377,-0.018898878
3378,-0.055855744
3379,-0.0374645
3380,-0.0028757765
3381,-0.03613946
3382,0.04282898
3383,-0.056648687
3384,-0.05752262
3385,0.014583587
3386,0.023432698
3387,0.014248326
3388,-0.059718132
3389,0.032727
3390,-0.052193325
3391,-0.0055885226
3392,-0.005976146
3393,0.053765483
3394,0.010905718
3395,0.01253844
3396,0.042681377
3397,-0.04269854
3398,0.017386425
3399,0.020627817
3400,0.023909573
3401,0.004419386
3402,-0.012047039
3403,0.046362367
3404,-0.060604777
3405,0.034496173
3406,0.014148148
3407,-0.06170399
3408,-0.05369767
3409,-0.04341999
3410,0.046034563
3411,-0.037394382
3412,0.018419163
3413,0.046793595
3414,0.046705645
3415,-0.02415623
3416,0.04919403
3417,0.038775828
3418,0.022697015
3419,-0.021540962
3420,0.040098563
3421,-0.032334328
3422,0.0075927167
3423,-0.030088274
3424,-0.026916284
3425,-0.011503109
3426,0.046803318
3427,-0.0056181
3428,0.061979815
3429,0.02618883
3430,-0.027725698
3431,0.053222656
3432,-0.0048252107
3433,-0.021478903
3434,-0.025152419
3435,-0.019707704
3436,0.012302165
3437,-0.021179995
3438,-0.017366301
3439,-0.04219505
3440,0.048192672
3441,0.010644239
3442,-0.04705187
3443,0.055460606
3444,0.025165595
3445,0.056539237
3446,0.013340526
3447,-0.043526802
3448,0.0295719
3449,0.040563405
3450,-0.05915907
3451,-0.02551925
3452,0.037880298
3453,0.04760764
3454,0.035204094
3455,0.039554603
3456,0.06068679
3457,-0.033951778
3458,-0.05336184
3459,-0.04399042
3460,-0.038001493
3461,-0.024456562
3462,0.047776826
3463,-0.012612772
3464,0.060924515
3465,0.02974153
3466,-0.053903922
3467,-0.042787224
3468,-0.0074546156
3469,0.036078162
3470,-0.009943662
3471,-0.056451917
3472,0.020562584
3473,-0.018693622
3474,0.04383003
3475,0.020183746
3476,-0.043671492
3477,0.03531713
3478,-0.018670605
3479,0.019511467
3480,0.045725398
3481,0.059313532
3482,0.05251361
3483,0.023431702
3484,0.0015033835
3485,0.020907024
3486,-0.016159646
3487,0.020782107
3488,-0.04740202
3489,-0.02501179
3490,0.009115927
3491,-0.02575209
3492,-0.040050033
3493,0.018922646
3494,0.056852642
3495,-0.0022146262
3496,-0.05803518
3497,-0.023850918
3498,0.05144711
3499,0.02521258
3500,0.0025331096
3501,-0.055377737
3502,-0.03173622
3503,-0.0058645387
3504,0.018521506
3505,-0.023856884
3506,-0.0241587
3507,-0.023661206
3508,0.03277544
3509,-0.010779782
3510,-0.05534018
3511,-0.031315148
3512,0.034035522
3513,0.06300833
3514,0.029200628
3515,0.06379122
3516,-0.047087364
3517,-0.041740224
3518,-0.046755686
3519,-0.064640544
3520,-0.031986427
3521,0.038052328
3522,0.007904865
3523,0.036604453
3524,-0.0077742464
3525,-0.014402512
3526,0.00041640128
3527,0.057324987
3528,0.010224939
3529,-0.009243799
3530,-0.047765113
3531,-0.003314562
3532,-0.052829154
3533,0.066700734
3534,0.04637854
3535,-0.039963923
3536,-0.009953073
3537,-0.01664693
3538,-0.05040534
3539,0.041284103
3540,0.015394213
3541,-0.031480923
3542,0.049068876
3543,-0.038863983
3544,0.0154313855
3545,-0.04346739
3546,0.045832817
3547,0.011736335
3548,0.020438714
3549,-0.005559075
3550,-0.0053957817
3551,0.053356837
3552,0.04443448
3553,0.0013344553
3554,0.014751123
3555,0.018852713
3556,0.033150334
3557,0.03296105
3558,-0.016415013
3559,-0.034758862
3560,-0.025702966
3561,0.01602458
3562,0.004281626
3563,0.023763299
3564,-0.051904257
3565,-0.03576258
3566,-0.059076652
3567,-0.018768022
3568,-0.029585157
3569,-0.018812895
3570,0.020179657
3571,-0.04733049
3572,0.03373038
3573,0.060634222
3574,-0.012692872
3575,0.018738812
3576,-0.0034039707
3577,0.06047239
3578,-0.034487244
3579,-0.033805598
3580,0.039078888
3581,-0.04526366
3582,-0.0665949
3583,-0.01868612
3584,-0.04866719
3585,0.051276777
3586,-0.002959404
3587,0.058985878
3588,-0.053624127
3589,0.015995229
3590,-0.021273814
3591,0.060557023
3592,-0.061412405
3593,0.025170626
3594,-0.00974555
3595,0.0024832084
3596,0.043788068
3597,0.051386744
3598,-0.01080619
3599,0.038607832
3600,-0.004713721
3601,0.03074834
3602,0.03567486
3603,-0.02530002
3604,-0.0064294897
3605,-0.014830605
3606,0.002039825
3607,-0.0370962
3608,-0.024004426
3609,0.03588803
3610,-0.002956136
3611,0.0005413682
3612,0.013368413
3613,-0.06324503
3614,-0.007271275
3615,-0.040241305
3616,0.00010033334
3617,-0.037581462
3618,-0.017535122
3619,0.055778608
3620,0.027234254
3621,0.05469271
3622,-0.05764217
3623,-0.04916638
3624,-0.022882307
3625,0.05094323
3626,-0.027636167
3627,0.017459044
3628,0.024128433
3629,-0.02161632
3630,-0.025987767
3631,-0.009832926
3632,-0.063184485
3633,-0.027603298
3634,0.029515887
3635,0.04613245
3636,0.011916235
3637,0.0320111
3638,-0.043847658
3639,-0.062420465
3640,0.02005114
3641,0.03600797
3642,-0.028047202
3643,0.027691955
3644,0.016664827
3645,-0.050284095
3646,0.056795985
3647,0.052951932
3648,0.08065844
3649,0.01740984
3650,0.052146625
3651,0.06571845
3652,-0.011368266
3653,-0.051342726
3654,-0.04638696
3655,0.04907755
3656,-0.0012865284
3657,-0.03663919
3658,0.045306254
3659,0.04428609
3660,0.012682362
3661,-0.03353658
3662,0.040421654
3663,-0.05233
3664,0.026048549
3665,0.008346531
3666,-0.03711337
3667,0.04961818
3668,0.03694396
3669,-0.044851836
3670,0.054387294
3671,0.026344132
3672,-0.049666714
3673,-0.054118793
3674,0.021187117
3675,-0.019902138
3676,-0.009105671
3677,0.01805226
3678,0.022714766
3679,0.03047696
3680,-0.008435746
3681,-0.016265618
3682,0.04356531
3683,0.00036276312
3684,-0.05010327
3685,0.05878689
3686,-0.0528518
3687,0.05371032
3688,0.016228136
3689,-0.031573385
3690,-0.025451597
3691,0.0008711107
3692,-0.035226684
3693,-0.033307698
3694,-0.015190545
3695,-0.009474504
3696,-0.036004584
3697,-0.015648296
3698,-0.040138338
3699,0.047368594
3700,0.0028755232
3701,0.0075706565
3702,0.022157
3703,-0.059232388
3704,0.02000027
3705,0.057587776
3706,0.058784254
3707,-0.03884632
3708,0.032191686
3709,-0.05828781
3710,0.023598703
3711,0.04920026
3712,-0.026627043
3713,0.028063197
3714,0.068197206
3715,0.039197013
3716,0.033852372
3717,0.016887525
3718,0.014298301
3719,0.042820275
3720,0.021100001
3721,-0.059688076
3722,-0.04638722
3723,0.06228646
3724,-0.042738523
3725,-0.0021112338
3726,-0.040907472
3727,0.06105314
3728,0.01153973
3729,0.022446942
3730,-0.04202334
3731,-0.00759819
3732,0.009248327
3733,-0.0067370473
3734,0.04971672
3735,0.04194683
3736,-0.05947214
3737,0.0250111
3738,0.042381946
3739,-0.028921736
3740,0.001854677
3741,-0.043784227
3742,0.04887094
3743,0.025528854
3744,-0.0018641334
3745,-0.06074372
3746,-0.046211343
3747,-0.03110829
3748,0.056303315
3749,-0.061480824
3750,0.027843473
3751,0.03546667
3752,0.05575164
3753,0.040423356
3754,0.03519719
3755,-0.041327275
3756,0.028314454
3757,0.057240497
3758,0.041894104
3759,-0.008965918
3760,0.011595603
3761,-0.021931909
3762,-0.04823316
3763,0.012333544
3764,-0.044600498
3765,-0.0036348784
3766,-0.011094905
3767,0.009388458
3768,0.026723757
3769,-0.034515455
3770,-0.0028395895
3771,0.023998482
3772,0.052460954
3773,0.06337515
3774,0.035723586
3775,-0.03253138
3776,0.027076043
3777,-0.008618787
3778,0.0111993225
3779,-0.011047171
3780,0.0535148
3781,0.010631058
3782,-0.031193128
3783,-0.010485159
3784,-0.03999521
3785,0.056843165
3786,0.008329828
3787,0.0056322287
3788,-0.018080411
3789,-0.0007755736
3790,-0.0044206157
3791,-0.05794427
3792,0.045531668
3793,0.008387224
3794,0.02293944
3795,0.047281742
3796,0.03625709
3797,0.06536481
3798,-0.03535624
3799,-0.043224372
3800,-0.056530062
3801,-0.013515987
3802,0.039799992
3803,0.06547553
3804,0.018720625
3805,-0.006234077
3806,0.010431499
3807,0.04757595
3808,-0.0005466073
3809,0.055421494
3810,-0.0634495
3811,0.049062163
3812,0.013128679
3813,-0.06311193
3814,0.04568384
3815,0.008847045
3816,0.036907382
3817,-0.003013647
3818,0.017948342
3819,0.04996009
3820,0.029264601
3821,0.020738129
3822,0.0103900945
3823,0.031072617
3824,0.036027547
3825,-0.042429354
3826,0.004360545
3827,-0.012647915
3828,-0.007546006
3829,0.0073211384
3830,0.0030331637
3831,-0.011178882
3832,0.045473497
3833,0.011404541
3834,-0.050916493
3835,0.01911252
3836,0.058935463
3837,-0.056095976
3838,-0.038954496
3839,0.05874856
3840,0.028796626
3841,-0.052726462
3842,0.03773521
3843,-0.0057697208
3844,0.056148905
3845,0.065137655
3846,0.0054235407
3847,0.02153005
3848,-0.06405321
3849,0.025533937
3850,0.04464977
3851,-0.05050366
3852,-0.04598179
3853,0.02244637
3854,-0.016825702
3855,0.048846435
3856,-0.043820664
3857,-0.049583435
3858,0.014170715
3859,0.061678063
3860,-0.054309934
3861,0.008423871
3862,0.03572149
3863,0.018652165
3864,0.011369886
3865,-0.061575536
3866,-0.05353654
3867,-0.048754778
3868,-0.031540297
3869,-0.0420303
3870,0.012113952
3871,0.031357482
3872,-0.0549413
3873,-0.004363431
3874,-0.05923277
3875,0.01017578
3876,0.050287157
3877,0.03664858
3878,0.010093134
3879,0.021151511
3880,-0.025026692
3881,0.061217144
3882,0.03385808
3883,-0.026555166
3884,-0.0086104255
3885,-0.048464824
3886,0.034205306
3887,-0.0049248333
3888,-0.0004978302
3889,0.005079751
3890,-0.01893943
3891,0.025224734
3892,-0.026015375
3893,0.00039284915
3894,0.019051064
3895,0.00014421897
3896,-0.025145737
3897,-0.01878222
3898,-0.0044990983
3899,-0.05348339
3900,0.038535036
3901,0.021009633
3902,0.008570376
3903,0.023098154
3904,0.024007466
3905,0.039005965
3906,0.03354283
3907,0.060098156
3908,-0.044063814
3909,-0.0029280651
3910,0.022484012
3911,0.059505787
3912,-0.021443672
3913,-0.052439045
3914,0.0024457627
3915,-0.051069126
3916,0.056716472
3917,-0.05781876
3918,0.059183415
3919,-0.052689373
3920,-0.061155383
3921,0.016348198
3922,-0.04058369
3923,0.03159751
3924,0.022293853
3925,0.04234281
3926,-0.024850352
3927,-0.025933336
3928,0.010474743
3929,-0.028808821
3930,0.016258137
3931,0.048322264
3932,-0.06420492
3933,-0.009859009
3934,-0.03845558
3935,-0.055328235
3936,0.034103207
3937,0.01596175
3938,0.011011768
3939,0.008124807
3940,0.008988243
3941,-0.035114866
3942,-0.00435642
3943,-0.05676515
3944,-0.024213308
3945,0.064829394
3946,-0.046872437
3947,-0.06559801
3948,-0.027661635
3949,-0.030940516
3950,-0.02943834
3951,0.00074108917
3952,0.06528025
3953,0.055465013
3954,0.029131772
3955,-0.039608598
3956,-0.013530393
3957,-0.05794234
3958,0.020059923
3959,-0.016650133
3960,-0.023723437
3961,-0.025409315
3962,-0.054859143
3963,0.009948571
3964,-0.025753194
3965,0.05200804
3966,-0.011461352
3967,0.05330496
3968,0.00012114403
3969,0.03909285
3970,0.044328947
3971,-0.047188908
3972,0.0061534704
3973,0.03614562
3974,-0.007695305
3975,0.01305199
3976,-0.028191837
3977,0.03701018
3978,-0.052860223
3979,-0.023531498
3980,-0.034431037
3981,-0.06019529
3982,0.046486493
3983,0.032873295
3984,-0.025214
3985,-0.0043731905
3986,0.001269037
3987,-0.0022795573
3988,0.030493444
3989,-0.017912503
3990,-0.03883982
3991,0.0464253
3992,-0.010450274
3993,0.046057
3994,0.02113164
3995,-0.027322032
3996,0.055772588
3997,-0.055918753
3998,0.027988497
3999,0.052533116
4000,0.051102474
4001,0.05830202
4002,-0.054690607
4003,0.043907717
4004,-0.007795132
4005,0.036961813
4006,-0.029337198
4007,0.03888761
4008,-0.039885648
4009,0.00507218
4010,0.050568562
4011,-0.022903033
4012,-0.05576526
4013,0.037928555
4014,0.0102845915
4015,0.03137552
4016,-0.028434286
4017,-0.050256636
4018,-0.003903123
4019,0.01990496
4020,-0.017006615
4021,0.06304652
4022,-0.011863518
4023,-0.05456162
4024,-0.033726618
4025,-0.017903399
4026,0.045575116
4027,-0.009884509
4028,-0.047455262
4029,0.046118595
4030,-0.019575454
4031,-0.049833637
4032,-0.018733913
4033,0.02783104
4034,-0.056132365
4035,-0.03408645
4036,0.014656091
4037,-0.03943499
4038,-0.033526797
4039,-0.040693656
4040,0.036997925
4041,-0.06171493
4042,-0.02096227
4043,0.046938293
4044,-0.013234452
4045,-0.053393953
4046,0.0012541167
4047,0.046913773
4048,-0.0458512
4049,-0.051030863
4050,-0.041772563
4051,0.042200096
4052,-0.01527306
4053,-0.015616065
4054,0.0115984855
4055,-0.031107008
4056,-0.058211695
4057,-0.015724413
4058,0.063544236
4059,0.03184068
4060,-0.0025990785
4061,0.028494038
4062,-0.0008031735
4063,0.038592476
4064,0.010863256
4065,-0.00826142
4066,-0.06328433
4067,0.005763427
4068,0.041669995
4069,-0.034961306
4070,0.03938396
4071,-0.035918392
4072,-0.0017988937
4073,0.0032751744
4074,-0.054751735
4075,-0.057154357
4076,0.017109053
4077,-0.057233658
4078,0.063134864
4079,0.038216963
4080,-0.016759872
4081,-0.010659944
4082,0.05843843
4083,0.017630534
4084,0.04533951
4085,-0.044969212
4086,-0.021214828
4087,-0.06277798
4088,0.009565182
4089,-0.05256015
4090,0.05100701
4091,0.04422871
4092,0.010871662
4093,0.029930972
4094,0.058280017
4095,-0.017713953
4096,-0.032229125
4097,-0.06749989
4098,0.008251727
4099,0.06293383
4100,-0.028451934
4101,-0.050338138
4102,-0.03643677
4103,-0.0008601685
4104,0.039449766
4105,-0.06957944
4106,-0.0035691392
4107,0.026161846
4108,0.031499714
4109,-0.06384831
4110,0.013722361
4111,-0.034122963
4112,-0.010166553
4113,-0.059371803
4114,0.027171854
4115,0.018850371
4116,-0.026842168
4117,0.037492044
4118,-0.019591907
4119,0.045950655
4120,0.03108392
4121,0.0369683
4122,0.037864264
4123,-0.02230328
4124,-0.03215007
4125,-0.027302353
4126,-0.016523367
4127,0.060607024
4128,0.00035786774
4129,-0.042969894
4130,-0.054966845
4131,-0.03443937
4132,-0.0021942698
4133,-0.025244007
4134,0.0538177
4135,-0.040996965
4136,-0.029234612
4137,-0.008988144
4138,-0.06023334
4139,-0.021644557
4140,0.03941619
4141,0.01949324
4142,0.03152925
4143,0.021812348
4144,0.052183617
4145,0.055988897
4146,0.04821281
4147,-0.012578604
4148,-0.053141274
4149,0.010889141
4150,-0.045539726
4151,-0.050281126
4152,-0.05462839
4153,0.054337345
4154,-0.00026433286
4155,0.00022909624
4156,-0.033519268
4157,0.03038173
4158,0.053571
4159,0.022661047
4160,-0.0525693
4161,0.04750955
4162,-0.044244334
4163,0.07734461
4164,-0.0025136727
4165,0.041906644
4166,-0.0073138895
4167,-0.022532174
4168,-0.046564758
4169,0.011142073
4170,-0.016149439
4171,-0.041567657
4172,0.011933433
4173,-0.028352166
4174,-0.001995433
4175,-0.0072995573
4176,-0.011948476
4177,-0.026877075
4178,0.04632777
4179,-0.031486996
4180,-0.021329893
4181,-0.028258806
4182,0.05003829
4183,0.02110798
4184,0.020195672
4185,-0.035574935
4186,0.027216312
4187,0.030127611
4188,0.028391426
4189,-0.021423832
4190,0.00781094
4191,0.016253443
4192,-0.0007258464
4193,-0.024005495
4194,-0.06080519
4195,0.009129901
4196,-0.0743851
4197,-0.02503503
4198,-0.036583696
4199,0.009803686
4200,-0.028252883
4201,-0.05474624
4202,-0.0036933837
4203,-0.061173446
4204,-0.002521826
4205,-0.056603603
4206,0.045715157
4207,-0.034193292
4208,0.029166996
4209,-0.053238843
4210,-0.00493909
4211,0.004135859
4212,-0.006063111
4213,0.023950286
4214,0.022038845
4215,-0.034037802
4216,0.023438554
4217,-0.04248118
4218,-0.042887982
4219,0.025106803
4220,-0.01836363
4221,0.006560616
4222,0.052092034
4223,0.06913387
4224,-0.011510627
4225,-0.003000121
4226,-0.04602032
4227,0.051254757
4228,0.017015846
4229,0.04548451
4230,-0.004495843
4231,-0.046962675
4232,-0.03269384
4233,0.036143858
4234,-0.05091009
4235,0.016239963
4236,-0.033943694
4237,0.035705123
4238,-0.02899212
4239,-0.048229635
4240,0.010155774
4241,-0.051811397
4242,0.0011187077
4243,-0.026010457
4244,0.0538245
4245,0.05815665
4246,-0.03396214
4247,0.008606216
4248,-0.052369867
4249,0.052816715
4250,0.054044213
4251,-0.014675991
4252,-0.011121949
4253,-0.030590257
4254,-0.06945108
4255,0.013975981
4256,0.024784429
4257,0.04423706
4258,-0.03989667
4259,0.07207077
4260,0.06655112
4261,0.014392382
4262,-0.05488297
4263,0.054865994
4264,0.029630141
4265,0.030500697
4266,-0.007438168
4267,0.0060474467
4268,0.02242396
4269,0.033888094
4270,0.008271274
4271,0.044395264
4272,0.00300456
4273,0.017037097
4274,-0.030955708
4275,-0.011270994
4276,0.013372989
4277,0.020369325
4278,0.018066011
4279,0.017167417
4280,0.035516895
4281,-0.049654312
4282,0.044962678
4283,0.043601517
4284,-0.044947833
4285,-0.041860364
4286,-0.038552262
4287,0.0055674366
4288,-0.019344624
4289,0.03039477
4290,0.016663905
4291,0.018055188
4292,0.036855444
4293,-0.02659836
4294,0.017211778
4295,-0.047585685
4296,-0.03710835
4297,-0.028553192
4298,-0.051874705
4299,-0.050863933
4300,0.044700634
4301,-0.03864705
4302,-0.03590451
4303,0.046875764
4304,-0.0599735
4305,0.04578846
4306,0.05563546
4307,-0.021788083
4308,-0.033728946
4309,0.021618145
4310,-0.014153866
4311,-0.056691114
4312,-0.059012275
4313,0.0029709986
4314,-0.055223927
4315,-0.046075094
4316,0.032933004
4317,0.048122574
4318,-0.018923115
4319,0.044411726
4320,-0.021989001
4321,-0.051442128
4322,-0.044385552
4323,0.0023469697
4324,0.028707696
4325,-0.052594744
4326,0.016483195
4327,-0.025214246
4328,-0.011249021
4329,0.02433822
4330,-0.02228162
4331,-0.028780162
4332,0.0039382502
4333,-0.032115843
4334,-0.028360568
4335,0.011190925
4336,0.038405865
4337,-0.027520826
4338,0.050467096
4339,-0.024494454
4340,-0.021314656
4341,0.065248966
4342,-0.0013813308
4343,-0.058967173
4344,-0.020209564
4345,0.026575765
4346,0.042017862
4347,-0.041408915
4348,-0.016513918
4349,0.0046589053
4350,0.018370422
4351,-0.038274407
4352,0.051158775
4353,0.05402144
4354,0.035042852
4355,0.038850114
4356,0.03167647
4357,-0.0505023
4358,0.06777547
4359,0.049320385
4360,0.03037344
4361,-0.038856372
4362,-0.009508321
4363,-0.026513997
4364,-0.02643232
4365,0.040446132
4366,-0.0270644
4367,0.00983649
4368,-0.040108263
4369,0.067061484
4370,-0.027119411
4371,0.0034160432
4372,0.017060064
4373,0.058970064
4374,0.040841777
4375,0.042462487
4376,-0.035618667
4377,0.0053332597
4378,-0.051494636
4379,0.012898185
4380,0.060153384
4381,-0.041709986
4382,0.008786062
4383,0.046583664
4384,-0.007784733
4385,-0.040438853
4386,-0.021009907
4387,0.04807441
4388,-0.06053914
4389,-0.030942403
4390,-0.02380067
4391,-0.01565365
4392,-0.038755473
4393,0.05044772
4394,0.034653816
4395,0.057721194
4396,0.05451983
4397,-0.02858262
4398,0.008035467
4399,0.011869009
4400,0.013163697
4401,0.029786827
4402,0.05196529
4403,0.0024330325
4404,-0.05924946
4405,-0.0006516778
4406,0.017098084
4407,-0.01087021
4408,0.045696076
4409,0.04551746
4410,0.003620584
4411,0.053082872
4412,-0.029568395
4413,-0.010051417
4414,-0.04456735
4415,0.042399906
4416,-0.021966089
4417,-0.029239481
4418,0.050815355
4419,0.034943562
4420,-0.060802914
4421,-0.0048589334
4422,0.0041207215
4423,-0.011071071
4424,0.05566761
4425,0.0007939266
4426,0.04208826
4427,0.0611243
4428,0.0333365
4429,0.022755338
4430,-0.047987446
4431,0.061502997
4432,0.02833563
4433,0.022073466
4434,0.012345346
4435,0.035908796
4436,0.041991416
4437,-0.03186424
4438,-0.027511628
4439,-0.044329386
4440,0.038225118
4441,0.012485523
4442,0.02570702
4443,-0.037735965
4444,-0.042437736
4445,-0.029635023
4446,0.005626866
4447,0.044617333
4448,0.009491582
4449,-0.03784381
4450,-0.033588294
4451,0.001020711
4452,-0.0475977
4453,-0.037809942
4454,0.012953759
4455,0.042117193
4456,-0.02757766
4457,-0.02091212
4458,-0.028898146
4459,0.059716962
4460,-0.0015192773
4461,0.017323883
4462,-0.00023872133
4463,0.06537308
4464,0.047328986
4465,-0.024386292
4466,-0.05300439
4467,0.06401103
4468,0.045416918
4469,-0.021741059
4470,0.05372348
4471,0.032853186
4472,-0.049076885
4473,0.06588726
4474,0.05314454
4475,-0.015252595
4476,0.052388012
4477,0.037971377
4478,-0.0525949
4479,0.009178278
4480,-0.024973534
4481,-0.013524084
4482,0.05249167
4483,0.022032207
4484,-0.008411118
4485,0.038514536
4486,0.02495494
4487,-0.034234945
4488,-0.03463881
4489,-0.04742841
4490,-0.0027284455
4491,0.031197406
4492,0.009376211
4493,-0.033805516
4494,0.014072598
4495,0.049655683
4496,-0.03612592
4497,0.031866822
4498,0.0027736374
4499,0.021715587
4500,0.01595422
4501,0.028863704
4502,-0.034813575
4503,-0.05704182
4504,0.051734123
4505,0.027479677
4506,-0.0024333263
4507,0.058423996
4508,0.045442246
4509,0.022816662
4510,-0.021213474
4511,-0.050710335
4512,-0.015332319
4513,-0.015913825
4514,-0.05464089
4515,0.058905013
4516,0.037420023
4517,-0.056162864
4518,-0.055077918
4519,-0.044384193
4520,-0.0079335775
4521,0.01751853
4522,-0.015307514
4523,0.029399363
4524,0.01727866
4525,-0.0032094459
4526,0.020007448
4527,0.0319869
4528,-0.015311752
4529,-0.022617951
4530,-0.021655178
4531,0.005902972
4532,-0.03942501
4533,-0.0089012245
4534,0.05195046
4535,0.048569966
4536,-0.057288375
4537,0.061775267
4538,-0.0055439887
4539,0.0033565687
4540,0.03865212
4541,-0.03442538
4542,-0.04753397
4543,-0.013384914
4544,-0.0047829826
4545,0.037770282
4546,0.03629405
4547,0.04480631
4548,0.060092915
4549,-0.06347156
4550,-0.0029212078
4551,-0.031741314
4552,0.014729348
4553,-0.061243508
4554,0.003789535
4555,-0.004469425
4556,-0.022235632
4557,-0.05715482
4558,-0.035138752
4559,0.046418328
4560,-0.025733916
4561,0.012377575
4562,0.0057569435
4563,0.02527963
4564,-0.013804911
4565,0.018302102
4566,-0.025059445
4567,0.024998816
4568,-0.011902067
4569,-0.009588105
4570,-0.019051611
4571,0.053012017
4572,0.0031807143
4573,0.03364512
4574,0.044060376
4575,0.039846312
4576,0.036230307
4577,0.056309998
4578,0.03148701
4579,-0.007728635
4580,0.05574302
4581,-0.001394685
4582,0.048468255
4583,0.0011280244
4584,-0.028117342
4585,-0.031407576
4586,-0.016097767
4587,-0.02000307
4588,-0.035738718
4589,0.02802249
4590,0.04411724
4591,0.05514398
4592,-0.04130028
4593,0.003119476
4594,0.0615715
4595,0.02440349
4596,0.025128946
4597,0.021363704
4598,-0.04185335
4599,0.019168891
4600,-0.0107410345
4601,0.066044234
4602,0.032723468
4603,0.033856183
4604,0.054917164
4605,0.012097619
4606,-0.0107062785
4607,-0.020622086
4608,0.036829967
4609,-0.019803261
4610,-0.006116507
4611,-0.033727303
4612,-0.031137943
4613,0.036807682
4614,0.043306455
4615,0.03229172
4616,-0.045086052
4617,0.0600593
4618,0.04717805
4619,-0.05040939
4620,0.01732477
4621,-0.029117152
4622,0.033151012
4623,0.0062065967
4624,-0.054000467
4625,0.046048965
4626,0.05686593
4627,0.0011954817
4628,-0.03648722
4629,-0.060934078
4630,0.034165956
4631,0.054400615
4632,-0.024711993
4633,0.0280967
4634,0.020509874
4635,0.0018021166
4636,-0.05796174
4637,-0.010861317
4638,0.030249113
4639,0.010623031
4640,-0.055865586
4641,-0.045533847
4642,-0.0071914713
4643,-0.028260933
4644,-0.019735469
4645,0.045191865
4646,-0.0054377723
4647,-0.030327631
4648,-0.04874242
4649,0.066881694
4650,-0.040778328
4651,0.0007514906
4652,-0.030196605
4653,-0.044132307
4654,-0.035237484
4655,-0.022852339
4656,-0.058394995
4657,-0.04038238
4658,0.015297638
4659,0.057192825
4660,-0.021188239
4661,-0.01679269
4662,0.039218653
4663,-0.057679642
4664,0.051667087
4665,-0.054960933
4666,-0.063396454
4667,-0.036579255
4668,0.0072477595
4669,-0.062388886
4670,-0.04612552
4671,-0.031540066
4672,-0.016164916
4673,0.05353735
4674,0.017397916
4675,0.057092253
4676,-0.033905737
4677,-0.035216633
4678,0.06523252
4679,0.057599727
4680,-0.05800645
4681,0.05907507
4682,-0.021861987
4683,0.022388622
4684,0.05334655
4685,-0.017051766
4686,0.049129374
4687,-0.02101465
4688,0.06408516
4689,-0.0058214874
4690,-0.033702765
4691,-0.008543839
4692,0.0010047492
4693,0.063063376
4694,-0.012882262
4695,0.012409769
4696,0.046552986
4697,-0.03981138
4698,-0.03507821
4699,0.04002448
4700,0.00026970002
4701,-0.04673892
4702,0.068954125
4703,-0.035600234
4704,-0.00674388
4705,0.017551506
4706,0.009217016
4707,-0.027430113
4708,-0.020613885
4709,0.01645019
4710,0.019256765
4711,-0.006986676
4712,0.047839038
4713,0.024414668
4714,-0.042367868
4715,-0.066665344
4716,0.045743022
4717,0.03557457
4718,-0.051431004
4719,0.050181936
4720,0.037182637
4721,-0.008035585
4722,0.018332403
4723,-0.023489509
4724,-0.06255774
4725,0.017625486
4726,0.04525731
4727,-0.045010094
4728,-0.035235114
4729,0.05575342
4730,-0.040197954
4731,-0.0047113015
4732,-0.02381801
4733,0.032920692
4734,0.00046927988
4735,-0.030751828
4736,0.045043517
4737,0.003009033
4738,-0.0056546615
4739,-0.014114676
4740,-0.035835728
4741,0.032928266
4742,0.04990964
4743,0.009047628
4744,-0.020707529
4745,-0.016031595
4746,0.0039843237
4747,-0.044219233
4748,0.014635588
4749,0.030797103
4750,0.0023472798
4751,0.055416808
4752,-0.04674186
4753,0.05728289
4754,0.02624248
4755,0.055350248
4756,0.04000729
4757,0.0030443445
4758,0.06369242
4759,0.068296015
4760,0.0022345022
4761,-0.039594255
4762,-0.039851386
4763,0.039021205
4764,-0.0151747605
4765,-0.042777352
4766,0.003670769
4767,0.068731785
4768,0.054698907
4769,-0.05457911
4770,0.005788805
4771,-0.047670957
4772,0.031595703
4773,0.04394723
4774,0.04768512
4775,0.022727367
4776,0.06304096
4777,-0.008479941
4778,-0.025531426
4779,0.020588515
4780,0.008228441
4781,0.024418853
4782,0.011788964
4783,-0.041295573
4784,0.046925515
4785,0.023653384
4786,0.033973522
4787,0.015009077
4788,0.05703389
4789,0.0012369956
4790,0.0007523384
4791,0.019010618
4792,-0.05193983
4793,-0.044224452
4794,0.04197393
4795,0.039757136
4796,0.013566815
4797,-0.003198041
4798,0.05763887
4799,-0.011963186
4800,0.054837234
4801,0.05150515
4802,-0.0003274556
4803,-0.047244534
4804,0.0027916671
4805,-0.045247097
4806,-0.029833084
4807,-0.05038653
4808,0.013582341
4809,0.004266967
4810,-0.00050542044
4811,0.02142273
4812,0.04011888
4813,-0.02829672
4814,-0.049150087
4815,-0.024429731
4816,-0.024485134
4817,0.030667158
4818,0.058113657
4819,-0.04840404
4820,-0.013633078
4821,0.03369682
4822,0.043371644
4823,-0.004582848
4824,0.017911542
4825,-0.027269186
4826,0.009606891
4827,-0.050289582
4828,0.054563638
4829,-0.008541384
4830,0.033745915
4831,-0.06277623
4832,-0.04930114
4833,0.056730103
4834,0.048612423
4835,0.034923162
4836,-0.026087781
4837,-0.037833486
4838,-0.006289934
4839,-0.035817172
4840,-0.0114916405
4841,-0.020315766
4842,-0.06246749
4843,0.02024898
4844,0.039216947
4845,-0.030609062
4846,0.05478471
4847,0.057369716
4848,0.058037758
4849,0.03875147
4850,-0.0035177201
4851,-0.018032607
4852,0.0041380185
4853,-0.01127041
4854,0.047218747
4855,-0.03530199
4856,-0.046604678
4857,0.058225714
4858,-0.036510035
4859,-0.0049880114
4860,-0.0008538629
4861,0.0456869
4862,0.04620044
4863,-0.05369538
4864,0.021243481
4865,-0.034027316
4866,0.060425665
4867,0.0009012387
4868,-0.044100527
4869,0.055493858
4870,-0.03715515
4871,-0.052161038
4872,0.026818566
4873,0.020620959
4874,0.0028005473
4875,-0.019793972
4876,0.00488968
4877,0.051107746
4878,0.010721844
4879,-0.065109715
4880,0.016013803
4881,0.01599665
4882,-0.065599486
4883,0.028729135
4884,-0.06330255
4885,0.03184105
4886,-0.031514328
4887,0.011226729
4888,0.018550932
4889,-0.014444895
4890,0.022245837
4891,-0.035301648
4892,0.005627925
4893,0.002516496
4894,0.021443892
4895,-0.044428125
4896,-0.0022470655
4897,0.003207845
4898,0.0031131345
4899,0.023331324
4900,0.04077222
4901,0.022230266
4902,-0.031065948
4903,-0.016543811
4904,-0.01281628
4905,-0.013718824
4906,0.049733583
4907,0.056466084
4908,0.050659843
4909,0.010723021
4910,0.024161112
4911,-0.06023921
4912,-0.055820275
4913,-0.014067731
4914,0.028133972
4915,-0.017172623
4916,-0.010019416
4917,0.019820843
4918,0.057331473
4919,0.007439379
4920,0.028930511
4921,0.038073283
4922,-0.018137727
4923,-0.023754055
4924,-0.06123505
4925,-0.02251452
4926,-0.0014901352
4927,0.06368868
4928,-0.04466294
4929,0.020563746
4930,0.00344026
4931,-0.07004476
4932,-0.016260408
4933,0.03389789
4934,-0.061364274
4935,-0.05579348
4936,0.014744934
4937,-0.0001784265
4938,-0.046623174
4939,0.05415594
4940,0.048209444
4941,-0.0316538
4942,-0.007211462
4943,0.021977702
4944,-0.042860936
4945,-0.043967962
4946,-0.022664092
4947,-0.01363283
4948,-0.025411436
4949,-0.036939193
4950,-0.040282764
4951,0.030254906
4952,0.05263086
4953,-0.06183747
4954,0.009213956
4955,-0.051413283
4956,0.015140019
4957,0.04449005
4958,0.010110195
4959,0.029680066
4960,-0.037481934
4961,0.062039893
4962,0.0033900952
4963,0.015561162
4964,-0.002331815
4965,0.0173663
4966,-0.014613937
4967,0.04835234
4968,0.033157133
4969,0.039114878
4970,0.060834993
4971,0.00030150567
4972,0.055889077
4973,-0.02617568
4974,0.006555725
4975,0.033127546
4976,-0.020371467
4977,0.027422536
4978,0.035175387
4979,-0.026902437
4980,0.017252127
4981,0.06149212
4982,-0.055535857
4983,0.00026872626
4984,-0.05205184
4985,0.037170827
4986,0.038179956
4987,0.022519212
4988,-0.07134665
4989,0.0049481792
4990,0.03968405
4991,0.0042407443
4992,-0.05718046
4993,0.050121237
4994,-0.05734981
4995,0.041077733
4996,0.019683018
4997,-0.04611763
4998,0.049428955
4999,0.027251558
5000,-0.023548294
5001,-0.04315516
5002,-0.0053208517
5003,0.016471982
5004,0.008204148
5005,-0.045010224
5006,-0.03104469
5007,-0.044061914
5008,-0.013260268
5009,0.03204731
5010,0.010480716
5011,-0.014186382
5012,-0.06002421
5013,0.054407336
5014,0.043455917
5015,0.010758807
5016,-0.04223792
5017,0.060395516
5018,-0.055575576
5019,0.011453368
5020,-0.024294747
5021,-0.043636516
5022,0.035367068
5023,0.019208541
5024,-0.015219229
5025,-0.062229343
5026,0.022418419
5027,0.014074785
5028,-0.011860724
5029,0.036771446
5030,-0.03138282
5031,-0.040672485
5032,-0.009900801
5033,0.03642407
5034,0.00937478
5035,0.023406774
5036,0.042220313
5037,0.036008812
5038,0.046664067
5039,-0.02506694
5040,-0.037410405
5041,0.04630889
5042,0.0094692595
5043,-0.04458815
5044,-0.0021344738
5045,0.022838939
5046,0.054751974
5047,-0.028216124
5048,0.04132799
5049,-0.061603624
5050,-0.0018317878
5051,-0.059456564
5052,-0.003373169
5053,-0.04418804
5054,-0.031890705
5055,0.039959703
5056,0.025703972
5057,-0.018117584
5058,-0.021513134
5059,0.053663075
5060,0.053902447
5061,0.0016660767
5062,-0.03235317
5063,-0.021838795
5064,-0.02285802
5065,0.007554036
5066,-0.012515706
5067,-0.057469394
5068,0.012267115
5069,0.06000387
5070,-0.038057916
5071,0.0278876
5072,-0.05036741
5073,-0.0088441
5074,0.052490897
5075,-0.025043786
5076,-0.051771887
5077,0.0512508
5078,0.04557559
5079,-0.028629094
5080,-0.010066913
5081,0.018031491
5082,0.034890644
5083,-0.04937684
5084,0.032574788
5085,0.05111006
5086,0.022504183
5087,-0.056472525
5088,0.02434214
5089,-0.021449994
5090,-0.058967035
5091,0.0252862
5092,-0.03894686
5093,-0.053475413
5094,0.05749134
5095,-0.05422533
5096,-0.048400436
5097,-0.0319671
5098,-0.026995147
5099,0.03342945
5100,0.00068167516
5101,-0.047072943
5102,0.018509693
5103,0.015034625
5104,0.020543786
5105,-0.0007927415
5106,0.018592704
5107,0.037260063
5108,0.047796562
5109,0.010113971
5110,-0.021975925
5111,0.0019605183
5112,-0.03557316
5113,0.01717228
5114,-0.052379265
5115,-0.024059625
5116,-0.04849777
5117,-0.022962937
5118,0.035680477
5119,-0.01640253
5120,0.05330425
5121,-0.03474658
5122,0.04513088
5123,0.02799145
5124,0.041547727
5125,0.033988614
5126,0.039889146
5127,0.032508876
5128,-0.009576814
5129,0.027426615
5130,-0.06451714
5131,-0.003586237
5132,0.0208755
5133,0.031967953
5134,-0.01561738
5135,-0.04474089
5136,0.04858459
5137,0.0358299
5138,-0.029841205
5139,0.011513319
5140,-0.035121236
5141,-0.015201257
5142,-0.03738962
5143,-0.027893972
5144,-0.0003777613
5145,0.026589196
5146,0.00073485286
5147,0.013723269
5148,0.021397227
5149,0.05073131
5150,0.015498665
5151,-0.05932617
5152,0.03755792
5153,-0.009892924
5154,0.034415554
5155,0.039963525
5156,-0.0100114215
5157,0.03210037
5158,-0.033491258
5159,-0.04482693
5160,0.031625327
5161,0.017866192
5162,0.038261037
5163,0.027455295
5164,-0.008380425
5165,0.025258912
5166,0.028941093
5167,-0.008446521
5168,-0.021360273
5169,0.04113422
5170,0.00992199
5171,-0.063764445
5172,-0.039561193
5173,0.005697891
5174,0.037110046
5175,-0.057841223
5176,0.023861017
5177,-0.014548268
5178,0.05947152
5179,0.0063583157
5180,0.027564298
5181,-0.008654827
5182,0.031834435
5183,0.007296104
5184,-0.052798647
5185,0.016809208
5186,0.010295445
5187,-0.015981926
5188,-0.028250689
5189,0.0017698837
5190,-0.0093613155
5191,0.058513805
5192,-0.030315127
5193,-0.04207561
5194,-0.02926828
5195,0.019375311
5196,0.033155553
5197,-0.014231196
5198,0.015416203
5199,0.058838885
5200,0.0053329086
5201,-0.034772817
5202,-0.06449879
5203,0.04992668
5204,-0.031008277
5205,0.016460085
5206,-0.020953236
5207,0.0048728324
5208,0.025641458
5209,0.0009418592
5210,-0.0029102166
5211,0.025423259
5212,-0.02269716
5213,0.027803399
5214,0.05388551
5215,-0.05446846
5216,0.026631499
5217,0.04117337
5218,0.038030885
5219,-0.01619411
5220,0.07264214
5221,-0.06398936
5222,0.05317137
5223,-0.025999365
5224,-0.055731084
5225,0.008846499
5226,0.041504037
5227,0.0050516715
5228,0.0021172133
5229,-0.016206646
5230,-0.0073992107
5231,0.01614765
5232,-0.009409308
5233,-0.024620706
5234,-0.015812453
5235,0.024146179
