,0
0,0.06354206
1,0.03784406
2,-0.015865887
3,-0.038302533
4,0.04850503
5,-0.04427617
6,-0.039646454
7,-0.037131738
8,-0.014654635
9,0.03594487
10,0.059454188
11,0.004470406
12,0.05144782
13,-0.05337849
14,-0.004578252
15,-7.387649e-05
16,0.03777486
17,-0.030364066
18,-0.030682744
19,0.03714926
20,0.043154664
21,0.013650925
22,0.061066896
23,-0.057999205
24,0.012724556
25,0.036828462
26,0.034243956
27,-0.056885667
28,-0.065905504
29,0.043496255
30,0.018661786
31,0.04384218
32,-0.031520426
33,-0.05189133
34,0.03494843
35,-0.040081136
36,0.018376263
37,0.025249302
38,0.005056362
39,0.023599649
40,-0.0014114011
41,-0.012612405
42,0.030636828
43,0.061042283
44,0.007966416
45,-0.060728524
46,-0.002807509
47,-0.006158735
48,0.023281444
49,0.022256622
50,0.04710367
51,-0.05111146
52,-0.022817198
53,-0.044571415
54,0.03696415
55,0.057483386
56,0.044615783
57,0.025114628
58,0.06106979
59,-0.05316294
60,0.037919972
61,0.056038115
62,-0.012719263
63,0.02890955
64,-0.03379865
65,-0.04944565
66,-0.014877004
67,0.010096083
68,0.024202948
69,-0.027436867
70,0.029102027
71,0.061910357
72,-0.018488906
73,0.042030893
74,0.043873776
75,-0.013218864
76,-0.050558522
77,0.03284833
78,0.024096215
79,0.03939552
80,0.029434716
81,0.019807385
82,0.031020349
83,0.019083299
84,0.03532785
85,0.01650413
86,0.034230642
87,0.047309246
88,0.018648274
89,-0.040385935
90,0.009282571
91,0.020447463
92,-0.05350296
93,0.022691187
94,0.014075789
95,0.022061186
96,0.033116896
97,0.05580951
98,0.0109540075
99,0.011971092
100,-0.059712194
101,0.007235146
102,-0.025916312
103,0.04309019
104,-0.06257104
105,0.03131964
106,0.05859138
107,0.041182492
108,-0.038815178
109,-0.038153436
110,-0.051892687
111,-0.0022530132
112,-0.05930659
113,-0.048671927
114,-0.023131983
115,-0.06622665
116,0.05714521
117,0.06354532
118,0.03706592
119,-0.013736523
120,-0.018724483
121,0.06661099
122,0.033629455
123,0.049890358
124,0.05258216
125,-0.05821963
126,-0.0362996
127,0.045671158
128,-0.0028500946
129,0.059717096
130,0.029880386
131,0.014376195
132,0.064493604
133,-0.03700713
134,-0.016843483
135,-0.057617202
136,0.03242536
137,0.03372044
138,-0.05008063
139,0.02410964
140,0.057033777
141,-0.05506857
142,-0.040034987
143,-0.048196603
144,-0.015882485
145,-0.0023537567
146,0.06865644
147,-0.04421086
148,0.046766236
149,-0.017146304
150,0.050099537
151,0.011134791
152,0.006812844
153,0.00048034862
154,-0.033638787
155,0.01518115
156,0.04284013
157,-0.0064025978
158,0.009723944
159,-0.037723042
160,-0.06309191
161,0.048334632
162,0.045141745
163,-0.044024717
164,-0.012932136
165,-0.061886616
166,0.0043505304
167,0.05686219
168,0.008366536
169,0.010488035
170,0.009452827
171,-0.034282174
172,0.013027991
173,0.04485121
174,0.008649011
175,-0.016258607
176,-0.049782906
177,0.035662554
178,0.019740008
179,-0.057430536
180,-0.03622525
181,-0.052652355
182,-0.025440855
183,-0.016603343
184,0.037735216
185,0.028187836
186,-0.0322034
187,-0.007841358
188,0.06454243
189,-0.021578042
190,0.038588703
191,0.021823881
192,-0.0487669
193,0.061597046
194,-0.041165143
195,-0.004452274
196,0.044774413
197,0.032099344
198,-0.012665371
199,-0.008703694
200,-0.0028585184
201,-0.047653418
202,0.061780993
203,0.011338065
204,0.005371222
205,-0.033723615
206,0.01957812
207,-0.056895744
208,0.015153544
209,-0.046208676
210,-0.027511636
211,-0.029684981
212,0.006296747
213,0.029019404
214,0.041815262
215,0.012463494
216,0.047256786
217,-0.022989748
218,-0.020452358
219,-0.040019374
220,0.020810518
221,-0.046962216
222,-0.0405143
223,-0.042039312
224,-0.059044164
225,-0.023875656
226,0.034337346
227,0.024196038
228,0.040542673
229,-0.03827775
230,0.03017716
231,-0.06560826
232,-0.04735125
233,0.039694283
234,-0.00040606118
235,-0.026223874
236,0.003165309
237,-0.01934423
238,-0.02393082
239,0.034156747
240,-0.018487716
241,0.0054815444
242,0.046507318
243,-0.054728016
244,-0.04853554
245,0.058569085
246,0.04552916
247,-0.050500058
248,-0.031649902
249,-0.023799704
250,0.031866025
251,0.049446512
252,-0.060014874
253,-0.027835622
254,-0.014520996
255,-0.050068602
256,0.015992595
257,0.013000614
258,-0.024319436
259,0.062276028
260,0.025404518
261,0.0693022
262,-0.052266486
263,-0.015676005
264,0.03628748
265,0.013131597
266,0.049637627
267,-0.010601833
268,0.0069363806
269,-0.05233479
270,0.0017290472
271,-0.042673815
272,0.012385056
273,0.022898186
274,-0.007788545
275,0.020841148
276,0.024343194
277,0.0330071
278,0.040186483
279,0.019101275
280,-0.063152574
281,-0.010732186
282,0.011226508
283,-0.057065014
284,0.019471355
285,0.001424914
286,-0.022671677
287,-0.058759604
288,-0.04707701
289,-0.01951426
290,-0.033559106
291,-0.05297933
292,-0.044158194
293,0.031928726
294,-0.005095536
295,-0.032360204
296,0.015077615
297,-0.05913737
298,0.012090669
299,0.0025895387
300,0.017795961
301,-0.052054234
302,-0.053713392
303,-0.01171088
304,0.036369633
305,0.021429313
306,-0.009748421
307,0.039994948
308,0.010758453
309,-0.066808864
310,0.015930612
311,-0.0014647981
312,-0.03366691
313,0.022982078
314,-0.04661214
315,0.0032480683
316,-0.01680757
317,0.021591086
318,-0.048575234
319,0.050005935
320,0.03399529
321,0.010572863
322,0.008911839
323,-0.033230852
324,-0.035892446
325,0.012339467
326,-0.032097258
327,0.010665782
328,-0.060676165
329,0.01456384
330,-0.013847251
331,0.028855585
332,-0.058183357
333,-0.002936796
334,-0.03521844
335,0.06730898
336,-0.02639345
337,0.053754147
338,-0.045533054
339,0.05202451
340,-0.03987912
341,0.03336561
342,0.07273152
343,0.002169865
344,-0.05183543
345,0.056693546
346,0.029115671
347,-0.05946873
348,-0.051768452
349,0.0036579298
350,0.043340545
351,-0.035503823
352,0.043815218
353,-0.038894124
354,-0.03883178
355,0.026961993
356,0.018170452
357,-0.05176691
358,-0.028226184
359,0.05388299
360,-0.062890336
361,-0.033505674
362,0.016717572
363,-0.04149505
364,-0.045423906
365,-0.052342076
366,-0.058797274
367,-0.055966318
368,0.0260954
369,-0.052614212
370,0.047283597
371,0.044010874
372,0.027036427
373,0.042204592
374,0.053512778
375,-0.026284516
376,-0.038494635
377,0.010769597
378,-0.016338691
379,-0.019958448
380,-0.054746512
381,-0.032946568
382,0.00028188655
383,-0.035870675
384,-0.049517438
385,-0.058249027
386,0.0102098165
387,0.045262422
388,-0.050141685
389,0.019151088
390,0.009961569
391,-0.029317021
392,-0.0007474163
393,-0.055065654
394,0.025329618
395,-0.04328845
396,0.052272797
397,0.058562867
398,0.011418016
399,-0.0067259213
400,0.008220174
401,0.02641162
402,0.055947084
403,-0.02469223
404,0.052244186
405,0.0067523443
406,-0.030878255
407,-0.05267574
408,0.010003729
409,-0.04237884
410,0.05907845
411,0.04326372
412,-0.05961957
413,-0.0017367679
414,0.004669075
415,-0.031620476
416,0.042838335
417,-0.02456244
418,0.05472557
419,0.0006603147
420,0.046289917
421,0.005964358
422,0.01759973
423,0.008307859
424,0.011771477
425,0.004036697
426,0.051559694
427,0.045016244
428,0.024812968
429,-0.014214625
430,0.027841955
431,0.05373453
432,0.01997674
433,0.056928284
434,0.007991616
435,-0.014341413
436,0.026339317
437,-0.011521344
438,-0.011909915
439,0.054034743
440,-0.0005372474
441,-0.033042494
442,0.051820576
443,-0.0038479168
444,0.029357985
445,-0.053137798
446,-0.04743142
447,0.06190086
448,0.042408008
449,-0.0328515
450,0.0012333681
451,-0.033950556
452,-0.06123492
453,-0.04200088
454,0.053862583
455,0.056988638
456,-0.05765252
457,-0.030103547
458,0.026879756
459,-0.013128583
460,0.018241104
461,0.042448975
462,0.011576692
463,-0.05168883
464,-0.0069879987
465,-0.016513815
466,-0.025871463
467,0.045030095
468,0.072949946
469,-0.049787838
470,0.03656464
471,-0.047459293
472,0.042177673
473,-0.025419533
474,-0.0056649614
475,0.026400503
476,-0.03295031
477,0.023665316
478,-0.05399211
479,0.0022836518
480,0.048083577
481,0.016864251
482,-0.041828666
483,0.047511276
484,0.060591817
485,0.032074153
486,-0.010645479
487,-0.015107251
488,0.004283296
489,0.028000038
490,-0.01222001
491,0.008581487
492,0.016213894
493,-0.03383528
494,-0.04003369
495,-0.034977734
496,-0.03763088
497,0.030491393
498,-0.005817767
499,0.024555556
500,0.00010910981
501,0.061738886
502,0.015532273
503,-0.03719226
504,0.037581876
505,-0.048454694
506,0.018392397
507,-0.0036958612
508,-0.027854456
509,-0.043793555
510,0.03916133
511,-0.044877335
512,-0.020047532
513,-0.02361386
514,-0.026421111
515,0.03433054
516,0.0266247
517,-0.0012543756
518,0.017402232
519,-0.057056192
520,0.034095377
521,-0.037662927
522,-0.05456963
523,0.0060863546
524,0.05641847
525,-0.014651366
526,0.025375707
527,0.00093420903
528,0.027492743
529,-0.046331972
530,-0.045324247
531,0.061001897
532,0.023037972
533,0.025430672
534,-0.03444099
535,0.03475649
536,-0.004563835
537,0.0086421985
538,0.047947936
539,-0.04189132
540,-0.028967584
541,-0.059087455
542,-0.055600557
543,-0.016071387
544,-0.024122592
545,0.05472784
546,0.0074156625
547,-0.02055644
548,-0.055395294
549,-0.05615576
550,-0.032749463
551,0.026006293
552,-0.0314812
553,0.048851892
554,0.038557924
555,-0.0075419773
556,0.027955992
557,-0.07261532
558,0.04996029
559,-0.0005076783
560,-0.04136533
561,-0.02788109
562,-0.05856641
563,0.00047586687
564,0.053585425
565,0.013051459
566,-0.009528403
567,0.0029818118
568,-0.038622152
569,0.0029285718
570,-0.02747963
571,0.059006214
572,-0.035934497
573,-0.05629749
574,0.05083226
575,0.028419944
576,-0.019633636
577,0.059243385
578,0.013838219
579,-0.02442266
580,0.027003014
581,0.023650024
582,-0.0023533958
583,0.03846183
584,-0.02437051
585,0.038308036
586,-0.03906933
587,-0.034816977
588,0.020301135
589,0.048540954
590,0.002256347
591,-0.03662889
592,-0.03396916
593,-0.013451733
594,-0.0073053217
595,-0.053590775
596,-0.014920255
597,-0.045316346
598,0.005646335
599,0.036703315
600,-0.047195204
601,-0.043766785
602,-0.026206678
603,-0.0072237547
604,-0.0015955954
605,-0.012347626
606,0.006998519
607,-0.049563322
608,-0.033633117
609,-0.013288093
610,0.052419186
611,0.026368601
612,0.007395145
613,0.025966194
614,-0.010358308
615,0.0068343845
616,0.0075468
617,0.0422124
618,-0.011153076
619,0.048109107
620,-0.007732241
621,-0.05181418
622,0.04660913
623,0.011712645
624,0.0053204484
625,0.029496359
626,0.033258557
627,-0.0051329574
628,0.010506482
629,0.009207386
630,0.041136682
631,-0.013907022
632,0.04453635
633,-0.013324008
634,-0.06068434
635,-0.020608766
636,-0.06514541
637,-0.017611926
638,0.04073123
639,-0.0074381754
640,-0.06093909
641,-0.02707774
642,-0.008197891
643,-0.015612619
644,0.0032897382
645,-0.03872892
646,-0.015222322
647,0.04734466
648,-0.050332814
649,-0.041818123
650,-0.05377547
651,0.011482311
652,0.00072952564
653,0.026566323
654,-0.016402997
655,0.03354773
656,0.053055447
657,0.008289019
658,-0.056653004
659,0.028226195
660,0.019971576
661,0.06971324
662,0.03031793
663,-0.043938547
664,0.037833963
665,0.06790341
666,-0.03931433
667,0.028971722
668,0.02230378
669,-0.043497693
670,0.061130777
671,0.033465438
672,-0.04308064
673,0.016445583
674,0.019397683
675,-0.010212054
676,-0.018990697
677,0.044991083
678,-0.011205021
679,-0.023353126
680,-0.018921714
681,0.032794736
682,-0.05048637
683,-0.052773442
684,0.014029759
685,0.05641336
686,-0.010263942
687,0.07331254
688,0.030506069
689,0.041053362
690,-0.029538894
691,0.045470413
692,-0.01754712
693,-0.010955748
694,-0.04216426
695,0.043396167
696,-0.0578256
697,-0.063957386
698,0.05744927
699,0.045425672
700,0.048665408
701,0.052720428
702,-0.058290284
703,-0.046215557
704,0.04842804
705,-0.025134254
706,0.04070869
707,0.040246207
708,0.014475133
709,-0.026399037
710,-0.028448794
711,-0.04552826
712,-0.045033872
713,-0.01523622
714,-0.04061964
715,0.0404259
716,-0.050270703
717,0.04472961
718,-0.04076987
719,-0.013846236
720,0.025354188
721,-0.0308617
722,0.049916252
723,-0.0044366475
724,-0.03795241
725,-0.04789651
726,-0.074475855
727,-0.057859607
728,-0.017400328
729,-0.038492206
730,-0.036120124
731,0.05822044
732,-0.028518358
733,-0.021338636
734,0.027999004
735,0.019358508
736,0.021582037
737,0.035751697
738,-0.003682855
739,-0.015966587
740,0.04071066
741,0.024278542
742,0.01969553
743,0.01296125
744,-0.056013845
745,-0.010480752
746,0.03709006
747,-0.025041297
748,-0.027006326
749,0.0575358
750,0.0039877165
751,0.00039854334
752,0.02645738
753,-0.025131121
754,-0.049033448
755,0.002684445
756,0.0035561845
757,0.062489484
758,0.054814342
759,0.018251028
760,0.01377314
761,-0.0055156024
762,0.029585347
763,0.058057293
764,-0.03549482
765,-0.027680498
766,0.044351675
767,-0.06622812
768,0.016619967
769,0.047926214
770,-0.060979202
771,-0.039846446
772,-0.047174964
773,-0.035250284
774,-0.056656342
775,0.005668191
776,-0.02614544
777,-0.012348284
778,-0.018369712
779,0.035676807
780,-0.05420519
781,0.045522977
782,-0.05069193
783,0.00062372244
784,0.050415944
785,0.057634536
786,0.051943388
787,-0.015658857
788,0.06423085
789,0.026875721
790,0.028636409
791,0.052190617
792,-0.012510714
793,-0.0258676
794,-0.037008777
795,-0.03471063
796,0.0443889
797,0.045039333
798,0.03299477
799,-0.0011275528
800,-0.06290914
801,-0.04939996
802,0.03798647
803,-0.025172032
804,-0.0065174364
805,-0.017650845
806,-0.03329048
807,0.044662554
808,0.028538732
809,0.007116259
810,-0.015576261
811,0.0051487186
812,-0.05754231
813,-0.008255181
814,0.032550607
815,-0.02303631
816,-0.045648906
817,0.026882146
818,-0.00845299
819,-0.04809157
820,-0.03227416
821,0.03910851
822,0.045173615
823,-0.05112933
824,0.027766587
825,-0.04113634
826,-0.0005481799
827,0.04332256
828,-0.002234151
829,-0.060436208
830,-0.03334898
831,0.019325672
832,-0.016266398
833,0.06229938
834,0.047240544
835,0.00081769493
836,-0.044086672
837,0.005210407
838,0.066454835
839,-0.013675836
840,-0.004957786
841,-0.021666879
842,0.05461049
843,-0.04362485
844,-0.0011934981
845,0.030156897
846,0.032104675
847,0.016216515
848,-0.020715136
849,-0.020895513
850,-0.0022851164
851,0.02090392
852,0.060449168
853,0.013432369
854,0.0139567
855,0.017448623
856,0.009551111
857,-0.029718459
858,0.017853584
859,-0.024546878
860,0.039741226
861,-0.04921917
862,-0.053370025
863,-0.04458455
864,-0.029972525
865,-0.039414056
866,-0.009934617
867,0.026884329
868,-0.001436778
869,-0.016639484
870,0.032861106
871,0.018674329
872,0.021302696
873,0.04174137
874,-0.018995987
875,0.010644567
876,-0.054392427
877,0.052504312
878,-0.06355268
879,-0.017182365
880,-0.051204342
881,-0.0023886035
882,-0.045029044
883,0.024447696
884,0.0005666862
885,-0.0024188033
886,0.052632093
887,-0.041323133
888,-0.025998041
889,0.0217084
890,-0.047003224
891,0.04799303
892,-0.06297975
893,0.0051814583
894,0.04116225
895,-0.02960039
896,0.019006776
897,-0.031602744
898,-0.03550435
899,0.03446096
900,-0.057316076
901,-0.005423806
902,0.059013344
903,0.054476574
904,-0.010346917
905,0.053314824
906,0.0020417925
907,0.034779705
908,-0.051336247
909,0.02517883
910,-0.06862925
911,0.033611067
912,-0.031187184
913,0.0016230803
914,-0.003561086
915,0.0082784
916,-0.053227015
917,0.052149657
918,0.057078738
919,0.0088964235
920,-0.058240518
921,0.031472422
922,-0.05668392
923,0.041001398
924,0.03547116
925,-0.042996548
926,0.057106614
927,-0.03463949
928,0.026078556
929,0.06411245
930,0.060821537
931,0.047424506
932,-0.055131607
933,0.06147732
934,0.027548634
935,0.045253787
936,0.058026433
937,0.047655135
938,-0.031638496
939,0.004920806
940,0.013419193
941,0.046683308
942,-0.05573803
943,0.03338112
944,-0.0061800545
945,0.007827717
946,0.037647262
947,0.038972445
948,-0.049752075
949,0.0016262088
950,0.017519677
951,0.009093663
952,-0.07365936
953,-0.032547772
954,-0.017410245
955,-0.05722247
956,-0.008758957
957,0.019543013
958,-0.044862173
959,-0.032913655
960,-0.036310516
961,0.0046629887
962,0.013998862
963,-0.053770952
964,-0.023229863
965,-0.0039008083
966,0.03885646
967,-0.003333051
968,-0.005741237
969,0.04157975
970,-0.022486681
971,0.00032734056
972,-0.011717964
973,-0.05697507
974,-0.022031605
975,-0.045425072
976,-0.055965267
977,0.03704389
978,-0.013720032
979,-0.005946292
980,0.045410212
981,0.05101652
982,0.054581676
983,-0.011406678
984,0.047418904
985,0.052788157
986,0.025686866
987,-0.008806601
988,-0.064861976
989,-0.032243606
990,0.0647684
991,0.04236654
992,-0.0365871
993,0.05182312
994,0.040121876
995,0.06045264
996,-0.04058945
997,-0.05783367
998,-0.033472814
999,0.04076217
1000,0.0031172184
1001,0.027518878
1002,0.046745297
1003,-0.035707407
1004,-0.053821612
1005,0.04430889
1006,-0.008981703
1007,-0.034415774
1008,-0.057921726
1009,-0.060021065
1010,0.006792799
1011,-0.06656676
1012,-0.048970718
1013,-0.06352637
1014,0.05745372
1015,-0.045020413
1016,0.017403316
1017,-0.0072966935
1018,-0.021661831
1019,-0.058453675
1020,-0.022303501
1021,0.015542839
1022,-0.038307287
1023,-0.022614058
1024,-0.016593462
1025,0.022408625
1026,-0.022503668
1027,-0.0379814
1028,-0.047602464
1029,-0.028397255
1030,-0.02796943
1031,-0.011105385
1032,0.002782978
1033,-0.037810553
1034,-0.0014351786
1035,-0.06144576
1036,-0.049628254
1037,0.0052708234
1038,0.064720504
1039,0.02027387
1040,-0.069340594
1041,-0.026936753
1042,-0.068081155
1043,0.03317373
1044,-0.014277655
1045,-0.04319211
1046,0.04757613
1047,0.035628404
1048,-0.0066950377
1049,-0.064792864
1050,0.037614908
1051,-0.06648406
1052,0.03574449
1053,-0.0052160327
1054,-0.041125577
1055,-0.07186737
1056,-0.053834528
1057,0.022381032
1058,0.013128977
1059,-0.04054507
1060,0.027302934
1061,0.05433176
1062,-0.024442846
1063,0.04028042
1064,0.037535984
1065,0.013808893
1066,0.06759736
1067,-0.0011195882
1068,0.019793946
1069,-0.038406488
1070,0.06586587
1071,0.012812656
1072,-0.055399846
1073,0.027834956
1074,-0.06978067
1075,-0.06861445
1076,-0.009952101
1077,-0.05331108
1078,-0.048393723
1079,-0.050773766
1080,-0.025458513
1081,0.036804046
1082,-0.015079041
1083,0.0406144
1084,-0.032436915
1085,0.0606151
1086,0.018242564
1087,0.055226136
1088,-0.044791408
1089,-0.04320594
1090,0.04540286
1091,0.05303746
1092,0.048805133
1093,-0.0033742678
1094,-0.0107073365
1095,-0.04213007
1096,-0.040616013
1097,-0.072645985
1098,-0.03176371
1099,0.019866433
1100,0.007997001
1101,-0.0037371144
1102,-0.017872658
1103,-0.020444734
1104,-0.025866363
1105,0.041327562
1106,0.013790812
1107,0.06057686
1108,0.025320359
1109,-0.01570024
1110,0.032442983
1111,-0.011249968
1112,-0.023427827
1113,-0.033062708
1114,-0.007860214
1115,0.040468916
1116,-0.049308445
1117,0.00019457717
1118,0.03641653
1119,0.010416759
1120,0.008166363
1121,0.05861249
1122,0.02179239
1123,0.029475521
1124,-0.0362361
1125,-0.021969497
1126,-0.027963484
1127,0.06609882
1128,-0.0002580367
1129,-0.04930775
1130,0.05239695
1131,-0.022931937
1132,0.005825608
1133,0.021220002
1134,-0.06473517
1135,0.050498225
1136,0.051889803
1137,-0.03551408
1138,-0.0029232318
1139,0.015824715
1140,-0.05132187
1141,-0.029269945
1142,0.034981914
1143,-0.00029344298
1144,-0.021855686
1145,0.054495007
1146,0.042218458
1147,-0.003835413
1148,0.055155545
1149,-0.053674534
1150,0.036803424
1151,-0.038308583
1152,0.0094811125
1153,0.02247829
1154,-0.06378012
1155,-0.029501569
1156,0.0030816153
1157,-0.034226477
1158,-0.030725535
1159,0.017969215
1160,-0.039614443
1161,0.027895734
1162,-0.025066702
1163,0.047497306
1164,0.040334906
1165,0.008116157
1166,0.065481946
1167,9.107721e-05
1168,0.024121137
1169,-0.022086212
1170,-0.018835511
1171,0.056486655
1172,0.010663889
1173,-0.048383296
1174,0.0021589354
1175,0.025540413
1176,0.019315924
1177,0.032188542
1178,-0.060958665
1179,-0.022266068
1180,0.02866424
1181,-0.027448077
1182,-0.020567078
1183,-0.044250857
1184,-0.022859048
1185,-0.013114193
1186,0.014134369
1187,0.012798235
1188,0.012851759
1189,-0.039319947
1190,0.026368415
1191,0.07173245
1192,-0.032172643
1193,-0.044475865
1194,-0.042489715
1195,0.028420873
1196,0.048228294
1197,0.019110806
1198,0.036967393
1199,0.017103095
1200,-0.043358102
1201,-0.06098505
1202,0.027797312
1203,0.015029541
1204,0.02093018
1205,0.051529568
1206,0.008993498
1207,0.0009502954
1208,0.023907814
1209,0.030841775
1210,-0.020681491
1211,-0.04944617
1212,0.0018955922
1213,0.024569847
1214,-0.047555532
1215,-0.0070585962
1216,-0.017780736
1217,-0.047814824
1218,-0.05956154
1219,0.0030516018
1220,-0.023963548
1221,0.01774788
1222,0.03769519
1223,-0.024161598
1224,0.053970378
1225,0.037016217
1226,-0.002862677
1227,-0.0042214226
1228,-0.05354282
1229,-0.022959055
1230,0.044685826
1231,-0.06285722
1232,0.04564707
1233,0.05205695
1234,-0.025333062
1235,0.05414114
1236,-0.044083524
1237,0.07478159
1238,-0.0066989185
1239,0.002107685
1240,-0.017685989
1241,0.057110675
1242,-0.03399084
1243,-0.044627525
1244,-0.04682221
1245,-0.007467683
1246,-0.04480771
1247,-0.010870844
1248,0.041054077
1249,0.025479492
1250,-0.057542913
1251,0.02231775
1252,-0.03216422
1253,-0.040693063
1254,-0.020120265
1255,0.009274926
1256,0.043704182
1257,-0.0053391424
1258,-0.03715885
1259,0.06796779
1260,-0.064973675
1261,0.055691563
1262,-0.043900367
1263,-0.019393312
1264,0.03966009
1265,0.052516893
1266,0.034365635
1267,0.0697328
1268,0.011700081
1269,0.03407173
1270,0.054766204
1271,0.03927948
1272,-0.029008899
1273,-0.016899029
1274,-0.041458428
1275,-0.028762475
1276,0.009938674
1277,-0.023976713
1278,-0.0022347444
1279,0.0018559064
1280,0.0055794814
1281,0.004879817
1282,0.05641336
1283,0.034204148
1284,0.0076774294
1285,0.007110231
1286,-0.043174684
1287,0.05647743
1288,-0.05310937
1289,-0.054974385
1290,0.018103132
1291,-0.045903035
1292,0.049026087
1293,-0.030930651
1294,0.04349795
1295,-0.0013244186
1296,-0.009688294
1297,-0.0017924833
1298,0.006339226
1299,-0.03366351
1300,-0.002217914
1301,-0.027087348
1302,-0.058945358
1303,0.025759012
1304,0.047556024
1305,0.0049164887
1306,-0.027262053
1307,0.02244142
1308,-0.055700194
1309,-0.053221684
1310,-0.019468324
1311,0.04693289
1312,0.029717535
1313,0.03837648
1314,0.035453357
1315,-0.05253202
1316,-0.014112501
1317,-0.040850714
1318,0.010383999
1319,0.025634494
1320,-0.0062827854
1321,0.038671296
1322,-0.003626017
1323,0.043203488
1324,0.033263806
1325,-0.032515205
1326,0.03788836
1327,-0.0026529361
1328,-0.017400717
1329,-0.0409847
1330,-0.013057252
1331,0.039032705
1332,-0.0008688735
1333,-0.021140432
1334,0.02290646
1335,0.023239844
1336,0.016496418
1337,0.06930163
1338,-0.034691095
1339,-0.0021069068
1340,-0.03707802
1341,-0.055164788
1342,0.037805684
1343,-0.008844948
1344,-0.044399638
1345,0.06113369
1346,0.033286534
1347,0.013321604
1348,-0.041598618
1349,-0.032307774
1350,0.0023173662
1351,-0.06561436
1352,-0.01405846
1353,-0.03157308
1354,-0.043364085
1355,-0.0011543606
1356,0.0039326167
1357,-0.011737777
1358,-0.004339978
1359,0.039552618
1360,-0.014123186
1361,0.027084803
1362,0.01976478
1363,0.0037328957
1364,0.02949076
1365,0.008211224
1366,0.030496398
1367,0.059037656
1368,-0.028694086
1369,0.036968432
1370,-0.056700714
1371,-0.013692559
1372,-0.056951568
1373,-0.05755418
1374,0.003842192
1375,0.050400946
1376,-0.0440154
1377,0.0073658754
1378,0.041198924
1379,-0.04501052
1380,0.05637358
1381,-0.052494027
1382,-0.0105266
1383,0.05860299
1384,-0.0037006075
1385,0.059526462
1386,-0.04760769
1387,0.05162972
1388,0.035278987
1389,-0.0026243292
1390,0.019119984
1391,0.02045051
1392,-0.052045837
1393,-0.060704093
1394,-0.010997846
1395,0.027759165
1396,-0.014705778
1397,0.053264283
1398,0.029069522
1399,0.032070067
1400,0.019939676
1401,-0.055391032
1402,0.052050088
1403,0.008750085
1404,-0.013886822
1405,0.008895723
1406,-0.049389787
1407,0.028327206
1408,0.05302766
1409,-0.009731225
1410,0.06507767
1411,-0.031625938
1412,-0.06961558
1413,0.013932912
1414,-0.017339196
1415,-0.02519235
1416,0.052114397
1417,-0.024382256
1418,0.0076894895
1419,0.054665226
1420,0.004029803
1421,-0.02949728
1422,-0.03178457
1423,-0.015940877
1424,0.043257713
1425,-0.03986603
1426,0.07035382
1427,-0.020622076
1428,0.010529481
1429,0.030296387
1430,-0.01853533
1431,-0.04458628
1432,0.060614754
1433,-0.033550452
1434,0.019138562
1435,0.056089766
1436,-0.04741685
1437,-0.014612501
1438,-0.024567984
1439,0.022250652
1440,-0.043354925
1441,-0.020673294
1442,-0.020542825
1443,-0.025521338
1444,-0.040115274
1445,-0.002743611
1446,0.0028659094
1447,0.01728091
1448,-0.009980352
1449,0.012361073
1450,0.051065117
1451,0.046411958
1452,0.0010947434
1453,0.013925501
1454,-0.0032805514
1455,0.06601239
1456,0.061633088
1457,-0.006825254
1458,0.011265786
1459,-0.060289454
1460,0.03627612
1461,-0.033027288
1462,0.018979484
1463,-0.057489984
1464,-0.02584985
1465,0.008589592
1466,0.015638283
1467,0.03502662
1468,0.041839868
1469,-0.0019185747
1470,-0.0042057377
1471,0.059217434
1472,-0.009103966
1473,-0.017840093
1474,0.047819607
1475,0.02846677
1476,-0.04495303
1477,0.032284856
1478,0.004847445
1479,0.042173564
1480,-0.00237946
1481,-0.011058459
1482,-0.05208409
1483,-0.049775127
1484,0.052974574
1485,-0.05528588
1486,0.058237504
1487,-0.0065138303
1488,0.0026163147
1489,0.038338635
1490,0.032362677
1491,0.056002803
1492,0.04683784
1493,0.049015447
1494,-0.026516292
1495,-0.012352483
1496,-0.030352928
1497,-0.042264152
1498,-0.03673728
1499,-0.05551527
1500,-0.018790044
1501,-0.021233134
1502,0.047444716
1503,-0.043579366
1504,-0.018725421
1505,-0.040772684
1506,0.004730297
1507,0.031555757
1508,0.006173526
1509,-0.046977106
1510,-0.032041408
1511,-0.034412213
1512,0.015595377
1513,0.037999053
1514,0.03685667
1515,0.012755545
1516,-0.041526508
1517,0.005618236
1518,-0.018676762
1519,-0.0046040863
1520,0.050435625
1521,-0.046671875
1522,0.021187698
1523,-0.02292012
1524,-0.0031139387
1525,-0.005349739
1526,0.011394754
1527,0.029429963
1528,-0.05426109
1529,-8.983879e-05
1530,-0.051476758
1531,0.048292376
1532,-0.008367487
1533,-0.020853521
1534,0.028699946
1535,0.048290577
1536,0.04834853
1537,0.012994166
1538,-0.062449154
1539,0.036821503
1540,-0.004057279
1541,0.0028212327
1542,0.040562395
1543,-0.02274943
1544,-0.013472754
1545,-0.059759673
1546,-0.013947439
1547,0.04904043
1548,-0.0625718
1549,-0.056927368
1550,0.04711474
1551,0.010283151
1552,-0.051691078
1553,-0.001638264
1554,-0.05152377
1555,0.038248524
1556,-0.0027111312
1557,-0.0097195525
1558,-0.026077673
1559,0.06555824
1560,0.009340793
1561,0.025574593
1562,-0.01201839
1563,-0.051463902
1564,-0.057037495
1565,0.04595245
1566,-0.048311252
1567,0.054126166
1568,-0.014829343
1569,-0.020282142
1570,0.06256111
1571,0.0028441425
1572,0.062337697
1573,0.0018302255
1574,0.05933265
1575,-0.024914838
1576,-0.011321939
1577,0.0035765686
1578,-0.052909862
1579,0.01366979
1580,-0.040194217
1581,-0.004601551
1582,0.02754458
1583,-0.039961725
1584,0.003726452
1585,0.050550338
1586,0.019948922
1587,0.03895213
1588,0.053719323
1589,0.06765618
1590,0.0010360085
1591,0.0539494
1592,-0.0010901548
1593,-0.044040073
1594,0.029742403
1595,-0.031611312
1596,0.052276295
1597,0.008410403
1598,0.01131901
1599,0.039596476
1600,-0.046064053
1601,0.021598829
1602,-0.018797481
1603,0.022210436
1604,-0.015243156
1605,0.041930374
1606,-0.019059323
1607,0.019341148
1608,0.041976064
1609,-0.049259763
1610,-0.024892582
1611,0.045297917
1612,0.064041905
1613,-0.057910725
1614,-0.0589157
1615,-0.029599855
1616,-0.010220821
1617,0.04169102
1618,0.04244086
1619,0.0108701205
1620,0.05538026
1621,-0.03462301
1622,0.042994097
1623,-0.009747915
1624,0.024301227
1625,0.003223778
1626,-0.04255649
1627,0.04707938
1628,-0.019789984
1629,-0.068396986
1630,0.061259143
1631,0.06381993
1632,-0.053696796
1633,0.020336673
1634,0.026314206
1635,-0.02287696
1636,-0.039821252
1637,0.035853855
1638,0.045143805
1639,-0.05485561
1640,0.02884472
1641,0.009501182
1642,-0.03961632
1643,0.021592326
1644,0.028157236
1645,0.069158964
1646,0.03378372
1647,-0.018144377
1648,0.009069065
1649,0.008866495
1650,0.056238394
1651,0.050995532
1652,-0.015788639
1653,0.063455686
1654,-0.016074069
1655,0.0087887375
1656,-0.0042140847
1657,-0.058403034
1658,-0.042368997
1659,0.0029194986
1660,-0.019349273
1661,-0.06356605
1662,-0.006866931
1663,0.054331735
1664,0.0016591256
1665,-0.023018219
1666,-0.037557248
1667,-0.042274766
1668,-0.020032251
1669,0.0075951335
1670,0.05893704
1671,-0.03140666
1672,0.0039452966
1673,0.0017863256
1674,0.02497725
1675,0.030358363
1676,-0.054214716
1677,0.048281953
1678,-0.04797385
1679,0.029765125
1680,0.031438116
1681,-0.018322209
1682,-0.04474515
1683,-0.025464289
1684,-0.04135866
1685,0.03953732
1686,-0.008955767
1687,0.052060243
1688,0.03093476
1689,0.021252014
1690,-0.041678317
1691,-0.03957443
1692,0.031722274
1693,0.053878307
1694,-0.027690899
1695,0.0079337405
1696,-0.004841584
1697,0.057595216
1698,-0.06684654
1699,0.023143018
1700,-0.0053511616
1701,0.032831926
1702,0.018649403
1703,0.035107594
1704,0.021765443
1705,-0.059604764
1706,0.06310117
1707,-0.0014852043
1708,-0.04909366
1709,0.060315527
1710,0.05643854
1711,0.01366457
1712,0.042595867
1713,-0.024806846
1714,0.008132575
1715,0.06892644
1716,-0.05084928
1717,0.045717254
1718,0.062491335
1719,-0.049731705
1720,-0.039030008
1721,0.013950362
1722,0.035846878
1723,0.008470763
1724,-0.020682853
1725,0.03333025
1726,0.041499086
1727,0.021717815
1728,-0.024094688
1729,0.022911241
1730,-0.03631062
1731,0.026730563
1732,0.054173186
1733,-0.024658136
1734,-0.039265197
1735,0.007104662
1736,-0.055786807
1737,-0.0397415
1738,0.044093955
1739,0.0027595086
1740,-0.041843187
1741,0.06794666
1742,0.01443359
1743,-0.060855865
1744,-0.02161447
1745,0.05247833
1746,-0.02201878
1747,-0.0045936066
1748,-0.06819638
1749,0.05723823
1750,0.047509853
1751,0.04960448
1752,-0.05527607
1753,-0.04355073
1754,0.023667494
1755,-0.014995954
1756,0.03411497
1757,0.0033901008
1758,0.014124902
1759,0.011160294
1760,-0.03730966
1761,0.02267474
1762,0.052693073
1763,0.019531572
1764,0.05281763
1765,-0.020912725
1766,0.044710524
1767,0.014728339
1768,0.061161768
1769,-0.06271997
1770,0.044970375
1771,-0.021240983
1772,-0.024178727
1773,0.00910187
1774,-0.045608316
1775,-0.028567813
1776,-0.025606014
1777,-0.02806158
1778,-0.019582624
1779,-0.020741751
1780,0.03220394
1781,-0.06282235
1782,0.0616738
1783,0.04139031
1784,-0.024431664
1785,-0.03895534
1786,0.010314475
1787,-0.033134278
1788,0.039136488
1789,0.012493317
1790,-0.054913644
1791,-0.042412866
1792,-0.004587609
1793,0.0005718192
1794,-0.05351629
1795,0.006979702
1796,-0.041475
1797,-0.053252663
1798,-0.054720353
1799,0.038653284
1800,-0.03370823
1801,0.029054169
1802,0.010686376
1803,0.059539884
1804,-0.023713822
1805,-0.034973297
1806,-0.05752149
1807,-0.0025448431
1808,0.062159766
1809,0.018447826
1810,0.009671159
1811,0.031821817
1812,0.046930358
1813,0.0571506
1814,-0.022448983
1815,0.035138015
1816,0.0030441952
1817,0.019667339
1818,0.05258763
1819,-0.008615346
1820,0.05579573
1821,-0.044388995
1822,0.0019280219
1823,-0.04574167
1824,0.003819623
1825,0.060185984
1826,-0.044341456
1827,-0.061993636
1828,-0.0052676634
1829,0.004087242
1830,-0.001000084
1831,0.03380216
1832,0.056928273
1833,0.049693502
1834,-0.047823187
1835,-0.000573865
1836,-0.010782378
1837,0.0063117407
1838,0.044319097
1839,0.006501805
1840,-0.00089232257
1841,0.046277076
1842,-0.014842102
1843,-0.027162094
1844,0.05826706
1845,0.0019839208
1846,0.043968063
1847,-0.032999787
1848,0.05482571
1849,-0.018677201
1850,0.0318081
1851,-0.013146282
1852,0.058478884
1853,-0.02108184
1854,0.033329554
1855,0.029614614
1856,0.041807193
1857,-0.041309934
1858,0.006715123
1859,-0.036716983
1860,0.0041290843
1861,0.0458136
1862,0.039845664
1863,0.02210317
1864,-0.0041413074
1865,0.061631177
1866,-0.01076985
1867,0.029753186
1868,0.047222096
1869,0.047034338
1870,-0.04886365
1871,0.06115394
1872,0.0060971174
1873,-0.057896424
1874,-0.0069917054
1875,-0.012187853
1876,0.013831734
1877,-0.06305092
1878,-0.023746725
1879,0.002367005
1880,0.016019955
1881,-0.054246724
1882,0.028193116
1883,0.0016335843
1884,0.00928708
1885,0.027841331
1886,0.039149307
1887,0.046899024
1888,0.056989662
1889,-0.052752998
1890,0.062716745
1891,0.032921527
1892,-0.017492188
1893,-0.03766675
1894,0.0547872
1895,0.010607873
1896,-0.057637975
1897,0.012691698
1898,-0.03113645
1899,0.023104742
1900,-0.05606219
1901,0.047696274
1902,0.011859037
1903,0.03990693
1904,0.054125205
1905,0.012907549
1906,-0.010951377
1907,-0.047461763
1908,-0.04682542
1909,0.055585936
1910,0.011754698
1911,-0.015635092
1912,0.0050741355
1913,-0.030939164
1914,0.040289205
1915,-0.057658643
1916,-0.053910084
1917,0.00714576
1918,0.015458382
1919,-0.037306637
1920,0.022449309
1921,0.030922644
1922,-0.03496249
1923,0.011753291
1924,0.047964483
1925,-0.05705954
1926,-0.047830936
1927,-0.05375098
1928,0.056888003
1929,0.030955857
1930,0.027610624
1931,-0.036800433
1932,0.0036970135
1933,0.033760455
1934,-0.0014190639
1935,0.059729364
1936,0.007251081
1937,0.014140325
1938,0.033625465
1939,0.05723784
1940,0.042383105
1941,-0.022381142
1942,-0.051249348
1943,-0.03601064
1944,-0.020373493
1945,-0.010685204
1946,0.013666417
1947,0.044848487
1948,-0.04380627
1949,-0.03840216
1950,0.06134824
1951,-0.034710754
1952,0.030033143
1953,-0.037799962
1954,0.030839521
1955,0.029229715
1956,-0.062698424
1957,0.009502347
1958,-0.024489183
1959,-0.055862635
1960,-0.05499849
1961,-0.014574802
1962,0.010351093
1963,0.02280081
1964,0.0184061
1965,-0.022423659
1966,0.056414884
1967,0.037670147
1968,0.013856706
1969,-0.030695587
1970,0.06044271
1971,0.012394386
1972,-0.012950002
1973,-0.059003346
1974,0.049585033
1975,-0.06268538
1976,0.05161673
1977,-0.045946036
1978,0.00086345203
1979,0.0229818
1980,-0.049911156
1981,-0.05595778
1982,0.0071006427
1983,-0.017922824
1984,0.004150548
1985,0.023917781
1986,-0.010110111
1987,0.060458876
1988,-0.028572464
1989,-0.018026147
1990,0.058571253
1991,-0.042787164
1992,-0.047863778
1993,0.022145843
1994,0.052268587
1995,-0.0048591974
1996,0.029449783
1997,-0.026735894
1998,-0.0005769217
1999,0.024942912
2000,0.022570845
2001,-0.029204832
2002,-0.019780835
2003,0.010306217
2004,0.013393821
2005,0.041922256
2006,0.003326174
2007,-0.024742847
2008,0.018352257
2009,-0.011882935
2010,-0.03973211
2011,-0.058658663
2012,0.024574699
2013,-0.046534352
2014,-0.045646306
2015,0.058454115
2016,-0.036407027
2017,0.021245854
2018,-0.05818727
2019,-0.0026270032
2020,0.058768798
2021,-0.04795143
2022,-0.029920863
2023,0.006257776
2024,0.050497416
2025,0.057841226
2026,0.01429732
2027,0.034445975
2028,0.010753194
2029,0.043559648
2030,0.02965727
2031,0.015716938
2032,-0.053686768
2033,0.008658216
2034,-0.055933043
2035,-0.047043927
2036,-0.05042806
2037,0.0051860614
2038,0.0053857453
2039,0.026912695
2040,-0.05612742
2041,0.039835945
2042,-0.0148180025
2043,-0.061019387
2044,0.011317013
2045,-0.04322567
2046,-0.035342775
2047,0.02761181
2048,0.048966955
2049,0.05577417
2050,0.012356058
2051,-0.039769925
2052,0.022524783
2053,0.062029142
2054,-0.0111620845
2055,-0.051363364
2056,-0.03144669
2057,-0.0027006934
2058,-0.019156562
2059,0.06122495
2060,0.009922784
2061,-0.0016359418
2062,0.050142348
2063,0.061974484
2064,0.045864593
2065,0.04957814
2066,0.042567763
2067,-0.016288718
2068,-0.060698602
2069,0.02405521
2070,0.03869776
2071,0.033792257
2072,0.012741334
2073,0.025694977
2074,0.043149192
2075,-0.033724476
2076,0.047818296
2077,0.00032961863
2078,0.048239507
2079,-0.015537955
2080,-0.051013384
2081,0.014574976
2082,-0.023902122
2083,-0.032442037
2084,-0.040665682
2085,-0.05329386
2086,0.064018935
2087,-0.0334338
2088,0.006522344
2089,-0.018030511
2090,0.043544795
2091,-0.054506473
2092,0.03370888
2093,0.04416846
2094,0.030717779
2095,-0.036523882
2096,0.04465544
2097,0.02352379
2098,-0.028150352
2099,0.047241673
2100,-0.05844131
2101,0.05255579
2102,-0.046713337
2103,-0.053716242
2104,0.0022297327
2105,0.021116832
2106,-5.910586e-05
2107,0.038017575
2108,-0.045422535
2109,-0.01651668
2110,-0.0020372395
2111,-0.049770545
2112,-0.015999623
2113,0.02925441
2114,-0.028906364
2115,0.034529444
2116,0.025319759
2117,0.0013663906
2118,0.023114493
2119,-0.045467973
2120,-0.054288205
2121,-0.01966793
2122,0.048165634
2123,0.05547758
2124,-0.046259843
2125,0.012909641
2126,0.02306336
2127,-0.012088858
2128,0.0048112534
2129,-0.011605921
2130,-0.041916654
2131,0.0033420078
2132,0.019753436
2133,0.05208686
2134,-0.031321775
2135,0.005175369
2136,0.053132337
2137,-0.025641343
2138,-0.05076005
2139,-0.029981859
2140,-0.044523776
2141,-0.018135319
2142,0.03884846
2143,0.011992604
2144,-0.017218506
2145,-0.017923981
2146,-0.021601435
2147,-0.0026211978
2148,0.04997604
2149,-0.0020834426
2150,0.02851825
2151,0.0056547504
2152,-0.011667044
2153,0.015459666
2154,-0.03085039
2155,-0.048321184
2156,0.038333524
2157,0.031744517
2158,0.022898564
2159,0.056053743
2160,0.011243902
2161,-0.021278314
2162,-0.037546694
2163,-0.008163636
2164,0.027543524
2165,0.014408278
2166,0.030528987
2167,-0.029169068
2168,-0.016889634
2169,0.025894525
2170,0.05229212
2171,0.035026092
2172,0.049220417
2173,-0.053162843
2174,0.033849336
2175,0.012380554
2176,-0.0035454512
2177,-0.041197635
2178,-0.049927328
2179,0.0038684998
2180,-0.012083381
2181,0.025545476
2182,0.007826684
2183,0.032907635
2184,0.03269414
2185,0.05665452
2186,0.01519791
2187,0.047138315
2188,-0.010660151
2189,0.023630533
2190,-0.031396173
2191,0.057095766
2192,0.06048618
2193,0.00395476
2194,-0.034167558
2195,0.027935542
2196,-0.039000362
2197,-0.0041184956
2198,-0.019968439
2199,-0.046663098
2200,0.021654487
2201,-0.048332658
2202,-0.061838508
2203,-0.004054176
2204,0.0039755283
2205,-0.0028921063
2206,-0.008659821
2207,-0.0074101333
2208,0.029895023
2209,0.02134198
2210,-0.039999753
2211,-0.011224335
2212,-0.021902021
2213,0.03903876
2214,-0.027766611
2215,-0.014803844
2216,-0.03811218
2217,-0.0045473417
2218,-0.032757696
2219,0.050193276
2220,0.0510428
2221,-0.043799076
2222,-0.025814157
2223,0.017148579
2224,0.014247418
2225,0.0038057659
2226,0.0021352398
2227,0.03411867
2228,0.04809664
2229,-0.022942925
2230,-0.0072819823
2231,0.049662556
2232,-0.041753415
2233,0.0019987875
2234,-0.05871874
2235,0.0044341646
2236,-0.04959721
2237,-0.014964954
2238,-0.024730185
2239,-0.011620264
2240,0.0238691
2241,0.0126375435
2242,0.010470978
2243,0.047201708
2244,0.022317108
2245,-0.029169533
2246,-0.023574904
2247,-0.005061951
2248,0.012712823
2249,0.011194511
2250,0.023365054
2251,0.015844684
2252,0.02925978
2253,-0.04811286
2254,0.03250256
2255,-0.035360437
2256,0.011499047
2257,0.007554855
2258,-0.054040954
2259,0.06483714
2260,0.036940053
2261,-0.00886824
2262,0.04202307
2263,-0.036226176
2264,-0.0194526
2265,-0.014143986
2266,0.00022157081
2267,-0.02948884
2268,-0.042211883
2269,0.038064215
2270,0.008788108
2271,0.0067016347
2272,-0.04725621
2273,-0.006910813
2274,0.007659764
2275,-0.00081915007
2276,0.031074416
2277,0.03364958
2278,-0.05491962
2279,0.02490137
2280,0.009090332
2281,0.015981318
2282,0.009805425
2283,0.035404973
2284,0.010346178
2285,-0.038152937
2286,0.032442275
2287,-0.0047737192
2288,0.022813853
2289,-0.034551933
2290,-0.06398835
2291,0.034189485
2292,-0.05847871
2293,0.029387323
2294,0.04134463
2295,0.042635683
2296,0.03252556
2297,-0.05198094
2298,0.027201429
2299,0.023644166
2300,-0.06361399
2301,-0.012886319
2302,0.03502361
2303,-0.00014027367
2304,-0.011666905
2305,0.054824475
2306,-0.044017646
2307,0.0343521
2308,-0.02804542
2309,0.022028517
2310,-0.0016304117
2311,0.06258188
2312,-0.043209195
2313,-0.06734444
2314,0.031318847
2315,0.022261044
2316,0.045184016
2317,0.020680804
2318,0.029535184
2319,-0.0149921635
2320,0.049839612
2321,0.05737168
2322,-0.03492631
2323,-0.0114554325
2324,0.037832234
2325,-0.023650866
2326,-0.0023305651
2327,-0.0038634846
2328,0.03125485
2329,0.044620518
2330,0.038903262
2331,0.059959065
2332,0.039882667
2333,0.042136878
2334,0.05526455
2335,-0.02731919
2336,-0.037385803
2337,-0.011145409
2338,0.05559063
2339,-0.058775444
2340,0.03392616
2341,-0.05447635
2342,-0.063853025
2343,0.037632644
2344,0.041147824
2345,0.038623698
2346,0.00053662725
2347,0.013023101
2348,-0.0026572512
2349,0.01911786
2350,-0.039961275
2351,0.000848686
2352,-0.046933826
2353,-0.061028633
2354,0.0013083288
2355,-0.044258166
2356,0.0019710138
2357,0.027094357
2358,0.035998497
2359,0.011416929
2360,0.020303648
2361,0.046802845
2362,0.006063456
2363,-0.045630347
2364,-0.05724567
2365,-0.041668743
2366,0.061064422
2367,-0.05650279
2368,-0.01734222
2369,0.056582157
2370,0.04015958
2371,-0.0053280387
2372,0.0153174205
2373,0.057131853
2374,0.05297451
2375,-0.037188247
2376,0.004584636
2377,-0.03142357
2378,0.0447208
2379,-0.05507484
2380,-0.013019391
2381,-0.029229315
2382,0.018183013
2383,0.010070261
2384,0.0060576857
2385,0.034894403
2386,0.06126797
2387,0.000347612
2388,0.029968396
2389,0.034539588
2390,-0.006625768
2391,-0.001980944
2392,-0.019956741
2393,0.02685229
2394,-0.004464341
2395,-0.0061422912
2396,-0.042066786
2397,0.010000468
2398,0.04449973
2399,0.029913833
2400,0.0013184928
2401,0.06252747
2402,-0.015910707
2403,0.0413233
2404,0.017753188
2405,0.054634534
2406,-0.0217047
2407,0.029860107
2408,0.019190425
2409,-0.043193907
2410,0.025905566
2411,0.051135287
2412,-0.028771086
2413,-0.019970784
2414,-0.055856902
2415,0.015402282
2416,0.051839374
2417,-0.004005647
2418,0.04355682
2419,-0.009962695
2420,0.035736185
2421,-0.058621116
2422,-0.041292127
2423,-0.040133335
2424,-0.0191572
2425,-0.035478715
2426,0.04401862
2427,0.019794129
2428,-0.002320023
2429,-0.025180006
2430,-0.016900275
2431,0.04618881
2432,0.04985368
2433,-0.03713656
2434,-0.037348382
2435,0.017933082
2436,-0.03503476
2437,0.03277959
2438,-0.0017495727
2439,-0.026377724
2440,-0.057061236
2441,0.01821661
2442,-0.06545621
2443,-0.046863187
2444,-0.01603043
2445,-0.0022993393
2446,-0.033161398
2447,-0.018836189
2448,-0.00069459656
2449,0.07548056
2450,0.024161926
2451,-0.062269296
2452,0.03168428
2453,0.028910363
2454,-0.00057702005
2455,-0.048024382
2456,0.019718915
2457,0.056499403
2458,-0.0052794204
2459,-0.03574282
2460,-0.055958558
2461,0.046859663
2462,0.004737419
2463,-0.021024212
2464,0.040293306
2465,-0.06476203
2466,-0.016410213
2467,0.04832693
2468,-0.037750475
2469,-0.060696587
2470,0.042139128
2471,0.07074796
2472,-0.0062655522
2473,-0.04550185
2474,-0.032963317
2475,0.024711933
2476,0.06462086
2477,0.057891194
2478,0.05776974
2479,0.050400626
2480,-0.0128057
2481,-0.063856676
2482,0.027070949
2483,-0.041504435
2484,-0.056891646
2485,-0.0062003355
2486,-0.0022717002
2487,-0.032122575
2488,0.038205005
2489,0.033816222
2490,-0.053600505
2491,0.02408796
2492,-0.046193708
2493,0.020635044
2494,0.011898391
2495,-0.04333645
2496,0.035888877
2497,-0.045630526
2498,-0.054445602
2499,0.031212352
2500,0.03234582
2501,-0.05722712
2502,0.049302954
2503,0.05246912
2504,-0.0082959095
2505,0.019916262
2506,-0.019765498
2507,-0.05165315
2508,0.043527074
2509,-0.033513404
2510,-0.04332185
2511,0.012517177
2512,0.03815466
2513,9.741636e-05
2514,-0.047450375
2515,0.034323394
2516,0.060786013
2517,-0.05011678
2518,-0.024951259
2519,-0.05113869
2520,-0.0138709005
2521,-0.02886609
2522,-0.062237132
2523,0.051154796
2524,0.03512075
2525,0.022345252
2526,-0.04308419
2527,0.047611814
2528,0.010762603
2529,0.0125111295
2530,-0.021026291
2531,-0.02910826
2532,0.009381916
2533,-0.007388933
2534,-0.06111829
2535,-0.060308672
2536,0.024833055
2537,-0.00991476
2538,0.019184958
2539,0.0499375
2540,0.051029243
2541,0.020051597
2542,0.054934964
2543,0.05298186
2544,0.0059638266
2545,-0.029998548
2546,0.0047814194
2547,-0.026025757
2548,-0.051245183
2549,0.04503753
2550,-0.055251725
2551,-0.035842087
2552,0.00066731055
2553,0.036504716
2554,-0.015182116
2555,0.038892023
2556,0.061731044
2557,0.013897811
2558,0.030278744
2559,0.025716992
2560,-0.01913732
2561,-0.014791773
2562,-0.017552681
2563,-0.016525107
2564,-0.04738671
2565,0.023332069
2566,-0.011472681
2567,0.026015976
2568,-0.004234341
2569,-0.0013909965
2570,0.029204123
2571,-0.0112636145
2572,-0.04832476
2573,0.05635709
2574,-0.042823825
2575,0.060124326
2576,0.03224499
2577,0.0026691782
2578,0.04583502
2579,-0.022575688
2580,0.061936934
2581,0.0632896
2582,0.05499945
2583,-0.005322512
2584,-0.0016455784
2585,-0.010040069
2586,-0.020110367
2587,0.00982979
2588,0.032027043
2589,0.03847603
2590,-0.040866707
2591,-0.04319947
2592,0.048887055
2593,-0.027810821
2594,-0.057286993
2595,-0.006591905
2596,-0.021560788
2597,-0.06257938
2598,0.04497707
2599,-0.041126132
2600,0.0018029434
2601,0.008406546
2602,0.017280351
2603,-0.022384835
2604,0.012767362
2605,0.028181778
2606,0.04145951
2607,0.014755952
2608,0.024719518
2609,0.037323833
2610,0.06341157
2611,0.05927883
2612,0.044500023
2613,-0.05925934
2614,0.005215249
2615,0.002774066
2616,0.0016602495
2617,0.01959019
2618,0.01814988
2619,0.05710012
2620,-0.021315757
2621,-0.008793224
2622,-0.023072852
2623,0.0303379
2624,0.022690974
2625,0.004274872
2626,-0.022937385
2627,0.027708651
2628,-0.03858435
2629,-0.04861651
2630,0.055892956
2631,-0.03417075
2632,-0.042796146
2633,0.020749839
2634,0.027885575
2635,0.026537534
2636,0.033618897
2637,-0.029851753
2638,-0.06116171
2639,-0.057432447
2640,-0.057962306
2641,-0.027434262
2642,-0.042773906
2643,-0.023029722
2644,0.02961681
2645,0.015444258
2646,-0.031218978
2647,-0.0049769417
2648,0.012724551
2649,-0.054493744
2650,-0.032758508
2651,0.056561127
2652,0.0037473175
2653,0.015161191
2654,-0.00805988
2655,0.0077136867
2656,-0.0007236569
2657,-0.041338112
2658,-0.029453855
2659,0.041805632
2660,-0.026781976
2661,0.01778997
2662,-0.028964922
2663,-0.020800348
2664,0.01864308
2665,-0.04099598
2666,-0.057042398
2667,0.046526182
2668,0.044431683
2669,-0.025618184
2670,0.009828231
2671,0.04139943
2672,-0.030455647
2673,-0.0040157414
2674,0.0021264122
2675,0.040999185
2676,0.0045670723
2677,0.0607361
2678,0.057434812
2679,-0.050869588
2680,-0.02830314
2681,0.0125186555
2682,-0.06504064
2683,-0.04339115
2684,0.0060756267
2685,-0.060678527
2686,-0.00095410575
2687,-0.046945784
2688,0.0427908
2689,0.05295239
2690,-0.020432057
2691,-0.04218467
2692,-0.047532503
2693,0.014987558
2694,-0.01395322
2695,-0.06152369
2696,0.0068017994
2697,0.031318743
2698,-0.041821145
2699,0.049523793
2700,0.013704744
2701,-0.056235023
2702,0.022558916
2703,0.052769005
2704,0.023653386
2705,0.047449276
2706,-0.030682242
2707,-0.061616804
2708,-0.002080769
2709,0.053082913
2710,0.031353917
2711,0.0242097
2712,-0.06492518
2713,0.0079994425
2714,-0.02601199
2715,0.029215652
2716,0.03484839
2717,0.0063776933
2718,0.033170193
2719,-0.032005314
2720,0.05218606
2721,0.0013305263
2722,-0.019885652
2723,0.028610842
2724,-0.051220242
2725,0.032716475
2726,-0.033155903
2727,-0.007048592
2728,-0.035355672
2729,-0.061326757
2730,0.01228239
2731,-0.052897785
2732,0.017280111
2733,-0.03269831
2734,-0.056904316
2735,0.050775945
2736,0.04297142
2737,-0.06344812
2738,0.0120174065
2739,-0.0054148138
2740,0.053435307
2741,-0.00029799048
2742,0.033344444
2743,-0.037985794
2744,-0.030650629
2745,0.02435698
2746,0.058501903
2747,-0.025921656
2748,-0.027208995
2749,0.04668444
2750,0.021699818
2751,0.031098315
2752,-0.010976786
2753,-0.060141496
2754,-0.051386
2755,0.0049900017
2756,0.032210596
2757,-0.04155499
2758,0.002592727
2759,-0.032608744
2760,0.034694266
2761,-0.012692144
2762,-0.0006276756
2763,-0.033556715
2764,-0.004007115
2765,0.02947662
2766,-0.05091737
2767,-0.017699037
2768,0.05120013
2769,-0.042795192
2770,0.06239219
2771,0.027538195
2772,0.044497915
2773,-0.007809469
2774,0.049041763
2775,0.05825698
2776,0.029537091
2777,-0.046296123
2778,0.00835613
2779,-0.02625761
2780,0.024313081
2781,-0.024881022
2782,-0.047191318
2783,-0.043507565
2784,-0.012947905
2785,-0.032394264
2786,0.041711655
2787,-0.04522941
2788,-0.048976988
2789,-0.03843141
2790,-0.021261515
2791,0.0012253101
2792,-0.009558089
2793,0.05369701
2794,-0.05661238
2795,0.018410193
2796,0.02868055
2797,-0.034730818
2798,-0.042493716
2799,-0.06015897
2800,0.007966551
2801,-0.028745955
2802,0.05979343
2803,-0.056380365
2804,0.026481906
2805,-0.036943063
2806,0.027233923
2807,0.031777993
2808,-0.048693534
2809,0.054583978
2810,-0.03393397
2811,0.05526066
2812,-0.04220747
2813,-0.027440222
2814,-0.05782881
2815,0.055121083
2816,-0.02156647
2817,-0.038888562
2818,0.06273214
2819,0.0035190154
2820,-0.011373555
2821,-0.0321421
2822,0.023815677
2823,-0.034038875
2824,-0.0063916757
2825,-0.06510415
2826,-0.00485744
2827,-0.02400897
2828,0.05943999
2829,-0.005292299
2830,0.029184006
2831,-0.05322443
2832,-0.043795697
2833,0.021772325
2834,-0.054483082
2835,0.05221129
2836,-0.001842125
2837,-0.013893621
2838,-0.02905567
2839,0.010465818
2840,0.043093067
2841,-0.059605837
2842,-0.047500875
2843,0.051686075
2844,0.06139316
2845,0.011548509
2846,-0.019902302
2847,0.0672856
2848,-0.051584635
2849,-0.029529298
2850,0.018841164
2851,-0.055852763
2852,-0.049874306
2853,-0.038664334
2854,-0.03235194
2855,0.039018504
2856,-0.033923168
2857,-0.02230637
2858,0.0500657
2859,-0.053852014
2860,-0.013257374
2861,0.027447196
2862,-0.014665939
2863,-0.049958225
2864,0.007416629
2865,0.034368955
2866,-0.009645355
2867,0.006271531
2868,-0.057868976
2869,-0.029198326
2870,0.023843182
2871,0.004929087
2872,0.06291519
2873,0.03931714
2874,-0.021076633
2875,0.057897866
2876,0.044786304
2877,0.017477294
2878,-0.031058433
2879,0.029893555
2880,0.0038663878
2881,0.054397047
2882,-0.050666146
2883,0.0046005826
2884,0.06130446
2885,-0.05248871
2886,-0.02547958
2887,0.020952145
2888,0.027125545
2889,0.0657248
2890,-0.046276633
2891,0.024985623
2892,0.03741207
2893,0.048885893
2894,-0.010642731
2895,0.012586826
2896,0.024504837
2897,0.0066546556
2898,0.03924086
2899,0.011474397
2900,0.02088488
2901,0.03837098
2902,0.017286584
2903,0.031024933
2904,-0.0121241845
2905,-0.056613322
2906,-0.034340028
2907,-0.0293546
2908,-0.046173763
2909,0.010037967
2910,0.03488543
2911,0.020752832
2912,-0.05520895
2913,-0.05427171
2914,-0.006999989
2915,0.047070846
2916,0.023539683
2917,0.006819678
2918,0.014883808
2919,-0.05678195
2920,-0.034719385
2921,-0.048251636
2922,0.018458448
2923,-0.051644005
2924,-0.027856482
2925,0.0023848712
2926,0.039351746
2927,0.042882565
2928,0.02794163
2929,-0.017017297
2930,0.02502411
2931,-0.010984597
2932,-0.036692098
2933,-0.0046905996
2934,0.0024733972
2935,0.071495906
2936,0.04584359
2937,0.043215625
2938,0.037674
2939,0.0015896256
2940,-7.808142e-05
2941,-0.05143376
2942,0.005711291
2943,-0.024708034
2944,-0.06037585
2945,0.011903077
2946,0.045998853
2947,0.019704092
2948,0.04507721
2949,-0.020094112
2950,-0.032913227
2951,-0.019990962
2952,0.03875908
2953,-0.00281722
2954,-0.044766497
2955,-0.024989147
2956,-0.015753545
2957,-0.051175002
2958,0.049836077
2959,-0.050658476
2960,-0.009377962
2961,-0.038988028
2962,0.042630605
2963,-0.038640976
2964,0.036563158
2965,-0.057101414
2966,-0.054910135
2967,-0.067218244
2968,-0.046118565
2969,0.04789663
2970,-0.027822927
2971,-0.027302904
2972,-0.0002520873
2973,0.055534735
2974,-0.046654463
2975,0.033701994
2976,-0.022389948
2977,0.020141816
2978,-0.012530129
2979,-0.03163233
2980,0.05236903
2981,-0.043205578
2982,0.026945913
2983,-0.044405952
2984,-0.049808864
2985,0.04384398
2986,0.053413384
2987,0.044398304
2988,0.053820018
2989,0.05448394
2990,0.057553276
2991,-0.031123674
2992,-0.065784395
2993,0.057001416
2994,0.029536359
2995,0.004639051
2996,-0.047743574
2997,-0.014817335
2998,0.027341332
2999,-0.037013937
3000,0.05712588
3001,0.0029867545
3002,-0.027915621
3003,0.06282002
3004,0.02314696
3005,-0.011225091
3006,0.041952476
3007,0.03281338
3008,0.029848892
3009,-0.021521809
3010,0.04478765
3011,0.0051893685
3012,-0.003625485
3013,0.0196658
3014,0.01691561
3015,-0.026404133
3016,-0.048635025
3017,-0.058177426
3018,-0.018604593
3019,0.036768083
3020,-0.01790433
3021,-0.011298671
3022,0.03279588
3023,-0.03662904
3024,-0.05231342
3025,-0.065585434
3026,0.01013571
3027,-0.027380466
3028,0.0403195
3029,-0.06135411
3030,-0.04001505
3031,0.012294605
3032,-0.00035252
3033,-0.026816329
3034,0.053442746
3035,0.00678541
3036,0.059066076
3037,0.05787682
3038,0.05575195
3039,-0.051318355
3040,-0.025630618
3041,-0.0108074015
3042,0.020697469
3043,-0.034183115
3044,-0.041491985
3045,-0.032802373
3046,-0.022525575
3047,-0.013628385
3048,0.0581332
3049,0.012952389
3050,0.0013092306
3051,0.048115734
3052,-0.03131128
3053,0.026286408
3054,-0.0076958514
3055,0.063807815
3056,0.020405624
3057,0.035392478
3058,0.013268996
3059,0.004937968
3060,-0.03786634
3061,0.05100818
3062,-0.04679221
3063,0.019792449
3064,0.020549145
3065,-0.0033838612
3066,-0.027421236
3067,-0.063365646
3068,0.0135916285
3069,-0.05821536
3070,-0.0072283554
3071,0.05361224
3072,-0.032968268
3073,-0.0065060453
3074,0.058553696
3075,-0.04905362
3076,-0.029852139
3077,0.04983006
3078,0.058625072
3079,-0.046636045
3080,-0.029578375
3081,-0.053523514
3082,0.025248094
3083,0.056849692
3084,0.017430479
3085,-0.024096835
3086,0.0472222
3087,0.056752127
3088,0.001894423
3089,-0.0050762743
3090,0.0010125911
3091,-0.011091312
3092,-0.04563169
3093,0.013675196
3094,0.036489032
3095,0.029205304
3096,-0.058180753
3097,-0.011592591
3098,0.017797401
3099,-0.016955128
3100,0.017614119
3101,-0.021139085
3102,-0.002669632
3103,-0.009759802
3104,0.0008184413
3105,0.036425937
3106,0.015913352
3107,-0.049199414
3108,-0.040329807
3109,-0.05412062
3110,0.010031625
3111,-0.017926846
3112,0.021725846
3113,-0.0469707
3114,-0.021639392
3115,-0.03452918
3116,0.00032563374
3117,-0.0013344721
3118,0.01379165
3119,0.022842517
3120,0.017417243
3121,-0.01601577
3122,0.034408133
3123,-0.022283943
3124,-0.027676802
3125,0.007306785
3126,-0.043456282
3127,-0.05196012
3128,-0.033648133
3129,-0.06961821
3130,-0.030022979
3131,0.022146972
3132,0.014673972
3133,0.033292834
3134,0.056808088
3135,0.04125747
3136,0.030670093
3137,-0.006853047
3138,0.03779903
3139,0.05678152
3140,0.06349443
3141,0.05017521
3142,0.005900102
3143,-0.026810935
3144,-0.011891388
3145,-0.013360652
3146,-0.059108555
3147,-0.00945392
3148,-0.05554512
3149,-0.0489544
3150,0.008923075
3151,0.05939114
3152,-0.02830787
3153,-0.011695884
3154,0.027436908
3155,0.063962996
3156,-0.039849933
3157,0.025638174
3158,0.0391973
3159,0.04692691
3160,0.010935845
3161,-0.052269023
3162,0.053759787
3163,-0.049012996
3164,-0.05490172
3165,0.049729418
3166,0.0063223667
3167,0.029787185
3168,-0.03954338
3169,-0.060168777
3170,0.0025449058
3171,0.02202888
3172,0.025342641
3173,-0.05168484
3174,0.0371872
3175,-0.0320764
3176,-0.014855158
3177,0.018869292
3178,0.02420541
3179,-0.011027511
3180,-0.013086376
3181,0.024078261
3182,0.00017702396
3183,-0.057554636
3184,0.021089692
3185,0.05596732
3186,-0.049130812
3187,0.056558
3188,-0.005770144
3189,0.009348188
3190,-0.03384346
3191,-0.03572508
3192,-0.05069601
3193,-0.0011988902
3194,-0.005184787
3195,0.0048786504
3196,0.017152537
3197,-0.040049456
3198,-0.038954522
3199,0.012574123
3200,-0.040846147
3201,-0.053961057
3202,0.007826167
3203,-0.009968917
3204,-0.016828787
3205,-0.0366411
3206,-0.01778592
3207,0.007886189
3208,0.04912548
3209,0.011559374
3210,0.045186862
3211,0.037607674
3212,-0.049712222
3213,-0.0038354914
3214,-0.0034019067
3215,0.049362727
3216,0.012393182
3217,-0.036413673
3218,-0.003527311
3219,0.008838884
3220,0.0553967
3221,-0.028560963
3222,0.06392898
3223,-0.00760544
3224,-0.02796538
3225,-0.028546153
3226,-0.007907697
3227,0.004760056
3228,0.0038980432
3229,-0.018688798
3230,-0.03684522
3231,0.024548778
3232,0.04739756
3233,-0.034844965
3234,0.0039716745
3235,-0.03579245
3236,0.055031795
3237,0.06813185
3238,0.043985456
3239,0.032950044
3240,-0.012169329
3241,-0.04264319
3242,0.009664789
3243,-0.028775655
3244,0.063553
3245,0.062949024
3246,-0.056079507
3247,-0.055576976
3248,0.03657284
3249,0.04576203
3250,-0.022517165
3251,0.03697678
3252,0.020777982
3253,0.03220954
3254,-0.0006574478
3255,0.050570834
3256,0.04889321
3257,0.05765471
3258,0.04087718
3259,-0.04259199
3260,0.015870105
3261,0.01628229
3262,-0.001417848
3263,-0.047122225
3264,-0.04053178
3265,0.003142441
3266,0.029017093
3267,-0.03329666
3268,-0.05556536
3269,-0.05218903
3270,0.016348774
3271,-0.06271698
3272,-0.00061090617
3273,-0.003411458
3274,0.034578767
3275,0.00014650408
3276,0.010696659
3277,0.037879325
3278,-0.030965677
3279,-0.052509654
3280,-0.0020564033
3281,0.010712397
3282,0.05600048
3283,-0.037271008
3284,0.028944965
3285,-0.05385491
3286,0.057248496
3287,-0.01810051
3288,-0.055068705
3289,-0.0005545508
3290,-0.03243437
3291,-0.025469914
3292,-0.06297372
3293,-0.053311963
3294,-0.060347542
3295,0.03840922
3296,-0.010267782
3297,0.03560295
3298,-0.028049381
3299,0.008656347
3300,-0.022913182
3301,0.057710383
3302,0.03305919
3303,0.039918482
3304,-0.012484212
3305,0.050911464
3306,0.041458458
3307,0.008067588
3308,-0.026411409
3309,-0.038318276
3310,-0.026099006
3311,-0.032585833
3312,-0.01510101
3313,-0.021862926
3314,-0.043556802
3315,0.015592636
3316,-0.020389048
3317,0.01841275
3318,-0.025067188
3319,-0.013411263
3320,0.021378823
3321,-0.0063469573
3322,0.060179178
3323,-0.013165239
3324,-0.012838086
3325,0.03738571
3326,-0.011753268
3327,-0.04577945
3328,-0.05091287
3329,-0.004520779
3330,0.015560147
3331,-0.022051133
3332,-0.051005095
3333,-0.005385093
3334,-0.000538716
3335,-0.036010906
3336,-0.037773494
3337,0.040601004
3338,-0.045084264
3339,-0.0017237607
3340,0.0023246834
3341,-0.03803065
3342,0.007005799
3343,-0.06003952
3344,-0.045176756
3345,0.025801733
3346,0.022656374
3347,-0.022082526
3348,-0.05828798
3349,0.058736082
3350,0.034353774
3351,-0.011494364
3352,-0.045880675
3353,0.027729677
3354,0.055030905
3355,-0.0049529527
3356,-0.058064166
3357,0.02512899
3358,-0.007927182
3359,0.025618209
3360,0.029793065
3361,-0.04589184
3362,-0.017721988
3363,0.024165845
3364,0.029097864
3365,-0.048998162
3366,-0.024789827
3367,0.027180586
3368,0.0023091845
3369,0.043883685
3370,0.054032765
3371,-0.0042344937
3372,0.054387096
3373,-0.06637228
3374,0.047244485
3375,-0.05223762
3376,0.015477381
3377,-0.012177509
3378,-0.049306292
3379,0.02577677
3380,0.061711714
3381,0.01595974
3382,-0.050393414
3383,-0.01006481
3384,-0.029396657
3385,0.035612147
3386,0.046925303
3387,-0.056504287
3388,0.045931876
3389,0.0500723
3390,0.0150179155
3391,0.049472246
3392,-0.021633016
3393,-0.011618598
3394,0.062571704
3395,0.056405902
3396,0.041950688
3397,0.031195465
3398,0.026300536
3399,0.025165902
3400,0.057541996
3401,0.016220778
3402,0.020988598
3403,0.039827384
3404,0.024432112
3405,0.0018708758
3406,-0.0007409382
3407,0.017944016
3408,-0.02537417
3409,0.0026423684
3410,0.011284084
3411,-0.022812711
3412,-0.036555953
3413,-0.0047744866
3414,0.030421102
3415,0.03691591
3416,0.049505662
3417,-0.019459954
3418,-0.027003158
3419,-0.007939195
3420,0.017579714
3421,-0.038736094
3422,0.05946518
3423,-0.04406137
3424,-0.04368935
3425,0.025308426
3426,0.016989348
3427,0.04929687
3428,0.03857736
3429,0.048202027
3430,0.039186943
3431,-0.009356438
3432,-0.0063001113
3433,0.037127707
3434,-0.013096416
3435,0.04829299
3436,-0.011444645
3437,-0.0147383725
3438,-0.04623353
3439,-0.04501466
3440,0.016918521
3441,0.042273894
3442,-0.015714264
3443,-0.03776809
3444,-0.043102127
3445,-0.04679504
3446,-0.03853018
3447,0.053886443
3448,-0.024623057
3449,0.05822466
3450,0.027283808
3451,0.038745563
3452,0.0012959592
3453,0.047409303
3454,-0.03311823
3455,-0.06095339
3456,-0.03453709
3457,0.02912763
3458,-0.04998255
3459,0.041403774
3460,0.059572496
3461,0.023732262
3462,-0.057121307
3463,-0.031026958
3464,0.05253783
3465,-0.04828791
3466,-0.013621327
3467,0.041270997
3468,0.020377228
3469,-0.045131233
3470,-0.014271427
3471,0.018765997
3472,-0.023975756
3473,0.0018870124
3474,0.02111746
3475,-0.007707429
3476,-0.026290597
3477,-0.0043222373
3478,-0.035051707
3479,0.023305822
3480,-0.019317891
3481,-0.05843819
3482,-0.048468135
3483,-0.009160097
3484,0.010283337
3485,0.007840754
3486,0.028432688
3487,-0.013529603
3488,-0.012555972
3489,0.05828363
3490,0.052655462
3491,0.03174576
3492,0.03888431
3493,0.029392576
3494,0.0060074865
3495,-0.051978897
3496,-0.051589817
3497,-0.052629963
3498,-0.05633117
3499,-0.0013936546
3500,-0.06498467
3501,-0.05626991
3502,-0.0455141
3503,0.035657804
3504,0.0225255
3505,0.052201685
3506,-0.056202978
3507,-0.027621837
3508,-0.014694444
3509,0.0024624057
3510,-0.058497634
3511,-0.055838697
3512,-0.05002935
3513,-0.024602665
3514,0.0015957284
3515,0.038862772
3516,0.011175008
3517,0.0044820113
3518,0.0141756395
3519,0.034853775
3520,-0.04985259
3521,0.043547593
3522,-0.048522122
3523,0.05159057
3524,0.046128917
3525,-0.0069490885
3526,0.024418585
3527,-0.009610383
3528,0.057739675
3529,0.042243928
3530,-0.008603703
3531,0.013718406
3532,0.033046767
3533,0.060272343
3534,0.023063155
3535,-0.053451594
3536,0.04693569
3537,0.022027286
3538,0.0057062265
3539,-0.053518023
3540,0.062901154
3541,-0.05982659
3542,-0.036863793
3543,-0.022836028
3544,-0.049237754
3545,0.036171116
3546,-0.005518288
3547,0.0100201
3548,0.01722355
3549,-0.048006393
3550,0.051245518
3551,-0.059717484
3552,0.018166147
3553,0.0011192169
3554,-0.013168983
3555,0.031388454
3556,0.00086540467
3557,0.052213453
3558,-0.045781318
3559,-0.020083457
3560,0.029583616
3561,0.06300982
3562,0.04065211
3563,0.025410991
3564,-0.043216724
3565,0.0140392445
3566,0.047768336
3567,-0.009071745
3568,-0.044502452
3569,0.045008555
3570,-0.0094898455
3571,-0.029920524
3572,0.04188435
3573,-0.007954622
3574,0.055656374
3575,0.035027355
3576,0.049345985
3577,0.00735732
3578,0.05263157
3579,0.027000647
3580,-0.052659243
3581,-0.051024478
3582,0.06704725
3583,-0.05650336
3584,-0.04330544
3585,-0.018971387
3586,0.017222203
3587,0.05556397
3588,0.0002477145
3589,0.053001724
3590,0.017111985
3591,0.044097435
3592,0.040877838
3593,-0.030662762
3594,0.017400227
3595,0.053055435
3596,0.04187779
3597,0.012026196
3598,-0.006572946
3599,-0.03253612
3600,-0.04434692
3601,-0.039818548
3602,-0.018738797
3603,-0.008922676
3604,0.0046567996
3605,-0.018421281
3606,-0.054393258
3607,0.05816058
3608,0.00037869476
3609,0.006434118
3610,0.000108544904
3611,-0.02081979
3612,-0.010724535
3613,-0.019095173
3614,-0.010906359
3615,-0.037861753
3616,-0.023691554
3617,-0.007936281
3618,0.0191233
3619,-0.028373536
3620,-0.0016950216
3621,-0.0037724886
3622,0.024361318
3623,0.04675007
3624,0.0039960663
3625,-0.0138535295
3626,-0.0051501025
3627,-0.038213093
3628,0.016981648
3629,-0.03623066
3630,0.05511697
3631,0.039775107
3632,-0.047213323
3633,0.037474018
3634,-0.015345865
3635,-0.04877891
3636,-0.009209796
3637,-0.014947144
3638,-0.03441119
3639,-0.022633294
3640,-0.06931943
3641,0.025008086
3642,-0.01224946
3643,-0.036764555
3644,0.043022048
3645,-0.05906363
3646,-0.056079403
3647,0.03811879
3648,0.015587334
3649,-0.01676598
3650,-0.03751985
3651,-0.023201626
3652,0.01338625
3653,0.056189775
3654,-0.054633886
3655,-0.028878385
3656,0.028712245
3657,0.028737525
3658,0.014469737
3659,0.0551933
3660,-0.05917101
3661,-0.03133827
3662,-0.048978593
3663,-0.0018996213
3664,0.0065926802
3665,-0.0024268653
3666,0.04976906
3667,0.02323905
3668,0.024758663
3669,-0.0057344264
3670,0.027400542
3671,-0.0015623759
3672,-0.054542236
3673,-0.04424449
3674,-0.05069078
3675,-0.03069707
3676,-0.012816276
3677,-0.045947287
3678,-0.02857508
3679,-0.066273995
3680,-0.028500574
3681,-0.06898282
3682,-0.04522258
3683,-0.0012565422
3684,-0.018689794
3685,0.058120925
3686,0.020467257
3687,-0.050209273
3688,-0.006300293
3689,-0.0048199245
3690,0.020098938
3691,-0.02001412
3692,-0.0051528304
3693,-0.03367415
3694,-0.046086982
3695,0.056411583
3696,0.050534822
3697,0.011947712
3698,-0.014599717
3699,0.017809583
3700,0.02980953
3701,0.0025866898
3702,0.012468916
3703,-0.047301974
3704,-0.028647175
3705,-0.032196876
3706,0.029075842
3707,0.03000298
3708,-0.063277915
3709,0.06452135
3710,0.03545567
3711,0.011470164
3712,0.022328429
3713,0.026261492
3714,-0.0034770104
3715,-0.029570755
3716,-0.045294106
3717,-0.039503172
3718,-0.024127854
3719,0.04525226
3720,0.016881492
3721,-0.051470563
3722,-0.012600207
3723,0.0011355934
3724,-0.029902052
3725,-0.049026344
3726,-0.044115257
3727,0.046336316
3728,0.004580976
3729,0.013472092
3730,-0.026201218
3731,0.06977936
3732,-0.053362936
3733,-0.041483045
3734,0.017715037
3735,-0.002982525
3736,0.021830203
3737,0.067293994
3738,-0.044790264
3739,0.0040391176
3740,0.00975342
3741,-0.030717516
3742,0.046944194
3743,-0.00082782353
3744,0.061532
3745,0.017395975
3746,0.018682655
3747,-0.053062603
3748,0.01625675
3749,-0.02617589
3750,-0.026645862
3751,-0.018174166
3752,0.0013013729
3753,0.04533661
3754,-0.0009122404
3755,-0.056746613
3756,0.04389511
3757,0.0552167
3758,-0.04056497
3759,0.03418211
3760,0.025575817
3761,0.00025642433
3762,-0.058558047
3763,0.0032284963
3764,0.01578677
3765,0.05947494
3766,-0.043336775
3767,0.026545383
3768,0.028267879
3769,0.022601806
3770,-0.021372283
3771,0.04690584
3772,0.03836787
3773,-0.03452178
3774,-0.012234427
3775,-0.017866345
3776,0.058751613
3777,0.034975495
3778,-0.028551798
3779,-0.06347643
3780,-0.029863724
3781,-0.04787468
3782,0.016009446
3783,-0.056218278
3784,0.04448395
3785,0.04254382
3786,0.03555481
3787,0.05839064
3788,-0.011442032
3789,-0.00900748
3790,0.040072467
3791,0.02000311
3792,0.039309673
3793,-0.007968585
3794,0.016961055
3795,0.044520177
3796,0.016493205
3797,-0.017118424
3798,0.022968208
3799,-0.055957925
3800,0.013976301
3801,-0.053661
3802,0.0058184965
3803,0.04104329
3804,-0.036684733
3805,0.04986795
3806,0.022822531
3807,-0.035621833
3808,0.027216826
3809,-0.028766021
3810,0.027590338
3811,0.035462715
3812,-0.0076111197
3813,-0.041342102
3814,-0.049006633
3815,0.04687725
3816,-0.009611654
3817,0.027951708
3818,0.05743659
3819,0.017927665
3820,-0.042136997
3821,0.040664822
3822,0.03615783
3823,0.040783875
3824,0.026624557
3825,-0.038186636
3826,-0.034398273
3827,0.046936266
3828,-0.0028776894
3829,-0.020067764
3830,-0.0068819025
3831,-0.046973407
3832,0.012538147
3833,-0.009197549
3834,0.044562336
3835,-0.037496056
3836,0.020927
3837,0.01957872
3838,0.029837197
3839,-0.059812587
3840,-0.017926378
3841,-0.03759695
3842,0.05447837
3843,-0.01187611
3844,0.00096414855
3845,0.04966071
3846,0.048514094
3847,0.042867113
3848,0.049976237
3849,0.02309511
3850,0.015566612
3851,0.05411241
3852,0.028551754
3853,0.055677086
3854,0.04578709
3855,0.046293613
3856,-0.03306917
3857,-0.038571734
3858,-0.050074693
3859,0.026545513
3860,0.046447393
3861,-0.03663999
3862,0.058101933
3863,0.007378658
3864,0.043238487
3865,-0.018736849
3866,0.06567345
3867,0.054946948
3868,0.023752065
3869,-0.028786603
3870,-0.04838759
3871,-0.04949201
3872,-0.042933755
3873,-0.002706418
3874,-0.04181039
3875,-0.045998342
3876,-0.047146417
3877,0.040413797
3878,-0.046521
3879,0.015715452
3880,-0.029819932
3881,0.038008504
3882,0.06854917
3883,0.048352312
3884,0.019438572
3885,-0.050328474
3886,0.054128204
3887,0.01284299
3888,-0.013680254
3889,-0.0621756
3890,0.02372098
3891,-0.049909573
3892,0.035989985
3893,0.04919548
3894,-0.0638055
3895,-0.045174446
3896,0.051657174
3897,0.06147599
3898,-0.012789112
3899,0.03734226
3900,0.030734422
3901,-0.06571581
3902,-0.051484536
3903,0.06648732
3904,-0.03663875
3905,-0.04679945
3906,-0.013534142
3907,0.014298656
3908,0.01642222
3909,-0.0111186365
3910,0.04580916
3911,0.017626083
3912,-0.029486846
3913,-0.04437121
3914,-0.063697666
3915,-0.043295376
3916,0.06281023
3917,0.02638945
3918,0.04215253
3919,-0.033093315
3920,-0.05291223
3921,0.002117709
3922,0.020247215
3923,0.03426509
3924,-0.022789275
3925,0.04802559
3926,0.010786194
3927,-0.04366432
3928,-0.064087294
3929,0.00062079285
3930,0.006655196
3931,0.029169256
3932,-0.076217316
3933,0.011848808
3934,-0.058124363
3935,-0.04303165
3936,0.020947007
3937,-0.05997812
3938,-0.039401054
3939,0.027225342
3940,-0.03412559
3941,0.036118828
3942,0.066542074
3943,-0.06694685
3944,0.0006464736
3945,0.04797558
3946,-0.010580523
3947,-0.023136694
3948,-0.051171113
3949,0.020816995
3950,0.04306953
3951,-0.012336223
3952,0.018488051
3953,-0.011109885
3954,0.006959003
3955,-0.044923693
3956,-0.045824602
3957,0.031344764
3958,-0.018825881
3959,0.051422067
3960,0.01014856
3961,-0.057239242
3962,-0.039514862
3963,-0.031975344
3964,0.02701943
3965,-0.021474956
3966,0.039914772
3967,0.008287282
3968,-0.048689008
3969,0.004546597
3970,-0.051540487
3971,0.02290771
3972,0.013567361
3973,-0.010683539
3974,0.021897187
3975,-0.006738252
3976,-0.016644126
3977,0.004194565
3978,-0.060763884
3979,-0.032009237
3980,0.034871817
3981,-0.015739564
3982,-0.002906409
3983,0.0062558735
3984,0.03137718
3985,-0.059616253
3986,-0.009139639
3987,-0.0016919548
3988,-0.058871694
3989,0.023498327
3990,0.04650351
3991,0.027150067
3992,-0.044651616
3993,-0.024947153
3994,0.053384185
3995,-0.0073570292
3996,-0.0072713727
3997,0.053103823
3998,-0.007659455
3999,0.033578414
4000,0.0003051491
4001,0.0026634904
4002,0.01747876
4003,0.025044836
4004,-0.056132432
4005,0.030077742
4006,0.032434206
4007,0.04708803
4008,-0.016419724
4009,-0.02942725
4010,-0.037879158
4011,-0.0125731835
4012,0.060316604
4013,0.07190553
4014,-0.035771642
4015,-0.068484776
4016,0.043712534
4017,-0.03864303
4018,0.05294363
4019,-0.04481697
4020,-0.028766863
4021,0.05914541
4022,0.0040344545
4023,0.017418599
4024,0.005647979
4025,0.03580907
4026,0.029215427
4027,0.015932104
4028,0.042612005
4029,-0.02505208
4030,-0.05058174
4031,0.015255502
4032,0.00851981
4033,0.021917941
4034,-0.008321217
4035,-0.0033231406
4036,-0.014976766
4037,-0.0048801936
4038,0.060158916
4039,-0.04374658
4040,-0.049154557
4041,0.0012529875
4042,0.024514595
4043,0.07286139
4044,0.024884691
4045,-0.036934454
4046,-0.05259945
4047,-0.042981546
4048,-0.029815305
4049,0.028841468
4050,0.006338815
4051,-0.0033826812
4052,-0.07137928
4053,-0.046252523
4054,0.0112782745
4055,0.026498886
4056,0.06535359
4057,0.021017442
4058,0.04374449
4059,-0.007568461
4060,0.0138743445
4061,0.019215368
4062,-0.060136084
4063,-0.0045636096
4064,0.016863322
4065,-0.065057404
4066,0.034161005
4067,-0.050988372
4068,-0.061169423
4069,-0.016455686
4070,0.024953658
4071,-0.007828562
4072,0.007654395
4073,0.025178757
4074,0.0036779575
4075,0.02058058
4076,-0.019464165
4077,0.04327311
4078,-0.010042785
4079,0.06341297
4080,-0.020748332
4081,-0.054979578
4082,0.06152323
4083,-0.04964728
4084,-0.044172496
4085,-0.023910934
4086,0.02536874
4087,-0.0400403
4088,0.039435387
4089,-0.008376502
4090,0.034380198
4091,0.006777747
4092,-0.051221605
4093,-0.0518647
4094,-0.018327992
4095,0.037266333
4096,-0.010122605
4097,-0.047875997
4098,-0.007824394
4099,0.061158396
4100,-0.012428431
4101,-0.01951625
4102,0.020359516
4103,-0.018641233
4104,0.0496901
4105,-0.000746677
4106,0.0035875237
4107,-0.050817847
4108,-0.043178283
4109,0.03096932
4110,0.011955482
4111,-0.014910294
4112,0.025036668
4113,-0.023119336
4114,-0.03106734
4115,-0.034817092
4116,-0.022033855
4117,0.025710369
4118,0.053941134
4119,0.037809107
4120,0.010843018
4121,0.0430656
4122,0.047597427
4123,-0.046340168
4124,0.008547671
4125,0.018697685
4126,-0.043196727
4127,-0.017578632
4128,-0.01903467
4129,-0.01959269
4130,-0.05269679
4131,0.00030821594
4132,0.0613698
4133,0.0458099
4134,-0.027074885
4135,-0.064790405
4136,-0.021689335
4137,-0.03549607
4138,0.03267221
4139,0.04972551
4140,-0.01072567
4141,0.0019971682
4142,-0.047802757
4143,0.018546281
4144,0.0381059
4145,-0.040239956
4146,-0.013573041
4147,0.0607051
4148,0.00807349
4149,0.04521332
4150,-0.024013938
4151,0.03208377
4152,-0.06359463
4153,-0.006786858
4154,0.0065727676
4155,0.038447917
4156,-0.030721692
4157,0.043335542
4158,0.05030921
4159,-0.0366089
4160,0.0013322341
4161,-0.000201741
4162,-0.055578575
4163,0.031180715
4164,0.024981689
4165,-0.041117013
4166,-0.014666123
4167,0.059276305
4168,0.034233477
4169,0.02992014
4170,0.06277119
4171,0.037261758
4172,0.02156743
4173,-0.028373303
4174,0.058886085
4175,-0.04860665
4176,0.030549036
4177,-0.06022897
4178,-0.00040223764
4179,-0.032399297
4180,0.012851455
4181,0.044556145
4182,0.034889854
4183,0.004142347
4184,-0.021311326
4185,-0.032954685
4186,-0.045282368
4187,0.0088464385
4188,0.0026770958
4189,-0.039167173
4190,-0.007447389
4191,0.0053065238
4192,-0.018256532
4193,-0.007844079
4194,-0.076417364
4195,0.016324546
4196,-0.0150138885
4197,-0.00044538302
4198,0.007017647
4199,-0.007261176
4200,0.06301449
4201,0.019090673
4202,0.057845693
4203,0.036036827
4204,-0.0024534587
4205,0.03053914
4206,-0.025086874
4207,0.028424567
4208,0.0032559002
4209,0.029966453
4210,0.043419357
4211,-0.0032036572
4212,0.012877729
4213,-0.043905914
4214,0.026039355
4215,-0.021808892
4216,0.047787044
4217,-0.051701624
4218,-0.003804616
4219,0.063561544
4220,0.0032880756
4221,-0.02008298
4222,-0.03044649
4223,0.03194558
4224,0.0092077
4225,-0.013500236
4226,0.023773735
4227,-0.0069643613
4228,-0.05615043
4229,-0.040877912
4230,0.057778098
4231,-0.006179279
4232,0.023938797
4233,-0.048196904
4234,-0.03430362
4235,0.022813948
4236,0.06609332
4237,-0.05214256
4238,-0.017858336
4239,0.012480434
4240,-0.041773602
4241,-0.024994371
4242,-0.009786088
4243,0.042178728
4244,-0.035306875
4245,-0.012735128
4246,-0.013104663
4247,0.009466932
4248,-0.026520941
4249,-0.037975043
4250,0.01622223
4251,9.3894305e-05
4252,0.05261773
4253,0.046959043
4254,0.06757902
4255,-0.051626194
4256,0.0407636
4257,-0.009707153
4258,0.048519187
4259,-0.010193727
4260,-0.022216855
4261,0.052447014
4262,-0.013867531
4263,0.07026412
4264,-0.031613704
4265,0.05908265
4266,-0.009366882
4267,-0.048492737
4268,-0.023391783
4269,-0.05483779
4270,-0.04374515
4271,0.014575019
4272,-0.0018285599
4273,-0.022070324
4274,0.008249694
4275,-0.023717413
4276,-0.011099752
4277,-0.00015686465
4278,0.036719732
4279,-0.05911837
4280,-0.059054982
4281,-0.010517188
4282,0.039065856
4283,-0.009405912
4284,0.0032993008
4285,-0.035203345
4286,0.022899302
4287,0.018643219
4288,-0.02155188
4289,-0.0067376033
4290,-0.047583345
4291,0.03406919
4292,0.046470273
4293,-0.023863228
4294,-0.021801472
4295,0.028088886
4296,0.007696432
4297,0.055980597
4298,-0.027151175
4299,-0.03173436
4300,-0.05446707
4301,-0.048058923
4302,0.011387987
4303,0.035821356
4304,0.014612912
4305,0.02997484
4306,0.012101436
4307,-0.030883847
4308,0.06232941
4309,-0.05219923
4310,-0.058027375
4311,0.020506678
4312,-0.06007874
4313,0.038460005
4314,0.016176939
4315,-0.041305166
4316,0.03709957
4317,-0.043634165
4318,-0.015659608
4319,0.036976915
4320,0.04478754
4321,0.024881858
4322,0.024844151
4323,-0.06044993
4324,-0.0043783165
4325,-0.05697231
4326,-0.026959699
4327,-0.044002686
4328,0.0051048193
4329,0.047694147
4330,0.006833474
4331,0.021402508
4332,-0.057958283
4333,0.031981573
4334,0.061215237
4335,0.004708659
4336,0.04771009
4337,-0.005210814
4338,0.023271162
4339,0.03617134
4340,0.022052867
4341,-0.032662593
4342,0.01517582
4343,0.059299223
4344,0.05184931
4345,0.04325693
4346,-0.017820464
4347,0.06589556
4348,-0.039014686
4349,0.018682336
4350,0.055700164
4351,0.06083713
4352,0.044237338
4353,0.02081331
4354,0.04726087
4355,-0.024793614
4356,-0.0018330801
4357,-0.025627665
4358,0.049675204
4359,-0.04681579
4360,-0.028279308
4361,0.026579643
4362,0.05169524
4363,-0.056778643
4364,0.005063497
4365,0.02752132
4366,-0.010667367
4367,-0.05667405
4368,-0.053498
4369,-0.013031735
4370,0.0642988
4371,-0.059907213
4372,-0.038040977
4373,0.02718322
4374,0.053347748
4375,-0.018527895
4376,0.019468574
4377,0.05612619
4378,0.008515819
4379,0.013992971
4380,0.057725605
4381,-0.05201518
4382,-0.033067275
4383,-0.03214687
4384,-0.041504472
4385,0.0050553028
4386,-0.014880829
4387,-0.026265882
4388,-0.005892052
4389,0.050630707
4390,0.04692279
4391,-0.014006601
4392,-0.016118022
4393,-0.048925534
4394,-0.022352664
4395,-0.053671613
4396,0.041903652
4397,-0.006167999
4398,0.027018512
4399,-0.013624617
4400,0.00044786982
4401,-0.044301786
4402,0.05010416
4403,-0.020828387
4404,0.018151864
4405,-7.1974144e-05
4406,-0.026140615
4407,-0.0117450785
4408,-0.026263468
4409,0.013961738
4410,-0.05390268
4411,0.0062150774
4412,-0.0010589714
4413,0.030104531
4414,0.0050714426
4415,-0.024595661
4416,-0.040633153
4417,-0.020152314
4418,-0.015578742
4419,-0.044854295
4420,-0.05325983
4421,0.064557895
4422,-0.002746923
4423,-0.0047877072
4424,0.061892223
4425,0.030792361
4426,-0.014098445
4427,-0.055144265
4428,0.047651738
4429,0.039599113
4430,0.009250016
4431,-0.032531906
4432,0.042542137
4433,-0.05830887
4434,-0.024767017
4435,-0.04445679
4436,0.053644214
4437,-0.058891263
4438,0.03866815
4439,0.0243694
4440,-0.0061847926
4441,-0.038915396
4442,0.024742754
4443,0.046848927
4444,0.016887652
4445,-0.0008732156
4446,0.023248877
4447,-0.045253698
4448,0.031606603
4449,0.043901183
4450,0.04432233
4451,-0.04681935
4452,-0.036820937
4453,0.05184591
4454,-0.048251517
4455,-0.032560825
4456,0.07065172
4457,-0.03944424
4458,0.0010807937
4459,0.06778933
4460,0.018156875
4461,0.00930042
4462,0.020317016
4463,-0.04578866
4464,0.028534928
4465,0.00061187404
4466,-0.02303289
4467,0.026807126
4468,0.029437512
4469,-0.05818549
4470,0.0018049526
4471,-0.0045187837
4472,0.02915868
4473,-0.059193622
4474,0.022862537
4475,-0.02698064
4476,-0.014420222
4477,-0.035511788
4478,-0.023110136
4479,-0.03446622
4480,-0.040035818
4481,0.060466208
4482,0.010263234
4483,-0.050806537
4484,0.014711819
4485,0.026246238
4486,0.055186767
4487,0.052342482
4488,-0.057372786
4489,0.042029884
4490,-0.012751439
4491,0.02065478
4492,0.012158831
4493,0.042180065
4494,-0.018628856
4495,0.034276016
4496,0.056342237
4497,-0.027799467
4498,-0.0021709534
4499,-0.04183148
4500,0.023834841
4501,-0.06429785
4502,0.031562187
4503,-0.048549414
4504,-0.052020386
4505,-0.061320685
4506,0.021958176
4507,-0.049307246
4508,-0.058842566
4509,0.026357023
4510,-0.022411088
4511,-0.025918154
4512,-0.026540602
4513,0.007838954
4514,0.0145671815
4515,0.047326792
4516,-0.040228233
4517,0.03888502
4518,0.05907697
4519,-0.05722015
4520,0.041415505
4521,-0.014437178
4522,0.05297406
4523,0.047527373
4524,-0.049138162
4525,0.019995803
4526,-0.04243983
4527,-0.02738033
4528,0.020135138
4529,0.055593517
4530,0.030897487
4531,0.05980382
4532,-0.04656011
4533,-0.0364312
4534,-0.011905576
4535,0.042672813
4536,0.05654739
4537,0.037265338
4538,0.005147408
4539,0.051193625
4540,-0.06063013
4541,0.008139477
4542,0.046162516
4543,-0.029619975
4544,-0.03425762
4545,-0.0020365282
4546,-0.030795462
4547,-0.016986243
4548,-0.0025146648
4549,0.02011567
4550,-0.036542296
4551,-0.019639648
4552,-0.045331843
4553,-0.058122817
4554,-0.056095213
4555,0.054011993
4556,-0.036215223
4557,0.05344849
4558,0.025878144
4559,0.0026532924
4560,-0.010166812
4561,-0.00938212
4562,0.06313691
4563,0.0038108008
4564,0.04186587
4565,0.03212943
4566,0.0424452
4567,-0.02127981
4568,-0.044614382
4569,0.013575054
4570,-0.0257006
4571,-0.0271137
4572,0.02231268
4573,0.056911934
4574,-0.023037452
4575,-0.048067223
4576,-0.01471221
4577,0.05232252
4578,0.047790162
4579,-0.008023372
4580,-0.030566985
4581,-0.055056315
4582,0.045205165
4583,0.03570578
4584,0.05580911
4585,-0.04024268
4586,-0.04107125
4587,-0.03995688
4588,-0.038082104
4589,0.032316305
4590,-0.011600722
4591,0.002244336
4592,0.026816625
4593,-0.037313525
4594,-0.034577448
4595,0.047218077
4596,0.025979463
4597,-0.050683968
4598,-0.019919323
4599,0.062144883
4600,0.016361464
4601,-0.027574157
4602,0.03482283
4603,-0.019123828
4604,-0.032839328
4605,-0.030273566
4606,-0.052644357
4607,-0.033086117
4608,-0.047692735
4609,-0.03298795
4610,0.058595754
4611,0.0596178
4612,-0.014950253
4613,-0.016860666
4614,-0.057894543
4615,0.013456723
4616,-0.0583599
4617,0.0397626
4618,-0.055158094
4619,0.018016411
4620,-0.035287566
4621,0.022979615
4622,0.0190264
4623,-0.03698566
4624,0.016199952
4625,-0.020821426
4626,-0.02273274
4627,0.020541815
4628,0.047086354
4629,-0.013136987
4630,-0.05537937
4631,-0.0052924925
4632,0.014580225
4633,-0.02836476
4634,0.021372374
4635,0.06291141
4636,0.02800772
4637,-0.03432431
4638,-0.023497114
4639,-0.026759628
4640,-0.026255762
4641,0.041316304
4642,-0.056935012
4643,0.050429143
4644,0.0005563316
4645,-0.018248346
4646,-0.036202315
4647,-0.047206122
4648,0.029887091
4649,-0.025749234
4650,0.059222165
4651,-0.022065023
4652,0.05311518
4653,0.017210176
4654,-0.06484658
4655,-0.02864065
4656,-0.01773651
4657,0.021990769
4658,-0.0419412
4659,-0.031133812
4660,0.003253499
4661,0.012844985
4662,0.0497367
4663,-0.031279884
4664,-0.063347414
4665,0.009060546
4666,0.0151188085
4667,0.032669194
4668,0.04278584
4669,0.030994222
4670,-0.047996894
4671,0.04910274
4672,-0.049305487
4673,0.035002865
4674,-0.0019307254
4675,0.030804131
4676,-0.025796607
4677,-0.031796187
4678,-0.059852745
4679,0.041498322
4680,0.053687423
4681,0.03274545
4682,0.04954607
4683,-0.04085069
4684,-0.036744565
4685,0.057845946
4686,-0.04106185
4687,-0.05534286
4688,-0.04861681
4689,-0.050616097
4690,-0.015207129
4691,0.051828366
4692,0.03394723
4693,0.049677137
4694,-0.061349854
4695,0.021440351
4696,0.031694353
4697,0.036723617
4698,0.049396135
4699,0.04084765
4700,0.060281765
4701,0.019319529
4702,-0.027035655
4703,-0.058808975
4704,0.0095043145
4705,0.040811352
4706,0.04236736
4707,-0.018559154
4708,0.01627397
4709,0.013347324
4710,0.02494479
4711,-0.03183525
4712,0.022116765
4713,0.05769254
4714,0.04615018
4715,-0.037584446
4716,-0.036408897
4717,-0.021693746
4718,-0.04400279
4719,0.04999251
4720,-0.012191342
4721,-0.06090287
4722,0.0483588
4723,0.04545669
4724,-0.03388146
4725,0.040098716
4726,-0.024932263
4727,0.02735506
4728,-0.013982202
4729,-0.035633177
4730,0.008402506
4731,-0.05129528
4732,-0.021090953
4733,0.008960409
4734,-0.008473698
4735,0.03092343
4736,0.029960636
4737,-0.03918235
4738,-0.037063967
4739,-0.02222476
4740,0.032519825
4741,0.014486316
4742,-0.058279607
4743,0.018199358
4744,-0.007722708
4745,-0.042026963
4746,0.004770747
4747,0.00916909
4748,-0.055054713
4749,-0.04274699
4750,-0.05579342
4751,-0.048062067
4752,-0.03332893
4753,-0.05864864
4754,-0.054407608
4755,0.027813258
4756,-0.053621743
4757,0.016116088
4758,0.056410246
4759,0.017517082
4760,-0.058040023
4761,-0.020116063
4762,0.018509822
4763,0.0448555
4764,-0.005272192
4765,-0.024184821
4766,0.016092274
4767,0.023794327
4768,0.02159501
4769,0.023951896
4770,0.052524865
4771,-0.022049552
4772,0.0034955766
4773,-0.04281524
4774,-0.047383748
4775,-0.032086812
4776,0.012678985
4777,0.027957164
4778,0.0045025432
4779,-0.0588353
4780,-0.02383694
4781,-0.039335325
4782,-0.04482447
4783,-0.057788916
4784,-0.025783608
4785,-0.02238367
4786,-0.059055384
4787,-0.026207771
4788,-0.005046136
4789,-0.00097075215
4790,0.034233022
4791,0.052419588
4792,0.0075139715
4793,0.005302557
4794,-0.063393615
4795,-0.05783237
4796,-0.017324293
4797,-0.0499769
4798,-0.008167676
4799,-0.04794883
4800,0.0037122238
4801,0.032311216
4802,0.063159145
4803,0.053052794
4804,-0.019056128
4805,-0.05208275
4806,-0.029273897
4807,0.0472311
4808,-0.0014448403
4809,-0.007263681
4810,0.01750164
4811,-0.023788914
4812,-0.0140717635
4813,-0.002333675
4814,0.03535076
4815,-0.018875692
4816,0.047190208
4817,0.021216376
4818,-0.047881775
4819,0.041617054
4820,0.01216951
4821,0.053491365
4822,-0.0024291775
4823,0.033630267
4824,-0.041731726
4825,0.026185405
4826,-0.015914531
4827,0.024924211
4828,0.03991081
4829,0.032499805
4830,0.0130130835
4831,0.045681477
4832,0.01845211
4833,-0.05284146
4834,0.05980773
4835,-0.027716504
4836,-0.0349217
4837,0.04977153
4838,-0.010991482
4839,0.005872714
4840,-0.04287687
4841,-0.011618339
4842,-0.015153119
4843,-0.045242794
4844,-0.039625455
4845,-0.0518443
4846,0.02621809
4847,0.05670985
4848,-0.020169666
4849,0.04635365
4850,0.0028556753
4851,0.02640968
4852,0.044760257
4853,0.05167118
4854,0.037914637
4855,0.060508277
4856,0.03609574
4857,-0.027064726
4858,-0.05842205
4859,-0.036429565
4860,0.033878144
4861,-0.013920415
4862,-0.014179033
4863,-0.048553094
4864,0.056359425
4865,0.037495375
4866,-0.053168483
4867,-0.0460083
4868,0.03545364
4869,0.03681522
4870,-0.052559193
4871,0.044035576
4872,0.02612299
4873,0.011448721
4874,0.00540021
4875,0.030712489
4876,0.049412552
4877,-0.013139799
4878,0.010273802
4879,0.022120185
4880,-0.038647406
4881,0.00031751444
4882,-0.052359987
4883,0.0074610976
4884,0.037732683
4885,0.04885561
4886,0.0022740832
4887,-0.022761593
4888,0.020882985
4889,-0.0025001473
4890,-0.038057912
4891,-0.01613768
4892,0.017257618
4893,0.025702804
4894,-0.051171653
4895,-0.053636562
4896,-0.012089568
4897,0.057985578
4898,0.009763082
4899,0.024379669
4900,-0.042196207
4901,-0.03985155
4902,-0.019962437
4903,0.021112885
4904,-0.001450148
4905,0.040881723
4906,-0.034573216
4907,0.068613835
4908,0.051750418
4909,0.03591161
4910,0.016508382
4911,0.010908575
4912,-0.024029948
4913,0.014286183
4914,-0.01558022
4915,-0.031529605
4916,0.012881378
4917,0.019898122
4918,-0.002408838
4919,-0.049972527
4920,0.06341294
4921,-0.029241847
4922,-0.04634712
4923,0.015250156
4924,0.034040473
4925,0.032991517
4926,0.0373849
4927,-0.017233253
4928,-0.026402073
4929,-0.02049991
4930,-0.025012441
4931,-0.008318048
4932,-0.043198243
4933,-0.04465349
4934,-0.018061096
4935,0.058262866
4936,-0.02445943
4937,-0.024488382
4938,-0.012509046
4939,-0.009960387
4940,0.017095955
4941,0.062073767
4942,0.016470963
4943,-0.008281391
4944,0.052106436
4945,8.478201e-05
4946,-0.026518857
4947,-0.032527644
4948,0.041698936
4949,-0.042336956
4950,0.06586683
4951,-0.011338766
4952,-0.054524727
4953,-0.018042829
4954,-0.007012656
4955,-0.014931447
4956,-0.00469185
4957,0.019510567
4958,-0.003260475
4959,0.027488127
4960,-0.059024546
4961,0.009322508
4962,-0.05456879
4963,-0.039404303
4964,-0.041447606
4965,0.054875538
4966,-0.026862776
4967,0.028679052
4968,0.011771312
4969,-0.032347627
4970,-0.011014244
4971,0.045672335
4972,0.022051541
4973,-0.020222794
4974,0.059359625
4975,0.053356476
4976,0.016419038
4977,0.016402636
4978,0.0012454165
4979,0.013107392
4980,0.05031128
4981,-0.05806642
4982,0.038096376
4983,-0.047968578
4984,-0.011699261
4985,0.00012245821
4986,-0.061776906
4987,-0.041444913
4988,-0.04861487
4989,0.03234912
4990,-0.02741172
4991,0.0011704711
4992,0.059937965
4993,0.0153071415
4994,-0.0011759411
4995,-0.009171047
4996,-0.036710456
4997,0.04798293
4998,-0.04503173
4999,0.0431002
5000,-0.051887088
5001,-0.05401073
5002,0.005933363
5003,-0.017630313
5004,-0.008560522
5005,-0.01751524
5006,-0.0534368
5007,-0.009816321
5008,-0.0138652725
5009,0.027789129
5010,-0.03423711
5011,0.033505347
5012,0.044340875
5013,0.023243653
5014,-0.009172189
5015,-0.03565224
5016,-0.067988515
5017,0.07939008
5018,0.001832247
5019,-0.03518706
5020,-0.044238973
5021,-0.012628924
5022,0.015006092
5023,-0.0078042736
5024,0.0059937416
5025,0.033908505
5026,0.047844198
5027,0.008917014
5028,0.03216167
5029,-0.0024880117
5030,-0.051603187
5031,-0.03587764
5032,0.052100185
5033,0.028163608
5034,-0.023958825
5035,0.0244498
5036,0.028947296
5037,-0.030390898
5038,-0.057626292
5039,-0.002410004
5040,-0.013672322
5041,0.058612496
5042,0.036830068
5043,0.014342026
5044,0.008868207
5045,0.0149512105
5046,0.045940373
5047,-0.032608308
5048,-0.01672039
5049,-0.061215267
5050,0.06255169
5051,0.070730865
5052,-0.033759892
5053,-0.029813727
5054,0.05531714
5055,-0.017975388
5056,-0.058429033
5057,0.06049904
5058,0.034793597
5059,0.045211624
5060,0.014337106
5061,-0.033749804
5062,0.023693437
5063,0.011159523
5064,-0.035369147
5065,-0.0073531
5066,0.036271445
5067,-0.055124328
5068,0.0033413516
5069,0.011734865
5070,-0.03852032
5071,-0.032596145
5072,-0.04364203
5073,-0.0060992264
5074,0.044158593
5075,-0.06882307
5076,0.062451046
5077,0.0009953815
5078,-0.031391364
5079,0.0023689047
5080,0.06000331
5081,0.03624547
5082,0.016884645
5083,-0.013324209
5084,0.053572714
5085,0.042059775
5086,0.027344892
5087,-0.06830172
5088,0.031831678
5089,0.013928633
5090,-0.028441606
5091,-0.040365983
5092,0.031478867
5093,0.0025218772
5094,0.030429326
5095,0.033146787
5096,0.0030567662
5097,-0.040520176
5098,-0.043125063
5099,-0.022092313
5100,0.03421147
5101,-0.052828297
5102,-0.040948678
5103,-0.060376965
5104,-0.034917176
5105,-0.02436357
5106,0.06435852
5107,0.055466253
5108,-0.014589414
5109,-0.050541412
5110,-0.005915232
5111,0.046728585
5112,0.018894037
5113,-0.049991135
5114,-0.0056258067
5115,-0.006339779
5116,0.0026148304
5117,0.062051218
5118,0.018948115
5119,-0.012176114
5120,-0.04841075
5121,0.05020728
5122,-0.03481932
5123,0.057712577
5124,-0.014957941
5125,-0.01885341
5126,-0.04671694
5127,-0.044258825
5128,-0.034243964
5129,-0.0072423476
5130,-0.009181952
5131,-0.061795603
5132,-0.057330836
5133,-0.03305121
5134,-0.054941665
5135,-0.012061989
5136,-0.044742826
5137,-0.034649793
5138,-0.03951307
5139,-0.022088286
5140,-0.05717574
5141,-0.027360328
5142,-0.01651627
5143,-0.04435366
5144,-0.0048472146
5145,-0.010422129
5146,-0.027184237
5147,-0.0053768335
5148,-0.024277704
5149,0.016211847
5150,0.009513377
5151,0.035793908
5152,0.0022734518
5153,-0.029975185
5154,-0.029603064
5155,-0.015873214
5156,0.053097267
5157,0.007770918
5158,0.053745996
5159,-0.042043917
5160,-0.036696356
5161,-0.062414035
5162,-0.017719198
5163,0.036887683
5164,-0.0545392
5165,0.017134134
5166,0.0104232645
5167,-0.05432362
5168,-0.0072418554
5169,0.049601655
5170,-0.011851676
5171,-0.03497859
5172,0.05392437
5173,-0.017471315
5174,0.017786555
5175,-0.042668816
5176,-0.04848644
5177,0.00484409
5178,-0.029969625
5179,0.0056977454
5180,-0.013737739
5181,0.006307869
5182,-0.009488851
5183,-0.0102560725
5184,0.013774407
5185,0.0017069216
5186,-0.01730678
5187,-0.008903654
5188,0.051907893
5189,-0.032529604
5190,-0.014604117
5191,-0.0021778399
5192,0.014751284
5193,0.059685845
5194,0.019981202
5195,0.031807534
5196,0.006655572
5197,-0.022104654
5198,0.054569896
5199,0.061304968
5200,0.04767033
5201,0.051385883
5202,0.022298897
5203,0.026950302
5204,-0.021283098
5205,-0.050665602
5206,-0.053436942
5207,0.050396316
5208,0.0095801465
5209,-0.010894746
5210,-0.062666014
5211,-0.04391511
5212,-0.014889032
5213,0.005089481
5214,0.016404724
5215,0.016371032
5216,0.0023352047
5217,0.024718212
5218,0.05166936
5219,-0.04040636
5220,-0.0028585147
5221,-0.023573449
5222,-0.012974043
5223,0.002050795
5224,0.020384679
5225,0.015960768
5226,0.061323255
5227,0.033733208
5228,-0.039979614
5229,0.047748968
5230,-0.022020359
5231,0.008278043
5232,0.021264635
5233,-0.008344178
5234,0.0044556237
